{"state_dim": 8, "num_actions": 5, "layers": [{"W": [[-0.12371059507131577, -0.29271575808525085, 0.253834068775177, -0.0018548897933214903, -0.012756501324474812, 0.07275816053152084, -0.055336158722639084, -0.21326985955238342], [0.04227956756949425, 0.256477028131485, 0.1016666367650032, -0.12775810062885284, -0.32759201526641846, 0.023865006864070892, -0.19201256334781647, -0.1154610738158226], [-0.15003733336925507, 0.04527100920677185, 0.1368507742881775, -0.3396265208721161, 0.0008546813041903079, -0.1790904700756073, -0.24147242307662964, 0.024601785466074944], [0.31678318977355957, -0.07762561738491058, -0.012014803476631641, -0.2713389992713928, 0.23421502113342285, 0.0507974699139595, 0.07344751060009003, 0.25490713119506836], [-0.19660840928554535, 0.26803985238075256, 0.36076459288597107, -0.1276395171880722, -0.18386952579021454, 0.07524183392524719, 0.017368527129292488, 0.22180487215518951], [0.25065216422080994, -0.1318151354789734, 0.2379901111125946, -0.31253159046173096, 0.2697482109069824, 0.19738541543483734, -0.04452107101678848, -0.11596803367137909], [0.29687198996543884, 0.10037047415971756, 0.35512325167655945, -0.05716949701309204, -0.22189739346504211, -0.3056042492389679, 0.22014212608337402, 0.10370060801506042], [-0.30409201979637146, -0.11313945055007935, 0.3131142258644104, -0.24494017660617828, 0.36610084772109985, 0.008573380298912525, -0.1291409730911255, -0.24841974675655365], [0.1752917319536209, -0.3059168756008148, -0.19443222880363464, -0.004882540553808212, -0.13394831120967865, 0.24707160890102386, -0.1442028284072876, 0.22012118995189667], [0.13124071061611176, -0.1270935982465744, 0.07405279576778412, 0.3039935529232025, -0.3238873779773712, -0.16212275624275208, 0.234989196062088, -0.2685820162296295], [-0.15305162966251373, 0.3583570718765259, -0.11195427924394608, 0.06854034960269928, -0.25348445773124695, -0.10416731983423233, 0.024497486650943756, -0.034126508980989456], [0.2786664664745331, -0.3302139639854431, -0.04823235049843788, 0.08542821556329727, 0.05327783524990082, -0.2512804865837097, 0.13501164317131042, 0.13689933717250824], [-0.29775747656822205, 0.31524160504341125, 0.04924952983856201, -0.08255982398986816, 0.30962157249450684, -0.1461520493030548, 0.019404832273721695, -0.27841636538505554], [-0.28927862644195557, -0.07761718332767487, 0.26930269598960876, 0.17772889137268066, 0.291587233543396, -0.21874617040157318, -0.3421958088874817, -0.13494186103343964], [0.18870459496974945, -0.18531310558319092, 0.25413528084754944, 0.18319082260131836, 0.26193779706954956, -0.22576431930065155, -0.18186773359775543, -0.2250048965215683], [0.248733252286911, -0.18716686964035034, -0.04134237393736839, 0.22060205042362213, 0.33093249797821045, 0.10099560767412186, 0.3438590168952942, -0.051737040281295776], [0.05285189300775528, 0.3187638223171234, 0.0536915548145771, 0.197293221950531, 0.15412388741970062, 0.29454806447029114, 0.20613569021224976, 0.00021315296180546284], [0.3697550296783447, -0.07696937024593353, 0.03566239774227142, -0.2537466287612915, 0.11236333847045898, 0.2298661321401596, 0.30818575620651245, 0.2635735273361206], [-0.10131796449422836, 0.11553418636322021, 0.2974528968334198, -0.3055356740951538, -0.21727511286735535, 0.2674019932746887, 0.15118291974067688, -0.2685561776161194], [-0.08167273551225662, 0.19245554506778717, 0.18108811974525452, -0.008045482449233532, -0.2172597199678421, -0.17384183406829834, 0.0028762551955878735, 0.29027533531188965], [-0.14342989027500153, 0.3061964809894562, -0.3078053891658783, 0.30643782019615173, -0.24296195805072784, -0.051079340279102325, -0.16637881100177765, 0.2799009084701538], [0.3472921550273895, 0.31095778942108154, -0.3570158779621124, 0.06597744673490524, -0.026347512379288673, -0.2196456491947174, 0.05618574842810631, -0.21545706689357758], [-0.05600389465689659, 0.13554051518440247, 0.17419731616973877, -0.18184888362884521, 0.08560190349817276, -0.22521424293518066, -0.21746818721294403, 0.27555611729621887], [0.13288021087646484, 0.11349944025278091, 0.19227290153503418, -0.19864685833454132, -0.3103233277797699, -0.3369480073451996, 0.21781213581562042, 0.31526079773902893], [-0.29866093397140503, 0.2007659673690796, 0.2168022096157074, -0.039904508739709854, -0.16824840009212494, -0.3014737665653229, 0.27242764830589294, 0.14837175607681274], [0.24418231844902039, 0.18247726559638977, -0.2617274224758148, 0.16832439601421356, -0.23773980140686035, 0.32160520553588867, 0.11731123924255371, 0.13705620169639587], [-0.01430589146912098, -0.11475452035665512, 0.16397860646247864, -0.2797335982322693, -0.2128273844718933, 0.35002437233924866, 0.18462681770324707, 0.27917954325675964], [-0.0943605825304985, 0.053691208362579346, -0.29415950179100037, 0.11010351032018661, -0.026100624352693558, 0.02260793186724186, -0.2237144559621811, 0.10143845528364182], [0.1091696247458458, -0.0051961857825517654, -0.04814615473151207, 0.11362256109714508, 0.06751519441604614, -0.3215928375720978, 0.035834431648254395, -0.10313297063112259], [-0.03923499584197998, 0.03383669629693031, 0.1193656399846077, 0.04634210839867592, 0.004389320500195026, 0.32550010085105896, 0.0170600526034832, -0.12965485453605652], [0.1056835725903511, 0.2508416473865509, -0.18910741806030273, -0.29709163308143616, -0.10678698122501373, 0.2974994480609894, 0.026949647814035416, 0.31011712551116943], [-0.19519749283790588, -0.32331547141075134, -0.14279769361019135, -0.04252154752612114, 0.1142352893948555, 0.26699844002723694, -0.06640543043613434, 0.046970345079898834], [0.19805699586868286, 0.21600423753261566, -0.17101773619651794, 0.3686456084251404, -0.0870850682258606, 0.1838339865207672, 0.36367446184158325, -0.27780330181121826], [-0.18699350953102112, -0.0031477687880396843, -0.18278785049915314, -0.2204216569662094, 0.19842545688152313, 0.30287259817123413, -0.18776313960552216, -0.2841283679008484], [0.07921814918518066, -0.36897432804107666, -0.014357445761561394, -0.30875417590141296, 0.037800468504428864, -0.2439611405134201, 0.1489344835281372, -0.32497066259384155], [0.2987518608570099, 0.04386455938220024, 0.31909626722335815, 0.04538183659315109, 0.18034888803958893, -0.251100093126297, -0.10554816573858261, -0.2960239052772522], [0.25108346343040466, -0.20737455785274506, -0.24683211743831635, -0.15621308982372284, 0.32049915194511414, -0.2667839229106903, 0.15459749102592468, 0.15031059086322784], [0.2644142508506775, 0.130251944065094, 0.3142557740211487, 0.2876879870891571, -0.256091833114624, 0.18874491751194, -0.11155034601688385, -0.1923913061618805], [0.3654828369617462, 0.20052245259284973, -0.2591129541397095, -0.1264047622680664, 0.3358556032180786, 0.07500295341014862, 0.17748397588729858, 0.09668288379907608], [-0.1083931103348732, 0.013204612769186497, -0.27965089678764343, 0.09210193157196045, -0.005168149247765541, 0.2501004934310913, 0.11880216002464294, -0.24551178514957428], [0.3494451940059662, -0.06652909517288208, 0.18831488490104675, -0.06893489509820938, -0.027760444208979607, 0.1501997709274292, -0.08870850503444672, -0.011852380819618702], [0.02765664830803871, -0.07733727246522903, 0.3254970610141754, 0.3034004271030426, -0.06588944792747498, 0.11874405294656754, 0.3656338155269623, -0.3209984302520752], [-0.20854105055332184, -0.041200146079063416, -0.30919525027275085, -0.1718386560678482, 0.3033016622066498, 0.31587427854537964, 0.19873587787151337, 0.14895308017730713], [0.32217249274253845, -0.13824860751628876, 0.1742287427186966, -0.02857496216893196, -0.31897905468940735, 0.12499461323022842, 0.13448597490787506, 0.14677371084690094], [-0.26861146092414856, 0.20276464521884918, -0.06024814024567604, 0.18782253563404083, 0.09399363398551941, 0.2889787256717682, 0.3190969228744507, -0.134442999958992], [-0.2997500002384186, -0.33652979135513306, 0.12298821657896042, 0.021840833127498627, -0.22104007005691528, -0.01840890385210514, -0.1569281816482544, 0.14349257946014404], [-0.21774612367153168, -0.07692482322454453, -0.1036669984459877, -0.04376064985990524, -0.26287439465522766, -0.28734317421913147, 0.24516896903514862, 0.08172526955604553], [-0.24651136994361877, 0.07481557130813599, -0.1631506234407425, -0.122740738093853, -0.09983614087104797, -0.1374882161617279, -0.1477908194065094, -0.13351838290691376], [0.044190943241119385, -0.1282273381948471, 0.3313637375831604, -0.0690046027302742, -0.08792028576135635, 0.1594928652048111, -0.22335243225097656, 0.17735782265663147], [0.14811304211616516, -0.12732377648353577, 0.3197250962257385, -0.3103488087654114, -0.13620692491531372, 0.208236426115036, -0.11086393147706985, 0.0014735825825482607], [0.20543459057807922, -0.29538753628730774, -0.24405188858509064, 0.045990727841854095, 0.13400542736053467, 0.3143036961555481, -0.28847700357437134, -0.32320478558540344], [-0.3043166697025299, -0.0011256580473855138, -0.04526921361684799, -0.19605930149555206, -0.07669470459222794, -0.17740657925605774, -0.13576288521289825, -0.16520974040031433], [-0.050835367292165756, -0.31180429458618164, -0.13844481110572815, 0.31686484813690186, 0.01892339251935482, 0.13400642573833466, -0.23512883484363556, -0.07256732881069183], [0.28637829422950745, 0.1933867186307907, -0.2404361218214035, -0.010925578884780407, 0.08851248025894165, 0.2726956605911255, 0.09262466430664062, 0.05575362592935562], [-0.019971895962953568, -0.16649506986141205, 0.13711786270141602, -0.31907328963279724, -0.1171085387468338, -0.041077788919210434, -0.23077508807182312, 0.1449635922908783], [-0.1358356475830078, -0.0861671045422554, -0.2740313708782196, 0.13954652845859528, 0.20187419652938843, -0.34215471148490906, 0.21148933470249176, 0.03521803393959999], [0.13358348608016968, 0.23567987978458405, 0.2381342500448227, 0.25773343443870544, 0.09071529656648636, 0.22959360480308533, -0.05233554169535637, 0.23046310245990753], [0.06893853843212128, 0.08202171325683594, 0.3694601356983185, -0.02860543504357338, -0.3023766577243805, -0.30090564489364624, 0.31873443722724915, -0.22761528193950653], [0.2986637055873871, 0.1640177220106125, -0.18338260054588318, -0.23849691450595856, 0.1795874685049057, -0.23205770552158356, 0.31443285942077637, 0.1798141896724701], [-0.21272403001785278, 0.23934154212474823, -0.12625841796398163, 0.10527561604976654, 0.21949489414691925, -0.05102207139134407, 0.22563906013965607, 0.08264085650444031], [0.10886527597904205, -0.11858437955379486, 0.2893892526626587, -0.11843587458133698, -0.2842983901500702, 0.09316194802522659, -0.19674916565418243, -0.23927706480026245], [-0.32608675956726074, 0.31912028789520264, -0.2723303735256195, 0.049928754568099976, -0.04609088599681854, -0.1601758450269699, 0.07875288277864456, -0.05271607264876366], [-0.22697404026985168, 0.046519987285137177, 0.3114915192127228, -0.04645698517560959, 0.19450639188289642, 0.13033689558506012, 0.14211145043373108, -0.08928745985031128], [-0.21921990811824799, -0.16629351675510406, 0.3367236852645874, -0.14582042396068573, -0.2273414433002472, -0.11672357469797134, -0.10399898886680603, 0.18248851597309113], [-0.24009770154953003, -0.05794314295053482, -0.3446364998817444, 0.17510665953159332, -0.11176345497369766, 0.07389473170042038, -0.3172486126422882, 0.24667677283287048], [0.016489258036017418, -0.16198883950710297, -0.2746850252151489, 0.23209860920906067, 0.15393559634685516, 0.22547613084316254, -0.34501883387565613, 0.09774843603372574], [0.04927448555827141, 0.3035633862018585, -0.15352673828601837, -0.2094997763633728, 0.32110822200775146, -0.2650495171546936, 0.25404998660087585, -0.238960862159729], [-0.012956497259438038, 0.033788565546274185, -0.3449196517467499, 0.10886445641517639, 0.19092482328414917, 0.3193110227584839, -0.03415168076753616, -0.10330105572938919], [0.00459766760468483, 0.18468481302261353, 0.13480350375175476, 0.3205695152282715, 0.2518106997013092, -0.044964928179979324, 0.2887994945049286, -0.04369966313242912], [0.16547833383083344, 0.3078572452068329, -0.2824922800064087, -0.2865968346595764, -0.04556101933121681, -0.3322733938694, 0.16930235922336578, 0.09878452122211456], [-0.025216087698936462, 0.2678106427192688, -0.14566107094287872, 0.30940818786621094, -0.10953821986913681, 0.26274964213371277, -0.17579588294029236, -0.20564284920692444], [0.20681214332580566, 0.08361673355102539, 0.05340052396059036, 0.22982123494148254, 0.1408715695142746, -0.017204901203513145, -0.17053624987602234, -0.023585209622979164], [-0.3047766387462616, 0.3503347635269165, -0.24520906805992126, 0.23916535079479218, -0.3423008918762207, -0.14610639214515686, 0.16699101030826569, -0.09728667140007019], [-0.2739070951938629, -0.11374451220035553, 0.13898871839046478, 0.035688094794750214, -0.26890063285827637, 0.3509697914123535, -0.3178769052028656, 0.3289816081523895], [0.31540632247924805, 0.046267326921224594, -0.009228753857314587, -0.04251086711883545, -0.3305858075618744, -0.16903702914714813, -0.00448211096227169, -0.33160051703453064], [-0.165090873837471, -0.3660126328468323, 0.08691543340682983, 0.15262900292873383, 0.24024657905101776, -0.23280766606330872, -0.003353193635120988, -0.01778539828956127], [0.3024305999279022, -0.07235077023506165, -0.36002612113952637, 0.24084261059761047, -0.27349063754081726, 0.17582276463508606, -0.2922946810722351, 0.23760852217674255], [-0.2658514678478241, 0.2325999140739441, 0.0714106485247612, -0.23810426890850067, 0.12396766990423203, 0.04297107830643654, -0.19848400354385376, -0.10010270774364471], [-0.07684921473264694, 0.1422603726387024, 0.07856761664152145, 0.2864001989364624, 0.09840431809425354, -0.16118785738945007, 0.09780169278383255, 0.25161269307136536], [-0.11331260204315186, -0.24043603241443634, 0.29598468542099, 0.3562766909599304, -0.1431078314781189, 0.15233829617500305, -0.0638805478811264, -0.2618896961212158], [-0.09303562343120575, 0.2906567454338074, 0.05657827854156494, 7.633156201336533e-05, -0.014494058676064014, -0.06429987400770187, -0.3123239576816559, 0.16473130881786346], [0.20060855150222778, -0.19882789254188538, -0.33752813935279846, -0.06127187982201576, -0.2785985767841339, 0.30135613679885864, -0.2931547164916992, 0.06427492201328278], [0.1209200918674469, 0.04195502772927284, 0.05907342955470085, 0.20685602724552155, 0.24561689794063568, -0.039201442152261734, 0.26945534348487854, 0.16693148016929626], [-0.05032515525817871, -0.2830866873264313, 0.14757025241851807, -0.08705028146505356, 0.030942533165216446, 0.14138765633106232, -0.21828092634677887, 0.05549260601401329], [-0.06773887574672699, 0.2950260639190674, -0.18418361246585846, 0.20019693672657013, -0.02253269962966442, 0.2378697693347931, -0.29221054911613464, 0.24334725737571716], [-0.03904831409454346, 0.05520332604646683, -0.3682428300380707, 0.03710333630442619, -0.32171955704689026, -0.1899726241827011, -0.2280951291322708, -0.3194634020328522], [0.1475428342819214, 0.16768765449523926, 0.14139403402805328, 0.3537479043006897, 0.1443071812391281, 0.04657609015703201, 0.22039423882961273, 0.22768211364746094], [-0.20357321202754974, -0.31062647700309753, 0.2638319134712219, -0.0632552057504654, 0.20545338094234467, 0.24169157445430756, 0.036144331097602844, -0.16913290321826935], [-0.3223752975463867, 0.2989974617958069, 0.3222516179084778, 0.1514909863471985, -0.026875948533415794, 0.009675010107457638, -0.30621376633644104, 0.08057112991809845], [-0.11322321742773056, 0.12119929492473602, 0.3198394477367401, -0.32548201084136963, -0.18972539901733398, -0.17789645493030548, 0.29225432872772217, 0.18959107995033264], [-0.1743909865617752, -0.06073444336652756, 0.053941309452056885, 0.2628326117992401, 0.2963852882385254, 0.1564730703830719, 0.24983160197734833, 0.34130212664604187], [-0.08305229991674423, 0.0017221318557858467, 0.08066824078559875, 0.35100433230400085, 0.2650650143623352, 0.08771566301584244, -0.2134242057800293, 0.1940309852361679], [-0.05191722884774208, 0.2183465212583542, -0.24207796156406403, 0.23513443768024445, -0.007187186274677515, 0.2708165943622589, -0.230315163731575, -0.16758327186107635], [-0.04394036903977394, -0.26188838481903076, -0.2756951153278351, -0.3357618451118469, -0.0845906063914299, 0.13255861401557922, 0.24617737531661987, 0.35423722863197327], [-0.004849815275520086, -0.09374681860208511, -0.0854538157582283, -0.04513021931052208, -0.017833784222602844, -0.23576419055461884, -0.07435429096221924, 0.051610223948955536], [0.33571216464042664, 0.12488842755556107, 0.12653598189353943, -0.312102347612381, 0.013904049061238766, -0.19298318028450012, 0.17550699412822723, -0.03853066265583038], [-0.192488893866539, 0.02209066040813923, 0.3617340326309204, -0.059270910918712616, -0.24465027451515198, -0.2904317378997803, -0.011293395422399044, -0.21846430003643036], [0.05765749141573906, 0.3172258734703064, 0.15685811638832092, 0.17003899812698364, -0.2111203819513321, 0.14861048758029938, 0.06997308135032654, -0.16248808801174164], [-0.21202975511550903, -0.16391602158546448, 0.21898238360881805, 0.31196460127830505, 0.3297640383243561, -0.2783700227737427, -0.20872686803340912, 0.04612308740615845], [-0.1422608345746994, -0.10221870988607407, -0.2650487422943115, 0.3328343331813812, 0.10307832807302475, -0.06822583079338074, -0.20384493470191956, -0.3141130208969116], [0.1428721845149994, -0.22065912187099457, -0.08074888586997986, -0.10296701639890671, 0.0565277598798275, 0.13361001014709473, 0.14562778174877167, -0.0035327596124261618], [0.05327289178967476, 0.19428133964538574, -0.14122968912124634, 0.1630597561597824, 0.009418386034667492, -0.02092604897916317, 0.24440152943134308, 0.17504602670669556], [-0.15613391995429993, 0.33608323335647583, -0.00511767715215683, -0.3390487730503082, 0.14841283857822418, 0.007744517643004656, -0.3353066146373749, 0.017792275175452232], [-0.15873664617538452, 0.039101485162973404, 0.06781630963087082, -0.18955713510513306, 0.022058991715312004, -0.040100306272506714, -0.040518246591091156, -0.2587723731994629], [-0.10069023072719574, -0.3215493857860565, 0.3132254183292389, -0.30956804752349854, -0.015484021976590157, 0.2270684838294983, -0.08663751184940338, -0.18782344460487366], [0.031837888062000275, 0.20858877897262573, -0.30086275935173035, -0.16985969245433807, 0.1155889481306076, -0.24702726304531097, 0.22510181367397308, 0.020896362140774727], [0.265927255153656, -0.34426143765449524, 0.08000534772872925, -0.12362991273403168, -0.030543632805347443, 0.29971903562545776, 0.07888469845056534, -0.23502564430236816], [0.3358544111251831, 0.15842582285404205, 0.30320289731025696, 0.25936654210090637, -0.2074296921491623, 0.2851611077785492, 0.2691860795021057, 0.03589118272066116], [0.2361849993467331, 0.032868076115846634, -0.19030123949050903, -0.2756668031215668, 0.24877998232841492, 0.21731822192668915, -0.2493162900209427, -0.24135719239711761], [0.3209686577320099, -0.11911264806985855, -0.17642657458782196, 0.3414045572280884, 0.17557886242866516, -0.10776429623365402, 0.1492103636264801, -0.31853967905044556], [0.3116951584815979, -0.2665340006351471, 0.3449428379535675, -0.0487261638045311, -0.2630525231361389, -0.3328670263290405, 0.029430624097585678, 0.05466102063655853], [-0.2071051299571991, -0.06882940232753754, -0.15108393132686615, -0.17321158945560455, -0.200277641415596, 0.06446642428636551, -0.07924827933311462, -0.05971134081482887], [-0.2529705762863159, 0.17782068252563477, 0.3120923340320587, 0.36576950550079346, 0.14739379286766052, 0.2390553206205368, 0.19384506344795227, -0.2931442856788635], [-0.2247997522354126, 0.07177039980888367, 0.019414061680436134, -0.20734260976314545, 0.33527863025665283, -0.2549145519733429, 0.34677448868751526, 0.186708465218544], [0.2712392508983612, 0.2825789749622345, 0.13923953473567963, 0.29400280117988586, -0.1289653480052948, -0.17209692299365997, 0.21666072309017181, 0.34205910563468933], [0.27022281289100647, 0.0954991802573204, 0.05726565420627594, -0.029827237129211426, 0.13379709422588348, -0.13840970396995544, 0.24118632078170776, -0.21995098888874054], [-0.08281164616346359, 0.06462203711271286, 0.02019074186682701, 0.11877503991127014, -0.16366203129291534, -0.038964591920375824, -0.2155202180147171, -0.3110116124153137], [-0.11706279963254929, 0.09888926893472672, -0.36418792605400085, -0.20947647094726562, 0.3081684112548828, 0.12169615924358368, 0.2830636501312256, -0.19690869748592377], [0.23389843106269836, 0.057377301156520844, 0.06318643689155579, 0.19696371257305145, 0.30696260929107666, -0.09190905839204788, -0.046690721064805984, -0.1145019456744194], [-0.29685044288635254, 0.25624391436576843, 0.0064945160411298275, 0.22394393384456635, -0.04362357035279274, -0.13902568817138672, 0.14248424768447876, -0.34015747904777527], [0.3242160677909851, 0.0144276674836874, 0.3141254484653473, 0.07873829454183578, -0.19862431287765503, -0.05498781055212021, -0.12531833350658417, -0.2364841252565384], [0.06379517912864685, 0.23359425365924835, 0.10495901852846146, 0.2572486698627472, 0.18158304691314697, -0.2586420178413391, -0.1286558359861374, 0.17694556713104248], [0.02172013185918331, -0.20592525601387024, -0.33433622121810913, 0.0328371562063694, 0.30066198110580444, 0.1817263960838318, 0.3121815025806427, 0.22635571658611298], [0.11598336696624756, 0.22871795296669006, 0.3438681662082672, -0.27849826216697693, 0.053388647735118866, -0.18906854093074799, 0.007626885082572699, 0.10621373355388641], [0.013653039000928402, 0.12026181817054749, 0.146958589553833, -0.19707244634628296, 0.07570436596870422, 0.06630663573741913, -0.06346940249204636, 0.2903136610984802], [0.21874888241291046, -0.11282692849636078, -0.20164714753627777, 0.2407345175743103, 0.00887118186801672, 0.15135180950164795, 0.31996873021125793, -0.032808817923069], [-0.18289703130722046, 0.031116638332605362, -0.06934854388237, 0.19520126283168793, -0.14112143218517303, -0.33259090781211853, -0.02119777724146843, 0.08681941032409668], [-0.08581871539354324, -0.3503175973892212, -0.21121710538864136, 0.34766629338264465, -0.20370523631572723, -0.1784207820892334, -0.20883503556251526, -0.29984989762306213]], "b": [-0.04467844218015671, 0.19124943017959595, -0.13280047476291656, 0.11117447167634964, 0.2825188934803009, 0.08498917520046234, -0.29810646176338196, -0.04369444400072098, 0.2749882936477661, 0.19332736730575562, -0.028398536145687103, -0.036124084144830704, 0.34118688106536865, 0.10900362581014633, 0.13159015774726868, 0.0009407818433828652, 0.243255615234375, -0.16170550882816315, -0.038867298513650894, 0.014142201282083988, -0.05214853957295418, -0.07593994587659836, 0.01701083779335022, 0.015697933733463287, -0.2577485144138336, 0.20850971341133118, 0.13508906960487366, -0.029122674837708473, 0.034666020423173904, 0.3539767265319824, -0.1998341977596283, 0.1283932477235794, 0.29481372237205505, 0.10128038376569748, 0.20867443084716797, 0.0692286267876625, 0.3790159225463867, 0.07093972712755203, 0.21102677285671234, 0.3570016622543335, -0.17783555388450623, 0.36871251463890076, -0.243775874376297, -0.28657057881355286, -0.08954878896474838, 0.0732395127415657, -0.34889325499534607, 0.17639334499835968, 0.32645657658576965, 0.3633362650871277, -0.10916793346405029, -0.35011303424835205, 0.269025057554245, 0.2671727240085602, 0.3033101558685303, -0.11364445835351944, 0.1344517320394516, 0.20538273453712463, 0.042788680642843246, 0.037349846214056015, -0.06922747194766998, -0.12009742110967636, 0.17307257652282715, 0.08255986124277115, -0.04580527916550636, 0.07419403642416, 0.17406554520130157, -0.1563299298286438, -0.23221085965633392, -0.323111355304718, -0.278247594833374, -0.0994238629937172, -0.058451760560274124, 0.24708306789398193, -0.06557879596948624, 0.15455098450183868, 0.010905648581683636, -0.20619532465934753, -0.14400094747543335, -0.24605190753936768, 0.08170901238918304, 0.27201953530311584, 0.03146330267190933, 0.3050314784049988, -0.2874344289302826, 0.15218773484230042, 0.15530738234519958, -0.11052228510379791, 0.24335308372974396, -0.21221823990345, -0.15512992441654205, -0.047348953783512115, 0.20695769786834717, 0.2702554166316986, 0.04798891767859459, 0.13476914167404175, -0.010527907870709896, 0.02262616902589798, 0.3448466956615448, -0.043850552290678024, 0.09249724447727203, -0.346725195646286, 0.18640998005867004, 0.03812660276889801, 0.04442613571882248, -0.20109732449054718, 0.028277503326535225, -0.12285782396793365, 0.09562336653470993, -0.09155536442995071, 0.2397337108850479, 0.05250461399555206, 0.17550984025001526, 0.14653737843036652, 0.3040904700756073, 0.020397478714585304, -0.2954764664173126, 0.2807607650756836, 0.3531246781349182, -0.22408053278923035, -0.0116914426907897, 0.00444736797362566, 0.33460506796836853, -0.23066085577011108, 0.06113226339221001, 0.06435083597898483, 0.31056079268455505, 0.3221340775489807]}, {"W": [[-0.06098653003573418, -0.006386544555425644, 0.0647566094994545, 0.011021681129932404, 0.013063259422779083, 0.04877600073814392, -0.05498827248811722, -0.023520657792687416, 0.03514659404754639, -0.027038633823394775, -0.022803256288170815, -0.04571974650025368, 0.06322429329156876, 0.077857606112957, -0.007914194837212563, 0.07065796852111816, -0.06011562421917915, -0.061418935656547546, 0.029905907809734344, -0.02848266437649727, -0.04784487560391426, 0.04224330559372902, -0.047301389276981354, 0.04663938656449318, -0.01604575291275978, -0.010146130807697773, -0.028949296101927757, -0.012240973301231861, 0.02252974919974804, 0.0037118541076779366, 0.03888370841741562, 0.030208220705389977, 0.07854976505041122, 0.05793849006295204, 0.013036509975790977, 0.06215382367372513, -0.0741812065243721, 0.06641986966133118, 0.03168338164687157, 0.032791320234537125, -0.006845372263342142, 0.054852552711963654, 0.08213599771261215, -0.04022436961531639, -0.055984605103731155, -0.01919603906571865, -0.06840773671865463, 0.037512265145778656, -0.06943606585264206, -0.019127415493130684, -0.025863585993647575, 0.033620383590459824, 0.06262010335922241, 0.04999426752328873, -0.007907864637672901, 0.05292684584856033, 0.02702815644443035, 0.06448055058717728, -0.029714301228523254, -0.05420713499188423, -0.00876076240092516, 0.07148304581642151, 0.03858328238129616, -0.08238611370325089, -0.0813046246767044, 0.06674829870462418, -0.03941783308982849, -0.06979694962501526, 0.082305908203125, 0.023162979632616043, -0.0517166443169117, -0.08805078268051147, -0.005918291863054037, 0.05285331979393959, -0.0017647652421146631, -0.048157382756471634, -0.056471869349479675, -0.02719496563076973, 0.055314112454652786, -0.028477303683757782, -0.019366402179002762, -0.06255904585123062, 0.03208793327212334, -0.060438111424446106, 0.07455036789178848, -0.021350979804992676, -0.035757362842559814, -0.035471007227897644, 0.04024481028318405, 0.07957269996404648, 0.058984704315662384, -0.034764520823955536, 0.018013527616858482, -0.03908739611506462, -0.026972785592079163, 0.05326225981116295, -0.07404086738824844, -0.018604498356580734, -0.018944421783089638, 0.04136960580945015, -0.05480075255036354, 0.0008918800740502775, -0.06247977912425995, 0.06530192494392395, -0.06626930832862854, 0.0067284321412444115, 0.01607070304453373, -0.036893364042043686, -0.053727440536022186, -0.022420363500714302, -0.02749818004667759, -0.014498610980808735, 0.031949181109666824, 0.06782693415880203, -0.06156577542424202, -0.08495836704969406, 0.00677079614251852, -0.005221114959567785, 0.083414725959301, 0.022568821907043457, 0.07093600183725357, 0.017896823585033417, -0.06172039732336998, -0.002091197529807687, -0.06355007737874985, 0.028157634660601616, -0.06605710834264755, 0.018671393394470215], [0.0416516438126564, 0.05312822014093399, 0.02746429853141308, 0.0648723840713501, -0.024250727146863937, -0.019454792141914368, 0.08041724562644958, 0.07409757375717163, 0.0690685287117958, -0.05939064547419548, 0.051484737545251846, 0.03185128793120384, -0.007055106572806835, -0.062188874930143356, -0.02834804356098175, 0.07656598091125488, -0.027544092386960983, -0.04018321633338928, -0.025825565680861473, 0.052014682441949844, 0.0301787368953228, -0.048206016421318054, 0.005154011771082878, -0.08283674716949463, 0.0827055349946022, -0.00012143319327151403, -0.011279741302132607, 0.03266463056206703, 0.05342836678028107, 0.07927310466766357, -0.048535723239183426, -0.03373882547020912, -0.018058106303215027, 0.01424218900501728, -0.07012580335140228, -0.0019224863499403, 0.05628333240747452, -0.018678192049264908, -0.05840417742729187, -0.04952845722436905, 0.07972176373004913, 0.017548125237226486, -0.06538815796375275, 0.023271476849913597, -0.024981657043099403, -0.06233164668083191, 0.008781042881309986, 0.011812655255198479, -0.026923025026917458, -0.04783102124929428, 0.06358226388692856, -0.06897350400686264, 0.006812738720327616, -0.04214368388056755, 0.05703464150428772, -0.002202615374699235, -0.016540778800845146, -0.035671889781951904, 0.015804555267095566, 0.08654268831014633, 0.03842543810606003, 0.032097481191158295, -0.08160857856273651, -0.058567725121974945, -0.004782350268214941, -0.06406830996274948, 0.05177181959152222, -0.053919579833745956, 0.07682648301124573, -0.013193849474191666, -0.039011869579553604, 0.018236825242638588, -0.006516108289361, -0.04193458706140518, 0.07327933609485626, -0.07414162904024124, -0.00993744470179081, -0.06643344461917877, 0.030452365055680275, -0.0844564437866211, 0.041188836097717285, -0.015562708489596844, -0.039807043969631195, 0.05545714125037193, -0.0608024075627327, -0.01919235661625862, 0.012710611335933208, -0.05096263065934181, 0.010886969044804573, 0.02819879725575447, 0.011381481774151325, 0.0030464541632682085, 0.024626798927783966, -0.026042472571134567, 0.050150733441114426, -0.009754806756973267, -0.08635778725147247, -0.03543098643422127, 0.042432792484760284, 0.03767004236578941, 0.046153899282217026, -0.05252670496702194, -0.031019529327750206, -0.019832579419016838, 0.017179718241095543, 0.027367718517780304, -0.006898343097418547, 0.06767293810844421, -0.04419955611228943, -0.06950407475233078, -0.025792701169848442, -0.0778256207704544, 0.061652738600969315, 0.07822582125663757, 0.007576553616672754, -0.012804774567484856, -0.0673537477850914, 0.05068277567625046, 0.020006529986858368, -0.03611553832888603, 0.019950643181800842, -0.08419951796531677, -0.011044889688491821, -0.030444828793406487, 0.011863047257065773, -0.040760356932878494, -0.02862277440726757, -0.0116950124502182], [0.0067014326341450214, -0.024054067209362984, 0.022354811429977417, 0.08481156826019287, 0.01405049953609705, 0.003964471165090799, -0.023262396454811096, -0.04941708222031593, -0.026177218183875084, 0.025004539638757706, 0.020284509286284447, 0.09714042395353317, 0.0872584730386734, -0.04270974174141884, -0.03813135623931885, -0.026772119104862213, -0.07545460015535355, -0.05621987581253052, 0.08402135968208313, 0.009159624576568604, 0.021379467099905014, 0.0647028461098671, -0.008744632825255394, -0.04435240477323532, -0.06672398746013641, -0.023961348459124565, 0.07287176698446274, 0.002547159790992737, -0.013770786114037037, 0.06595005095005035, 0.06452062726020813, 0.06618613004684448, 0.08024055510759354, -0.07222334295511246, 0.004086604341864586, -0.0483698695898056, -0.04041889309883118, 0.01793288253247738, -0.0253030676394701, 0.0038096231874078512, -0.029961878433823586, -0.019862668588757515, 0.06092507392168045, -0.018550541251897812, -0.019359957426786423, -0.007460407912731171, 0.0774180144071579, 0.05529284104704857, 0.1037287712097168, -0.03822023794054985, -0.0051951282657682896, 0.07004354894161224, 0.012772821821272373, 0.07952947169542313, -0.0029410310089588165, 0.08397790789604187, 0.07677773386240005, 0.10197703540325165, -0.07501352578401566, 0.06115708127617836, -0.00871033314615488, -0.06263147294521332, -0.07067444175481796, 0.0895659551024437, 0.06207463517785072, 0.04510132968425751, 0.037777189165353775, 0.013284935615956783, 0.024074867367744446, 0.0828389823436737, -0.025908976793289185, 0.011242751963436604, 0.014748687855899334, -0.04333101585507393, 0.058903563767671585, -0.07163535058498383, 0.09561625868082047, -0.01587330363690853, -0.02601112797856331, 0.0910622626543045, 0.04085937887430191, 0.07678364962339401, -0.035989098250865936, 0.08058621734380722, 0.09389757364988327, 0.043238285928964615, 0.06335484981536865, -0.05417922884225845, 0.09516917169094086, -0.05739397183060646, -0.011023735627532005, 0.0493142269551754, 0.016388878226280212, 0.0873001292347908, 0.06268884241580963, 0.005927802063524723, -0.07186105847358704, 0.05386553332209587, -0.01938481256365776, -0.07992468774318695, 0.025743426755070686, -0.03165159374475479, 0.08968859910964966, -0.0022907101083546877, 0.06202387437224388, 0.04182577505707741, -0.0012409775517880917, 0.054584868252277374, 0.06664098054170609, 0.0229059848934412, -0.016572996973991394, -0.011693619191646576, 0.04793102294206619, -0.04831184074282646, 0.09438431262969971, -0.050229739397764206, 0.014486071653664112, -0.01119843777269125, -0.04916808009147644, 0.07576192170381546, 0.018100887537002563, -0.02220257744193077, -0.014968623407185078, 0.015087448060512543, -0.0025455595459789038, -0.008002184331417084, 0.03878558799624443, -0.06978500634431839], [0.01715141162276268, -0.032896462827920914, -0.06739413738250732, 0.06731723248958588, 0.10185720026493073, 0.013983482494950294, 0.08776155114173889, -0.023700475692749023, 0.07538013905286789, -0.020828982815146446, 0.10096605867147446, 0.040581151843070984, 0.02251802198588848, 0.08683957159519196, 0.009801576845347881, 0.058712437748909, 0.016858559101819992, 0.07208972424268723, 0.042223088443279266, 0.017877301201224327, -0.05847598984837532, -0.0024217208847403526, 0.0378946028649807, 0.006277921609580517, 0.057462479919195175, 0.034190885722637177, 0.09496524930000305, 0.0017875811317935586, -0.026277977973222733, 0.023193053901195526, 0.011919905431568623, 0.035670485347509384, 0.07087751477956772, 0.06287863105535507, 0.013776454143226147, 0.04534803703427315, 0.03891092538833618, 0.04663966968655586, -0.030034316703677177, 0.09277085959911346, -0.011675986461341381, 0.06617773324251175, 0.07985246181488037, -0.03363431245088577, 0.043236762285232544, 0.06782696396112442, 0.052291542291641235, -0.013708695769309998, 0.025495190173387527, 0.0046861725859344006, -0.014225931838154793, 0.07767075300216675, 0.0976443663239479, 0.03661858290433884, 0.102745421230793, 0.043555691838264465, 0.10154440999031067, 0.06182671710848808, 0.03150942921638489, 0.08169180154800415, 0.08342365175485611, 0.08486331254243851, -0.029281454160809517, 0.018598444759845734, 0.014518359676003456, -0.006187943276017904, 0.08147017657756805, 0.05442896485328674, 0.076711006462574, 0.02353796921670437, 0.020945420488715172, -0.060262080281972885, -0.030990751460194588, -0.05396725982427597, -0.0011293047573417425, 0.052430588752031326, -0.01756138727068901, 0.07483156025409698, -0.005257424898445606, -0.04808126389980316, 0.05101636424660683, -0.060472842305898666, -0.04478080943226814, -0.0232991985976696, 0.023856621235609055, 0.06666572391986847, 0.08511737734079361, 0.08857756108045578, -0.015169951133430004, 0.060806334018707275, 0.01820032112300396, 0.007317166775465012, 0.05128725618124008, -0.003140129614621401, 0.04409421607851982, -0.032663095742464066, -0.02236456796526909, 0.03237564489245415, 0.0033624591305851936, -0.032284460961818695, 0.06655489653348923, -0.044737741351127625, 0.08926794677972794, -0.07304532825946808, -0.008926916867494583, -0.04784281179308891, 0.010265767574310303, 0.024354659020900726, -0.02448650822043419, 0.03264767676591873, 0.07399608939886093, 0.04270830377936363, 0.023011043667793274, 0.001695595565252006, -0.01127742137759924, -0.0641065463423729, 0.058990057557821274, 0.02338971570134163, -0.03439659997820854, -0.02183159813284874, -0.06725842505693436, 0.0023040040396153927, -0.06883397698402405, 0.07651208341121674, -0.0036968914791941643, 0.046609509736299515, -0.01129194162786007, -0.05292322114109993], [0.00668466929346323, 0.03811423480510712, -0.017513206228613853, 0.03555000573396683, -0.05188519507646561, 0.039865195751190186, 0.04724445194005966, 0.021107729524374008, 0.027706876397132874, -0.0203730259090662, -0.05227486416697502, -0.05746425688266754, -0.05789743363857269, -0.08969389647245407, -0.05100787803530693, -0.02504117600619793, 0.0754038542509079, -0.025094913318753242, -0.05625326186418533, -0.06531430780887604, 0.03448183834552765, 0.0021955990232527256, -0.05154908448457718, 0.021698767319321632, 0.02688382752239704, 0.005293946247547865, 0.04655767232179642, -0.004450072068721056, -0.006730656139552593, 0.01600283570587635, -0.018210068345069885, 0.07255259901285172, 0.004400386940687895, 0.057890769094228745, 0.06544043868780136, -0.06287279725074768, -0.04822226241230965, 0.07495886087417603, 0.0011354520684108138, -0.04067602753639221, 0.04454231634736061, 0.022537482902407646, -0.0018474418902769685, -0.05423082783818245, -0.019596276804804802, 0.01653350330889225, -0.07038410007953644, -0.006614984944462776, 0.04078851640224457, -0.025416437536478043, 0.03212577477097511, 0.03816364333033562, 0.05335038900375366, -0.050440624356269836, 0.0033441176638007164, -0.02879388816654682, -0.07036855816841125, -0.011561444029211998, 0.07248523831367493, -0.016005607321858406, -0.06516282260417938, -0.011651325039565563, 0.0806831493973732, -0.06453408300876617, -0.027305083349347115, -0.05744338035583496, -0.0741400420665741, 0.04354720190167427, 0.08331715315580368, -0.08109807223081589, -0.08535787463188171, 0.031216805800795555, -0.05348723754286766, 0.015303232707083225, 0.07717473804950714, 0.023444034159183502, 0.024328293278813362, -0.02410273440182209, -0.071750707924366, -0.022198772057890892, -0.041396670043468475, -0.04355696588754654, -0.03156473860144615, 0.07856916636228561, 0.0020880361553281546, -0.08568102866411209, 0.06537894904613495, 0.026115162298083305, 0.006714044138789177, -0.07206524908542633, -0.0723927915096283, -0.08024260401725769, -0.08869082480669022, -0.06868314743041992, -0.08653243631124496, 0.025975365191698074, 0.07359747588634491, 0.0648471862077713, -0.020339319482445717, 0.036599066108465195, 0.061181940138339996, 0.001947144279256463, 0.012971452437341213, 0.06816928833723068, -0.08371784538030624, -0.07680172473192215, -0.07444927096366882, -0.07410817593336105, -0.09050866216421127, -0.08114827424287796, -0.06659458577632904, 0.05239950865507126, -0.033238381147384644, 0.04116882011294365, 0.06358039379119873, 0.08605589717626572, 0.019701333716511726, 0.026665139943361282, -0.08157087117433548, 0.022260507568717003, -0.04615803807973862, 0.015584205277264118, -0.022821828722953796, -0.054027244448661804, -0.0846184641122818, -0.042031459510326385, -0.015300892293453217, -0.0651029497385025], [0.02098603919148445, -0.021906133741140366, -0.05958233401179314, 0.08085913211107254, -0.0064483690075576305, -0.02495552971959114, 0.006705899722874165, -0.006683564744889736, -0.06691431999206543, 0.05899321287870407, -0.009952209889888763, -0.004590553697198629, -0.03388210013508797, -0.023900549858808517, -0.05818059295415878, -0.008154482580721378, -0.007197057828307152, 0.049776021391153336, 0.08500128239393234, -0.04502885043621063, -0.06946197152137756, 0.0733158141374588, -0.01435031183063984, -0.07147616147994995, 0.001985300565138459, 0.0337676964700222, 0.05267989635467529, -0.015116388909518719, -0.016882790252566338, -0.03918227180838585, 0.006717687472701073, -0.07768449932336807, -0.06557650119066238, -0.06556714326143265, 0.051494039595127106, 0.07606180757284164, 0.07989209145307541, 0.06628920882940292, 0.06048088148236275, -0.09252706915140152, 0.03849932551383972, -0.042642686516046524, -0.03565293177962303, 0.08028930425643921, 0.046032365411520004, -0.07547981292009354, -0.0609380304813385, 0.0709696114063263, -0.01795773208141327, 0.014125891961157322, 0.050620004534721375, 0.06293511390686035, 0.07905171066522598, 0.06790757924318314, -0.07832843065261841, -0.08761800825595856, 0.04357890412211418, -0.03978196904063225, -0.07732775062322617, 0.006286153104156256, -0.04840077459812164, -0.006674172356724739, -0.08664224296808243, 0.06084359064698219, -0.07975839823484421, -0.024960851296782494, -0.04740457236766815, -0.020067326724529266, 0.047391731292009354, -0.063352070748806, 0.04977623373270035, 0.002422337420284748, 0.06565073132514954, -0.016840815544128418, -0.04342593625187874, 0.01359500177204609, 0.0006577097228728235, -0.06970209628343582, -0.05025317147374153, 0.015265083871781826, -0.06843481957912445, 0.0820995643734932, -0.08898619562387466, -0.009867914021015167, -0.020605240017175674, 0.05529279261827469, 0.021594202145934105, -0.08796297013759613, 0.0484466478228569, 0.0018025595927610993, 0.027371257543563843, -0.04588259011507034, -0.07675716280937195, -0.007335429545491934, -0.04909203574061394, -0.008675179444253445, -0.04079056158661842, -0.0751720741391182, 0.060271408408880234, 0.04593724384903908, -0.057935185730457306, 0.04695424064993858, -0.06803762167692184, 0.0016917207976803184, 0.013429011218249798, -0.075050950050354, -0.00500428956001997, -0.02522704191505909, -0.002344634849578142, 0.0437801219522953, 0.06674890965223312, 0.04972044751048088, -0.0657857283949852, -0.0509171336889267, 0.05919180065393448, 0.05873608961701393, -0.04648915305733681, 0.0226616021245718, -0.062127046287059784, -0.013086933642625809, -0.020708218216896057, -0.06697570532560349, -0.007668276783078909, 0.08790011703968048, 0.07663051784038544, -0.01250841747969389, 0.005535534583032131, -0.0616871602833271], [0.07744995504617691, 0.02206127904355526, 0.026057595387101173, -0.0336090549826622, 0.003129509510472417, -0.03141568973660469, -0.003829740919172764, 0.0992409959435463, -0.06094534322619438, 0.06753949075937271, -0.028255103155970573, -0.06264601647853851, 0.04104185104370117, 0.018098128959536552, 0.10245390236377716, 0.055741555988788605, 0.10241735726594925, -0.06094846501946449, -0.05597129836678505, 0.04423939436674118, 0.10053759068250656, 0.015443009324371815, 0.062428612262010574, 0.09084462374448776, 0.03375478833913803, -0.035035375505685806, 0.037712257355451584, 0.036584001034498215, 0.08848606795072556, -0.01637575402855873, -0.01873019151389599, 0.07839720696210861, 0.047385238111019135, -0.030214425176382065, 0.06449244916439056, 0.04890952631831169, -0.04963969066739082, 0.08632875978946686, 0.013374009169638157, 0.06118922308087349, 0.026567865163087845, 0.05456440895795822, 0.09805521368980408, -0.07625042647123337, -0.03272867202758789, 0.052815333008766174, 0.08602456003427505, -0.0050667570903897285, 0.03282465413212776, 0.0019028239184990525, -0.052458520978689194, 0.019533630460500717, -0.06432774662971497, 0.024744154885411263, 0.06042700260877609, -0.00919292587786913, 0.02200303226709366, 0.07613779604434967, 0.09275250136852264, 0.04986060410737991, -0.04790690168738365, 0.014375272206962109, -0.005975041538476944, 0.04566254839301109, -0.03894054517149925, -0.03506207466125488, 0.03349556773900986, -0.015545392408967018, -0.03667890653014183, 0.07534463703632355, 0.00042412494076415896, 0.04920890927314758, -0.024909039959311485, -0.018696613609790802, -0.02977823093533516, -0.0035928008146584034, 0.0698775202035904, 0.08679740130901337, -0.029858805239200592, -0.03619195893406868, -0.04813612625002861, 0.03803091496229172, -0.004699228331446648, 0.09278034418821335, -0.024940699338912964, 0.030244948342442513, 0.013031179085373878, 0.014689450152218342, 0.016760224476456642, 0.03421908617019653, 0.04438271373510361, 0.01901041716337204, 0.07844436913728714, 0.06898602098226547, 0.07227634638547897, 0.01924533024430275, 0.09828303009271622, 0.08609525114297867, 0.035759102553129196, 0.036456383764743805, -0.02664455771446228, -0.03129196539521217, -0.03414402902126312, -0.009718839079141617, -0.05827556923031807, -0.042876310646533966, 0.06312145292758942, -0.054917264729738235, 0.06133624538779259, 0.00678663095459342, 0.03706277534365654, 0.07082847505807877, 0.08201810717582703, 0.08871357887983322, 0.07665254920721054, 0.0630953460931778, -0.04338745027780533, 0.040295809507369995, -0.053045447915792465, 0.07905128598213196, 0.04934898763895035, -0.009967846795916557, 0.021421605721116066, 0.04725635424256325, -0.027467070147395134, 0.08630535006523132, -0.023760568350553513, 0.08340910077095032], [-0.03839869052171707, -0.0745362937450409, 0.05595832318067551, -0.0482613705098629, 0.07818298786878586, 0.03134585916996002, 0.024194711819291115, 0.044721126556396484, -0.00620346749201417, -0.04246706888079643, 0.1003025472164154, -0.0753384605050087, 0.08888249099254608, -0.019015489146113396, -0.08041481673717499, -0.023118602111935616, 0.029204510152339935, -0.08951663225889206, 0.07360517978668213, 0.04940478503704071, 0.08039391040802002, -0.0767655074596405, -0.07749547809362411, 0.087890625, -0.05380013957619667, 0.027086040005087852, 0.021024247631430626, -0.00424865772947669, -0.04924868047237396, 0.020165683701634407, 0.07351835072040558, 0.06310398131608963, 0.01245969906449318, -0.020644502714276314, -0.07312846928834915, 0.06859152019023895, 0.06857909262180328, -0.018687887117266655, -0.026759851723909378, -0.05019966885447502, 0.01715799607336521, -0.06016877293586731, 0.013960890471935272, 0.06456463038921356, -0.07519939541816711, 0.04314836487174034, 0.032924484461545944, 0.010544203221797943, 0.01037327479571104, 0.03821934014558792, 0.033745624125003815, -0.01659303531050682, -0.016827138140797615, 0.07799305021762848, 0.03373841196298599, 0.0021567177027463913, -0.06230422854423523, 0.04779377207159996, -0.03670762851834297, 0.09175562113523483, -0.0626353919506073, 0.09194474667310715, -0.006372327916324139, -0.06823305785655975, 0.04592333361506462, 0.06303418427705765, -0.005812801420688629, 0.005896843504160643, -0.03881219029426575, 0.06031585484743118, 0.02907625027000904, 0.017865266650915146, 0.06759505718946457, 0.02214730717241764, -0.007680303882807493, 0.05060486122965813, -0.03296446427702904, -0.04973850026726723, 0.01681305468082428, 0.04569435119628906, -0.0490851104259491, 0.06742662936449051, 0.03090132214128971, -0.06085055321455002, -0.006203862838447094, 0.06944268941879272, -0.036619022488594055, 0.021641908213496208, -0.007215489633381367, -0.040283024311065674, -0.007233897224068642, -0.0715222880244255, -0.018459947779774666, 0.02741227298974991, -0.03164532780647278, -0.04750508815050125, 0.062236446887254715, 0.08448689430952072, 0.013986504636704922, 0.04354444891214371, 0.0241333469748497, -0.002734715584665537, 0.00888139195740223, -0.015244213864207268, -0.08351650834083557, 0.04955987632274628, 0.02334132045507431, 0.025080833584070206, -0.020224398002028465, -0.05813039839267731, 0.07904791086912155, 0.08553869277238846, 0.005417556967586279, 0.07745017111301422, -0.005526572000235319, 0.04062769189476967, -0.022035183385014534, 0.02478061243891716, 0.06560243666172028, -0.04553975537419319, 0.01498081162571907, 0.0514589324593544, 0.07780064642429352, 0.08157486468553543, 0.06304603815078735, -0.01895490288734436, -0.049483686685562134, -0.00967503059655428], [0.040130238980054855, 0.02177247777581215, 0.034034937620162964, 0.020598040893673897, 0.031470246613025665, 0.05373140797019005, 0.06106911972165108, -0.08681168407201767, 0.04054144769906998, -0.0425097793340683, 0.07146447896957397, 0.0010828935774043202, 0.06057441607117653, -0.0901699811220169, 0.06218884885311127, 0.04023367911577225, -0.08911579102277756, 0.03014008142054081, -0.09427828341722488, 0.0834367424249649, -0.06417808681726456, 0.036986034363508224, -0.05348217487335205, 0.07256892323493958, 0.0629342645406723, -0.05990012362599373, 0.028204327449202538, 0.0038727144710719585, -0.07021608203649521, -0.0650332123041153, 0.05851675942540169, 0.059107985347509384, -0.06787042319774628, 0.016911987215280533, 0.06493644416332245, 0.03061688505113125, -0.004961903672665358, 0.015194338746368885, -0.03384408354759216, 0.03131668269634247, 0.07169484347105026, 0.02210215851664543, -0.07712707668542862, 0.05850851535797119, 0.028648260980844498, -0.011628016829490662, 0.02049056440591812, 0.05821210891008377, -0.03296726942062378, 0.034806299954652786, -0.018074022606015205, -0.033938243985176086, -0.058295901864767075, 0.02162512019276619, -0.05446699261665344, 0.008269261568784714, 0.03264454007148743, -0.017574429512023926, 0.07682286947965622, -0.04898609220981598, 0.05382812023162842, -0.05887121334671974, -0.03925028070807457, 0.002914546290412545, -0.0794188529253006, 0.05802193284034729, -0.010442865081131458, 0.041079435497522354, -0.04672994092106819, -0.0030970301013439894, -0.017950911074876785, -0.08352605253458023, -0.03667718172073364, -0.08202070742845535, 0.037732046097517014, 0.054497942328453064, -0.09279297292232513, -0.05405093729496002, 0.009881559759378433, 0.02653849683701992, 0.06864742934703827, -0.09718884527683258, 0.07855670899152756, 0.027003290131688118, -0.02249857969582081, 0.06856951862573624, 0.02251877449452877, -0.07908639311790466, -0.02218105085194111, 0.06891346722841263, -0.0471557080745697, -0.03894505649805069, -0.03838110342621803, -0.007502389140427113, -0.009372702799737453, 0.06050073355436325, 0.07011774182319641, -0.05586335062980652, 0.06740853935480118, -0.011401351541280746, -0.05500137060880661, -0.023460209369659424, -0.03813254460692406, 0.022856004536151886, 0.005387261509895325, 0.02220122143626213, 0.02602716162800789, 0.020330149680376053, 0.01404738612473011, -0.0796026811003685, -0.07055666297674179, -0.09240969270467758, -0.030166087672114372, 0.04833127558231354, -0.011822257190942764, -0.03757656365633011, -0.08276563882827759, -0.001259990269318223, 0.034968301653862, 0.08004356175661087, 0.026925034821033478, 0.04169034585356712, -0.022188127040863037, -0.04263358190655708, 0.04924904927611351, -0.06926647573709488, -0.019560182467103004, 0.05569077655673027], [-0.029521394520998, -0.0353124663233757, -0.00020902729011140764, 0.048272404819726944, -0.03264379873871803, 0.001738575636409223, 0.003524635685607791, 0.08747301250696182, 0.08260494470596313, 0.03143719956278801, -0.07710622996091843, -0.06564032286405563, 0.005108298733830452, 0.05106177553534508, -0.007471151649951935, -0.03753148391842842, -0.006566102150827646, -0.045884888619184494, -0.04622907191514969, 0.0710759088397026, -0.01586391031742096, -0.007656857371330261, -0.08084257692098618, -0.08016334474086761, 0.06292067468166351, -0.03816850110888481, -0.010046679526567459, -0.020984064787626266, -0.05890268459916115, 0.005574095528572798, 0.035209350287914276, -0.014526915736496449, 0.07627783715724945, -0.009113319218158722, -0.04293370991945267, -0.08401060104370117, -0.02325557731091976, -0.06165784224867821, 0.07352643460035324, 0.060469239950180054, 0.009496296755969524, -0.04765844717621803, -0.05732276290655136, 0.04672037437558174, 0.005882794503122568, -0.06737733632326126, -0.024369603022933006, -0.03341834992170334, 0.00418035127222538, -0.06713652610778809, -0.036678850650787354, 0.014866056852042675, 0.04997013881802559, 0.05239401012659073, 0.012955612502992153, -0.07977204024791718, -0.06545243412256241, -0.0782475471496582, -0.08206968009471893, -0.050498116761446, 0.08094888925552368, 0.007266992703080177, 0.013616129755973816, -0.04585401341319084, 0.007746461778879166, 0.07408423721790314, -0.03478318080306053, -0.06884922087192535, -0.008619779720902443, 0.06339483708143234, -0.0683065801858902, -0.04193178191781044, -0.04610348492860794, 0.034958526492118835, 0.08111408352851868, 0.05616532266139984, -0.0014038520166650414, -0.04016103222966194, -0.019306056201457977, -0.07929357886314392, 0.02681850455701351, -0.06835651397705078, -0.03319220989942551, 0.04519520699977875, -0.0009372679051011801, 0.042143452912569046, 0.07930240035057068, -0.04036308825016022, -0.03904310241341591, 0.0046559544280171394, 0.006577161606401205, -0.07832056283950806, -0.017439424991607666, 0.08401456475257874, -0.0480758473277092, 0.06257284432649612, -0.004510802216827869, 0.0800737515091896, 0.004548985976725817, -0.025705724954605103, -0.062825046479702, 0.05308351293206215, -0.02636200748383999, -0.004047449212521315, 0.0022088757250458, -0.0006197477341629565, 0.02872260846197605, 0.06218784675002098, -0.0550120510160923, 0.06393108516931534, -0.08395673334598541, 0.07331374287605286, -0.04639064148068428, 0.07086869329214096, -0.06097642332315445, -0.04482613876461983, 0.06978527456521988, 0.07033777981996536, 0.062236297875642776, 0.03432606905698776, 0.08464489877223969, -0.010638696141541004, -0.06379207968711853, -0.035289593040943146, 0.005219238810241222, -0.04644252732396126, -0.07194491475820541, -0.08761312812566757], [-0.0565887987613678, -0.050327107310295105, 0.06692729890346527, -0.001316566951572895, 0.0024847339373081923, 0.008308596909046173, -0.048541050404310226, 0.078235924243927, -0.021551424637436867, 0.002405166393145919, -0.05560603737831116, 0.02482656203210354, 0.018985077738761902, -0.05819747969508171, 0.04638150706887245, -0.0884268656373024, 0.030121980234980583, 0.011793998070061207, -0.06310262531042099, 0.016084907576441765, 0.06129371002316475, 0.049069616943597794, -0.02151685208082199, 0.013087257742881775, -0.07334341108798981, -0.08973953127861023, 0.06838031858205795, 0.05734826996922493, 0.024451056495308876, -0.05747756361961365, -0.0905228927731514, -0.04039947688579559, 0.0725141391158104, -0.04268701747059822, 0.036044973880052567, 0.07973635196685791, 0.02241770550608635, -0.028691444545984268, -0.05516877397894859, -0.013393309898674488, -0.03998425975441933, 0.040237344801425934, 0.03612976893782616, 0.06958409398794174, -0.017403168603777885, -0.06566835194826126, 0.016072900965809822, -0.004534872714430094, -0.013913781382143497, -0.0656321793794632, -0.01016267016530037, 0.04377457872033119, -0.0317099392414093, -0.008636211976408958, 0.013781561516225338, 0.060490384697914124, 0.07603782415390015, 0.02131335809826851, 0.0020056068897247314, -0.07856186479330063, 0.0006853610393591225, -0.0011797301704064012, 0.029383843764662743, -0.014861645177006721, 0.0737299695611, 0.020047638565301895, 0.027293743565678596, 0.02313358150422573, -0.078070268034935, 0.02169191837310791, 0.081687331199646, -0.02993590198457241, 0.03280851989984512, -0.07146810740232468, 0.06535276770591736, -0.07946226745843887, 0.021049125120043755, 0.08198962360620499, -0.04759281128644943, -0.05905245244503021, 0.07050815969705582, 0.037299495190382004, -0.0622938871383667, 0.013951228931546211, -0.06336534768342972, 0.0870794728398323, -0.002963857026770711, 0.03700103610754013, 0.08215341717004776, -0.08152390271425247, -0.01694481633603573, 0.039099011570215225, -0.008854021318256855, 0.0774666890501976, 0.025359991937875748, -0.0689360648393631, -0.02139110490679741, -0.08147940039634705, 0.048168763518333435, 0.01993231661617756, 0.036935675889253616, 0.011294778436422348, -0.08227687329053879, 0.06591913104057312, -0.03945780172944069, -0.027587270364165306, -0.05596205219626427, -0.06275192648172379, 0.060435689985752106, 0.08672238886356354, -0.035877905786037445, 0.06715879589319229, 0.06573417037725449, -0.08602311462163925, -0.048576854169368744, -0.08737089484930038, 0.022001517936587334, 0.019720375537872314, 0.08549082279205322, -0.0481230728328228, 0.05609569326043129, 0.016786420717835426, -0.01384621113538742, 0.07766439020633698, 0.0726904347538948, 0.002113494323566556, 0.021998610347509384, -0.01892770454287529], [-0.016278445720672607, -0.06899431347846985, 0.01669115200638771, 0.005059707444161177, -0.07169754803180695, -0.010661715641617775, -0.0055239638313651085, 0.02640308067202568, -0.07193685322999954, 0.03784961253404617, 0.026675593107938766, 0.0054994127713143826, -0.017844172194600105, 0.036404527723789215, -0.06030890718102455, -0.0477709099650383, -0.039694420993328094, -0.044019874185323715, 0.07852523773908615, 0.013563228771090508, -0.08830466121435165, 0.03090217337012291, -0.08737558871507645, 0.06823264062404633, -0.03553629294037819, -0.0386834554374218, 0.053815487772226334, -0.04292125254869461, 0.05714816227555275, 0.07519158720970154, 0.038857001811265945, -0.07738127559423447, 0.015175736509263515, -0.007712042890489101, 0.008334608748555183, 0.07677444070577621, -0.05624533072113991, -0.046841248869895935, -0.05268562212586403, -0.025562748312950134, 0.08611756563186646, 0.00036778583307750523, -0.0025862553156912327, 0.07519492506980896, 0.06527148932218552, -0.033853497356176376, 0.05675593391060829, -0.08124566823244095, 0.07847675681114197, -0.029665907844901085, -0.08688171207904816, -0.05644042417407036, 0.07881567627191544, -0.05226774886250496, -0.013760768808424473, 0.04430476948618889, 0.024749407544732094, -0.061945512890815735, -0.021415451541543007, 0.029901869595050812, 0.0425797775387764, -0.0038241520524024963, -0.07671941816806793, -0.06259358674287796, -0.041621625423431396, -0.006799079943448305, -0.009833375923335552, 0.047735653817653656, -0.005256154574453831, -0.044103410094976425, -0.07197478413581848, 0.06638386845588684, 0.043945252895355225, 0.017118800431489944, 0.021802058443427086, 0.07174268364906311, -0.07392169535160065, 0.037833623588085175, 0.06425780057907104, 0.07843142002820969, -0.025576045736670494, -0.0718301311135292, -0.049166083335876465, -0.07815620303153992, 0.03101534955203533, -0.08026863634586334, 0.05441434308886528, 0.0681150034070015, -0.04476400837302208, -0.001520568854175508, 0.0465707890689373, 0.024216657504439354, -0.010876663960516453, 0.028325898572802544, 0.004464907106012106, 0.050958942621946335, -0.07280727475881577, -0.04215677082538605, -0.029459327459335327, 0.08908884972333908, 0.0148704769089818, 0.04846351221203804, 0.013957287184894085, 0.025656577199697495, -0.03546822443604469, -0.006097437348216772, -0.040845632553100586, -0.005501328967511654, 0.015254640951752663, 0.057335734367370605, 0.052825309336185455, 0.07035169005393982, 0.03672178462147713, 0.004340047016739845, -0.07261467725038528, -0.04866170510649681, 0.08718529343605042, 0.04044829681515694, -0.0037883075419813395, -0.0485956110060215, -0.03763633593916893, -0.005571454297751188, 0.016742123290896416, -0.07364274561405182, 0.029895925894379616, 0.0843215063214302, -0.0399915985763073, -0.03535296395421028], [0.09006190299987793, 0.03764164075255394, -0.019780082628130913, 0.09799109399318695, 0.04684579372406006, -0.033007338643074036, -0.013865959830582142, 0.04861590638756752, -0.05932256951928139, -0.03299266844987869, 0.0605512298643589, -0.04055272787809372, -0.053848303854465485, 0.10071022063493729, 0.07612084597349167, 0.04258127510547638, 0.028630711138248444, 0.08137805014848709, 0.0075217364355921745, -0.023126443848013878, 0.006111287046223879, 0.07209789007902145, 0.037099264562129974, 0.01051020622253418, 0.0005612443201243877, -0.012526379898190498, -0.036589689552783966, 0.046809121966362, -0.000264479749603197, -0.04030401632189751, 0.0017079232493415475, 0.007750571705400944, 0.10620706528425217, 0.06649783253669739, 0.0054852962493896484, -0.038565848022699356, -0.019139133393764496, -0.04297998175024986, -0.008308254182338715, 0.049616698175668716, 0.07298160344362259, 0.030359970405697823, 0.06293737888336182, 0.04149593040347099, -0.06223694607615471, 0.10999172925949097, 0.04802935570478439, 0.10269900411367416, 0.06235912814736366, 0.09033061563968658, 0.08085371553897858, 0.0586702860891819, 0.06686774641275406, 0.03502088040113449, -0.02630987949669361, 0.03900562599301338, -0.05081501603126526, -0.03476649895310402, 0.025891654193401337, -0.059416767209768295, 0.05402844026684761, 0.07202985882759094, 0.08685038983821869, 0.019557181745767593, -0.059903137385845184, 0.028405742719769478, 0.07219340652227402, 0.07329218834638596, 0.07659921795129776, 0.018171008676290512, 0.0563131608068943, 0.0919463038444519, 0.08172784745693207, 0.030139878392219543, -0.05455831065773964, 0.10410568863153458, -0.03258470073342323, 0.030034391209483147, 0.03156375512480736, 0.07508204132318497, 0.023819874972105026, 0.009993428364396095, 0.07649676501750946, 0.01602070964872837, 0.012043464928865433, 0.043471891433000565, 0.07947338372468948, 0.056448087096214294, -0.01107163354754448, 0.07027817517518997, 0.051189810037612915, -0.015490753576159477, 0.05934153497219086, -0.0008338837651535869, 0.07471957057714462, 0.07645288854837418, 0.07550153881311417, 0.03085160441696644, 0.02353564091026783, -0.04253046214580536, 0.07856298983097076, 0.0931619331240654, 0.09161149710416794, 0.05333608761429787, 0.017687786370515823, -0.0010416554287075996, 0.06514600664377213, -0.03963151201605797, 0.11074499040842056, -0.05516743287444115, -0.03984658792614937, 0.05631111562252045, 0.00452386774122715, 0.04841223731637001, -0.026473550125956535, 0.020617850124835968, -0.05592334643006325, -0.01896299421787262, 0.03969408571720123, -0.04596244543790817, 0.09648368507623672, 0.03996474668383598, 0.025870537385344505, 0.08808580040931702, 0.04654578119516373, -0.05862610787153244, -0.012659473344683647, 0.04999471828341484], [0.07136652618646622, -0.0710257887840271, 0.06584295630455017, -0.0946924090385437, 0.04508741572499275, -0.024516893550753593, 0.06474076211452484, -0.022862758487462997, 0.012575135566294193, 0.02928224578499794, -0.0018602130003273487, 0.008377065882086754, -0.012084896676242352, 0.02098117768764496, -0.08849655836820602, -0.06238473579287529, 0.005759316962212324, -0.06183594465255737, 0.0016371792880818248, -0.0022365404292941093, -0.08764351159334183, -0.007183017674833536, -0.06329573690891266, 0.0634860098361969, 0.05718452110886574, 0.011686870828270912, -0.03474890813231468, 0.0056554218754172325, 0.07242996990680695, 0.02866220660507679, 0.06908094882965088, 0.030790280550718307, -0.04804687947034836, 0.04144660383462906, -0.006511916872113943, -0.030623963102698326, 0.04534730687737465, 0.04506685584783554, 0.028589673340320587, -0.08941636979579926, -0.024604810401797295, 0.04419747740030289, 0.01085218507796526, 0.00949053280055523, -0.07666514813899994, -0.09147532284259796, -0.03634544834494591, 0.039285965263843536, -0.032847389578819275, -0.06936824321746826, 0.025861293077468872, -0.05649546906352043, 0.005336049944162369, 0.005509928800165653, 0.02592075616121292, 0.07449914515018463, 0.019668692722916603, 0.019256824627518654, 0.02787705697119236, -0.028676791116595268, -0.08114631474018097, 0.04659245163202286, 0.04839148372411728, -0.002760362345725298, 0.01141218189150095, 0.05687296763062477, 0.018665330484509468, -0.06413417309522629, -0.002113094786182046, 0.006255378481000662, 0.02027094177901745, -0.06520947068929672, -0.07202760875225067, -0.06877970695495605, -0.05856839567422867, -0.08017449826002121, -0.02125493623316288, -0.039161719381809235, 0.050355784595012665, 0.05018428713083267, -0.02624809555709362, 0.07294194400310516, -0.0006120599573478103, 0.03257017955183983, 0.026901602745056152, 0.044878192245960236, -0.055375851690769196, -0.06416022032499313, 0.06835413724184036, -0.07578671723604202, -0.04702267423272133, 0.03498215973377228, -0.06234690919518471, 0.037239041179418564, 0.021683845669031143, -0.06354766339063644, -0.008782876655459404, -0.04631093144416809, 0.037122562527656555, 0.05902481451630592, 0.02450043335556984, -0.06756968796253204, 0.016570715233683586, 0.008260366506874561, 0.037786468863487244, 0.06018305942416191, -0.008404741995036602, 0.022207800298929214, -0.07698646932840347, -0.002424605656415224, 0.06587132811546326, -0.025659047067165375, -0.07444824278354645, -0.010881156660616398, 0.06019807234406471, 0.07773284614086151, -0.06884351372718811, 0.046450093388557434, 0.053185880184173584, -0.0752486065030098, 0.05199480429291725, -0.08315424621105194, -0.06687984615564346, 0.012380263768136501, 0.05758776143193245, -0.0031497867312282324, 0.02466040477156639, -0.018372144550085068], [-0.05179734155535698, -0.03665696457028389, 0.023481745272874832, 0.03050294890999794, 0.0005335166351869702, -0.040102824568748474, 0.019907232373952866, 0.005823236424475908, 0.0748247355222702, 0.03479013219475746, -0.03064875490963459, 0.07289547473192215, 0.06449982523918152, 0.02862754464149475, 0.01648094318807125, 0.05716127157211304, 0.01378870103508234, 0.09270256012678146, -0.02434508688747883, 0.02609778381884098, 0.06506083905696869, 0.07925558090209961, -0.00416778028011322, 0.06827673316001892, -0.015802105888724327, -0.004291035700589418, 0.10114450007677078, 0.0609009675681591, -0.03089703992009163, 0.01627282239496708, -0.03505014255642891, 0.06097220256924629, 0.06557648628950119, -0.007248258218169212, 0.09640464931726456, 0.006456218659877777, 0.02543644979596138, 0.04104887694120407, -0.06702109426259995, -0.03040035255253315, -0.03150932118296623, 0.023779159411787987, -0.031006932258605957, 0.08070563524961472, 0.06552664190530777, 0.05318291112780571, -0.04786233976483345, 0.06458956003189087, 0.009034953080117702, 0.09867600351572037, 0.029523061588406563, -0.07053796201944351, 0.001221781480126083, 0.0287717767059803, -0.01833854615688324, 0.01780398003757, 0.043406110256910324, 0.05849594622850418, -0.05277172476053238, -0.010956982150673866, -0.05982118099927902, 0.025217080488801003, 0.07739663869142532, 0.06155702471733093, -0.03949480131268501, 0.09945927560329437, 0.10945715010166168, 0.026273179799318314, -0.044237565249204636, 0.05954241380095482, 0.030670709908008575, 0.049257658421993256, -0.010985404253005981, -0.061644747853279114, 0.07073806971311569, 0.042851321399211884, -0.06326107680797577, -0.07744849473237991, 0.03911669924855232, 0.03657015040516853, -0.011516280472278595, 0.027726462110877037, -0.07293463498353958, -0.06477431207895279, 0.032157015055418015, 0.02970751002430916, 0.005865999963134527, 0.022560017183423042, 0.025651302188634872, -0.006292387377470732, -0.01622248813509941, 0.09547685086727142, 0.0016437831800431013, 0.0833585262298584, 0.011958661489188671, 0.10827319324016571, 0.02062281407415867, -0.004733927082270384, 0.06793921440839767, -0.0601736381649971, 0.022633695974946022, -0.0030695681925863028, 0.0861215740442276, 0.0017512652557343245, 0.07842332124710083, 0.07265237718820572, -0.0520954392850399, 0.02588803693652153, 0.04368434473872185, -0.0778835266828537, -0.02058601938188076, 0.014037659391760826, 0.038876958191394806, -0.05613245069980621, 0.0014294147258624434, -0.014928188174962997, -0.06154010817408562, 0.07655739039182663, -0.012245806865394115, -0.025261158123612404, -0.03682643547654152, -0.010564155876636505, 0.011705249547958374, -0.053716227412223816, 0.02416999451816082, 0.06911105662584305, -0.004237984772771597, 0.08695302903652191], [-0.025746731087565422, -0.030160395428538322, 0.008969155140221119, -0.00047280467697419226, 0.1104351207613945, -0.021032601594924927, 0.08659545332193375, 0.0613938607275486, 0.08156514167785645, 0.08644750714302063, 0.04577881842851639, 0.08216649293899536, 0.05602697655558586, 0.10300222039222717, 0.06750703603029251, -0.03562486544251442, -0.04011417180299759, 0.04179763048887253, 0.048911307007074356, 0.06338860839605331, -0.02016233094036579, 0.03463978320360184, 0.10895118117332458, -0.030340107157826424, -0.0023348203394562006, -0.032029639929533005, 0.06294175237417221, 0.06295604258775711, -0.005285684950649738, -0.051551155745983124, -0.05958861485123634, 0.029808547347784042, 0.09786557406187057, 0.06615254282951355, 0.09011023491621017, 0.08325165510177612, 0.11129971593618393, -0.018240591511130333, 0.09108112752437592, 0.10155186802148819, -0.007231761235743761, 0.07051309943199158, -0.011476238258183002, 0.06315629184246063, 0.04996027424931526, 0.005854543298482895, -0.069410040974617, -0.04051286354660988, 0.0006521125906147063, -0.012130939401686192, 0.047934092581272125, -0.05762210488319397, -0.05322703719139099, 0.031861256808042526, 0.009678974747657776, -0.002254566876217723, 0.016135141253471375, -0.05224868655204773, 0.07381338626146317, -0.004173140041530132, -0.053507376462221146, 0.09809687733650208, -6.227070116437972e-05, -0.03773147240281105, 0.00321124866604805, -0.05334244295954704, 0.08345746248960495, -0.013014056719839573, -0.017387188971042633, -0.01803041622042656, 0.10197652131319046, 0.07652353495359421, 0.06556636095046997, -0.026574809104204178, -0.04806039109826088, 0.10739964246749878, -0.04826332628726959, -0.04126783087849617, -0.06820747256278992, 0.06386697292327881, 0.07114609330892563, 0.026390155777335167, 0.046603601425886154, 0.09011395275592804, -0.05608140304684639, 0.1123632937669754, 0.08624938875436783, 0.012361749075353146, 0.023208485916256905, -0.07728306949138641, -0.0031085757073014975, 0.0049964203499257565, -0.0534190833568573, -0.0041099670343101025, -0.04204867035150528, 0.013986942358314991, -0.054738566279411316, -0.04503967612981796, -0.047649528831243515, 0.06830333173274994, 0.005182079039514065, -0.06003926321864128, 0.05264601483941078, 0.07434209436178207, 0.07854059338569641, -0.034262336790561676, 0.09710283577442169, -0.03121175430715084, 0.09643767029047012, -0.03195777162909508, -0.021823866292834282, 0.05195141211152077, -0.041288312524557114, -0.02491862140595913, 0.029578590765595436, 0.014148895628750324, 0.0021185323130339384, 0.023277945816516876, 0.04012186452746391, 0.07580886036157608, -0.02898799255490303, 0.06538047641515732, 0.023827601224184036, -0.04072880372405052, -0.00419509457424283, 0.023279204964637756, 0.11526717990636826, -0.036291833966970444], [0.07485097646713257, -0.0332341305911541, -0.013543921522796154, -0.046996474266052246, -0.08699703216552734, 0.04938138648867607, -0.03676028549671173, 0.02194339409470558, -0.02338922955095768, 0.06641419231891632, 0.03796074166893959, 0.05632945895195007, 0.058937057852745056, -0.009094784036278725, -0.010161466896533966, 0.04178943485021591, 0.02247382141649723, 0.051664236932992935, 0.07984719425439835, 0.013477790169417858, -0.014030410908162594, -0.0634601041674614, 0.004973478149622679, -0.04525505006313324, -0.0886990949511528, 0.02239607647061348, -0.07448027282953262, 0.07063193619251251, -0.07002276182174683, 0.0157956313341856, -0.07088878005743027, 0.07609335333108902, 0.021791182458400726, -0.06350352615118027, -0.052175622433423996, -0.011415884830057621, -0.04646073281764984, -0.06829404085874557, -0.0642235055565834, -0.057406093925237656, -0.05932766944169998, 0.018189748749136925, -0.05255650728940964, 0.013278189115226269, 0.06826770305633545, 0.09302804619073868, -0.08407715708017349, -0.08997827768325806, -0.08097511529922485, 0.04973357170820236, -0.08124244213104248, -0.0865413099527359, -0.02119080163538456, 0.06695400178432465, 0.0847337394952774, 0.02219020202755928, 0.05813869833946228, -0.02230774611234665, -0.04305160790681839, -0.047354187816381454, 0.006768605671823025, -0.010837303474545479, 0.03640935197472572, -0.07627052813768387, -0.049852143973112106, 0.03604786843061447, 0.013781893998384476, 0.0708255022764206, 0.08116171509027481, -0.028196735307574272, -0.016034148633480072, -0.08397471159696579, 0.06831952184438705, 0.033095285296440125, -0.020113179460167885, 0.07304920256137848, -0.08726184070110321, 0.08717792481184006, -0.021332893520593643, -0.010641537606716156, -0.01144113577902317, 0.03102963976562023, 0.02420392818748951, -0.05037857964634895, 0.019618837162852287, 0.04538896679878235, 0.04678507521748543, 0.03191481530666351, 0.004732680972665548, 0.041367173194885254, 0.007779344450682402, -0.0242762453854084, 0.002692518988624215, 0.0023695507552474737, -0.024140819907188416, -0.065315842628479, -0.07702666521072388, -0.041534408926963806, -0.020617149770259857, -0.036552365869283676, 0.053704820573329926, -0.04135861620306969, -0.05367311090230942, -0.025266846641898155, 0.09437491744756699, 0.01884034089744091, 0.0728992223739624, 0.03358897194266319, -0.0071316915564239025, 0.06273292005062103, 0.028344176709651947, 0.06973598152399063, 0.002628741320222616, 0.05510547757148743, -0.019915759563446045, 0.025448279455304146, -0.060696277767419815, -0.029390377923846245, -0.014884204603731632, 0.03099309466779232, -0.044290829449892044, 0.08237295597791672, -0.03951915726065636, 0.07550261914730072, -0.08092045783996582, -0.023699181154370308, 0.024177847430109978, 0.0700908675789833], [-0.0645507276058197, -0.00867460947483778, -0.04753129556775093, -0.04097623750567436, 0.08364623039960861, 0.01042384747415781, -0.01687546819448471, 0.05217967554926872, -0.040961794555187225, 0.027530483901500702, 0.04707421362400055, 0.025716330856084824, -0.06594506651163101, -0.05766252055764198, -0.05524211376905441, -0.004374406766146421, -0.007257468532770872, -0.05912967398762703, -0.030089326202869415, -0.07255025207996368, -0.04881006106734276, -0.07378563284873962, -0.03421149402856827, -0.026651542633771896, -0.007640339434146881, 0.010477839037775993, -0.027262108400464058, 0.05755652114748955, 0.008877281099557877, 0.05940960720181465, -0.012461214326322079, -0.01195479929447174, -0.0654943510890007, 0.028896497562527657, -0.04471166431903839, -0.08862832188606262, -0.051917921751737595, -0.010318554937839508, -0.09163959324359894, -0.04040354862809181, 0.010908377356827259, -0.05512993410229683, 0.03470754250884056, -0.007783830165863037, -0.01463057566434145, 0.005696162581443787, 0.07065565884113312, 0.053765878081321716, -0.028388455510139465, 0.034585364162921906, -0.08050040155649185, 0.01395080704241991, 0.015438596718013287, 0.0216544046998024, -0.08118154853582382, 0.0166469719260931, 0.02532113529741764, -0.08183756470680237, -0.08143536746501923, 0.037197042256593704, 0.03848951309919357, 0.03959702327847481, -0.08494528383016586, 0.06049080565571785, -0.08403598517179489, 0.07037616521120071, -0.005211272742599249, 0.04955968260765076, 0.011258783750236034, -0.04933171719312668, -0.03591213375329971, 0.008678318932652473, -0.06566797196865082, -0.04417914152145386, 0.08126980811357498, 0.08007009327411652, -0.030447406694293022, 0.08163795620203018, 0.015327808447182178, 0.026177706196904182, -0.07338344305753708, -0.021924152970314026, 0.027177831158041954, -0.039900973439216614, 0.049232665449380875, 0.07841958850622177, 0.06715793907642365, -0.03917033225297928, 0.04617581143975258, 0.005829500034451485, -0.013550636358559132, 0.013940287753939629, -0.056991856545209885, -0.022256577387452126, -0.011249614879488945, 0.0469525046646595, -0.007762181106954813, 0.019678473472595215, 0.011330937035381794, -0.056406572461128235, -0.08163852989673615, 0.08208731561899185, 0.07081728428602219, 0.006831569131463766, 0.033598557114601135, 0.06833674013614655, 0.04294352978467941, 0.06257451325654984, 0.011147042736411095, 0.02743431366980076, -0.03897610306739807, -0.02222871594130993, 0.04465525597333908, -0.030222760513424873, -0.0913921520113945, -0.08481987565755844, -0.01369606051594019, -0.01572793908417225, -0.04152373597025871, -0.021035674959421158, -0.06237665191292763, -0.042810872197151184, 0.06563800573348999, -0.052251625806093216, -0.004532665479928255, -0.08074204623699188, 0.06019758805632591, 0.024922866374254227], [-0.059903260320425034, -0.016362309455871582, 0.08222179859876633, 0.07115218788385391, 0.07566706836223602, 0.05211932212114334, -0.07565504312515259, -0.040103644132614136, 0.0364406444132328, -0.003692134516313672, 0.02442283183336258, 0.07999132573604584, 0.00741798197850585, -0.058818038552999496, 0.0050397031009197235, 0.011248684488236904, -0.04783324524760246, -0.07673942297697067, -0.07361625134944916, 0.060462918132543564, 0.009615559130907059, -0.057811640202999115, 0.0791708379983902, 0.047734107822179794, -0.041392385959625244, -0.07759080082178116, -0.05135822668671608, 0.05558690428733826, -0.05912262201309204, 0.03301411494612694, -0.04043349623680115, 0.03577582910656929, -0.025012986734509468, 0.03569537773728371, 0.00706817302852869, -0.0015590613475069404, -0.02576865814626217, -0.020074358209967613, -0.03704434260725975, -0.01717797853052616, 0.04756874591112137, -0.010080966167151928, 0.014661014080047607, -0.018293512985110283, -0.061268631368875504, -0.03434731811285019, 0.06342451274394989, 0.032224562019109726, -0.09023815393447876, 0.03405393287539482, 0.04488720744848251, -0.011802897788584232, 0.02858324721455574, -0.04740342125296593, 0.02882883884012699, 0.015037144534289837, -0.03415164723992348, -0.08795340359210968, -0.07468508183956146, -0.07292189449071884, -0.042071424424648285, 0.01868872344493866, 0.01726403273642063, -0.04254493862390518, 0.02114371582865715, -0.0393608994781971, 0.06859810650348663, 0.03485744446516037, -0.07904750853776932, 0.02006973884999752, -0.03642505034804344, 0.06761115044355392, 0.038971319794654846, 0.02784881554543972, 0.040397852659225464, -0.04424527660012245, 0.06329219788312912, 0.07332944869995117, -0.047373879700899124, 0.07021501660346985, -0.020352724939584732, 0.07792390882968903, -0.021422121673822403, 0.06141112372279167, 0.07657255977392197, -0.056084856390953064, -0.062090761959552765, -0.01566355675458908, -0.03589099645614624, 0.017291292548179626, -0.006406520027667284, -0.08444506675004959, -0.027408240363001823, 0.03140212222933769, 0.0026612745132297277, -0.028150340542197227, -0.08455584943294525, -0.05763391777873039, 0.06100250780582428, 0.0014630842488259077, -0.05601859465241432, 0.004444532562047243, 0.005105207208544016, 0.07762342691421509, -0.08597323298454285, -0.04965835437178612, -0.010570911690592766, -0.08027686178684235, 0.017529252916574478, -0.07935351878404617, -0.011584918014705181, 0.06590293347835541, 0.06645050644874573, -0.08356728404760361, 0.0723898857831955, -0.029376832768321037, 0.01998198963701725, 0.00612148642539978, 0.06492158025503159, -0.046000462025403976, -0.027956433594226837, -0.06659630686044693, -0.05028390884399414, 9.192227298626676e-05, -0.07567674666643143, 0.01678359881043434, -0.04567648097872734, -0.06762626022100449], [0.03135537728667259, -0.0658918246626854, 0.03290662541985512, -0.013585671782493591, 0.009476112201809883, 0.07388930022716522, 0.03631190210580826, -0.06408703327178955, 0.03755129873752594, 0.058967944234609604, 0.03302720934152603, -0.025065647438168526, -0.01133335754275322, 0.026315096765756607, -0.04049738124012947, 0.02382509782910347, -0.03697635605931282, 0.04004800692200661, 0.01038769818842411, -0.07844194024801254, 0.03045646846294403, -0.10479425638914108, -0.03578897565603256, -0.02260274440050125, 0.024232104420661926, 0.06792718917131424, 0.06275834888219833, -0.03130185604095459, -0.07195016741752625, -0.04151737317442894, -0.09582417458295822, -0.05593843013048172, 0.05244806408882141, 0.03207552433013916, -0.008695264346897602, 0.024813080206513405, 0.0634976252913475, -0.05262312293052673, 0.05464213341474533, 0.06336845457553864, 0.08320743590593338, -0.07517959177494049, 0.0022008323576301336, -0.00018706305127125233, 0.055715546011924744, -0.011323489248752594, 0.033322613686323166, 0.04472404345870018, -0.05393616482615471, 0.07012353837490082, -0.07936817407608032, 0.0860208198428154, -0.099115751683712, 0.06335994601249695, -0.07833889126777649, 0.07216688245534897, -0.04071159288287163, 0.02127975784242153, 0.06167289987206459, -0.021732300519943237, -0.05724776163697243, -0.10058523714542389, 0.05076830834150314, -0.03162156790494919, -0.01448963861912489, 0.02619932033121586, -0.06289263069629669, -0.05876758694648743, 0.06112334504723549, 0.04990411549806595, 0.021878039464354515, -0.029218820855021477, -0.024969972670078278, -0.036754678934812546, 0.013920174911618233, 0.07368023693561554, -0.10078967362642288, 0.021010037511587143, -0.05337592214345932, -0.029075216501951218, -0.07082431018352509, -0.06426460295915604, -0.04339463263750076, 0.021633893251419067, 0.011537172831594944, 0.01735255867242813, -0.0011978426482528448, 0.05279560014605522, 0.0045128255151212215, 0.07832113653421402, 0.06167496368288994, 0.017286399379372597, 0.05177450180053711, -0.05310279503464699, -0.08414150774478912, 0.024149466305971146, -0.07072264701128006, 0.029754456132650375, 0.07347402721643448, 0.04982547461986542, 0.05711912736296654, 0.0077788797207176685, 0.04174426570534706, -0.05676514655351639, -0.01880081370472908, -0.04121144860982895, -0.05759156867861748, -0.09309148788452148, 0.03780879080295563, 0.0009705980191938579, -0.08472844958305359, -0.027954192832112312, -0.06255389750003815, -0.06355416029691696, -0.02151307463645935, -0.10023395717144012, 0.07298434525728226, 0.06285979598760605, 0.01179699320346117, 0.053576868027448654, -0.06864078342914581, 0.03052789904177189, 0.04130932316184044, -0.08355898410081863, -0.07867716997861862, -0.05871626362204552, -0.06641490757465363, -0.007056802976876497], [0.055779557675123215, 0.012097738683223724, -0.04289895296096802, 0.016260094940662384, -0.08405052870512009, -0.04374271631240845, -0.06085112690925598, 0.0755615383386612, -0.06188135966658592, -0.08184918016195297, 0.08222126215696335, 0.055607669055461884, -0.035482075065374374, 0.039237603545188904, -0.07978904247283936, 0.01148280780762434, -0.08764857053756714, 0.035324834287166595, 0.01770695671439171, -0.08701687306165695, 0.058253899216651917, -0.0018409109907224774, -0.08356853574514389, -0.046450525522232056, 0.010727263055741787, -0.05338241532444954, -0.061136070638895035, 0.05131996423006058, -0.07425560802221298, 0.07546328753232956, -0.028724221512675285, 0.07942506670951843, 0.04361262544989586, 0.015128144063055515, 0.02836759388446808, -0.036883655935525894, 0.06996425986289978, 0.06409186124801636, 0.07317997515201569, -0.022809457033872604, 0.07389654219150543, 0.07476387917995453, 0.03395842760801315, -0.06786014884710312, -0.07271633297204971, -0.010455621406435966, 0.0005263719940558076, -0.07506829500198364, 0.05577201768755913, 0.09677886962890625, -0.0180892962962389, -0.056536003947257996, -0.051932111382484436, -0.032685842365026474, 0.07087927311658859, -0.005205709487199783, 0.07845475524663925, -0.03138123080134392, 0.05674032121896744, -0.06803609430789948, 0.05788251385092735, -0.08109348267316818, 0.0549408458173275, -0.019992439076304436, 0.022764520719647408, -0.0643259733915329, -0.08819054067134857, 0.06285718828439713, -0.01814596727490425, 0.054788097739219666, 0.028016481548547745, -0.09051058441400528, -0.027399912476539612, 0.03344006836414337, -0.07511253654956818, 0.08265968412160873, -0.0481160432100296, 0.02389592118561268, 0.08713109791278839, 0.019030354917049408, 0.06594744324684143, 0.010765942744910717, 0.010382980108261108, 0.010650628246366978, 0.06734251976013184, 0.0500531941652298, -0.059688862413167953, -0.04580482840538025, 0.0010955246398225427, -0.052244238555431366, -0.07536773383617401, 0.023889929056167603, 0.05124392360448837, 0.08118639886379242, 0.04677274450659752, -0.010739732533693314, 0.06505697965621948, -0.0702253207564354, 0.068491131067276, 0.036348000168800354, 0.07230246812105179, -0.023396646603941917, 0.04350461810827255, -0.028982479125261307, 0.061847984790802, -0.002117512747645378, 0.026702076196670532, -0.028000928461551666, -0.05339033529162407, 0.028081713244318962, 0.05634760484099388, -0.0011923376005142927, -0.020760750398039818, -0.07256424427032471, 0.04695471003651619, -0.07919935882091522, 0.041702430695295334, 0.02047096937894821, 0.036445051431655884, -0.03739709407091141, 0.07138802856206894, -0.02052045240998268, -0.050361812114715576, 0.029375165700912476, -0.04909137263894081, 0.008837319910526276, 0.01938338577747345, -0.03692173212766647], [0.003927699290215969, -0.029229598119854927, 0.08803057670593262, -0.06430383026599884, 0.05123800039291382, 0.08254358917474747, 0.034420546144247055, 0.05817803367972374, -0.013448347337543964, 0.0542626790702343, -0.005499968305230141, 0.028768157586455345, 0.030534015968441963, 0.08180007338523865, 0.01639501564204693, 0.09552563726902008, 0.004733147099614143, 0.04009799286723137, -0.04032373055815697, 0.09467267245054245, -0.03218578174710274, -0.05025521293282509, -0.03583117574453354, 0.006314011290669441, -0.06196209415793419, 0.013862955383956432, -0.037582747638225555, -0.0072231655940413475, 0.023864079266786575, -0.04019267484545708, 0.013348497450351715, 0.007777264341711998, 0.01093338243663311, -0.00406055711209774, -0.020701389759778976, 0.001894576009362936, -0.01955237053334713, 0.05019678175449371, 0.02552575245499611, -0.04621187597513199, 0.0881686881184578, 0.10298186540603638, 0.09012392908334732, -0.034080877900123596, -0.06498240679502487, 0.027564894407987595, -0.036279067397117615, -0.021808922290802002, 0.008489735424518585, 0.06350281089544296, 0.08111207187175751, -0.003911733161658049, -0.04316680133342743, -0.06517943739891052, -0.03732285276055336, 0.02026856690645218, 0.10372263938188553, 0.09272889047861099, -0.06529663503170013, 0.0655517578125, 0.09681998938322067, 0.04753047972917557, 0.09553056955337524, 0.10456487536430359, 0.07743620872497559, 0.07121942192316055, 0.09133113920688629, -0.023899372667074203, 0.005359252914786339, 0.0049377805553376675, -0.04461419954895973, 0.01675291545689106, 0.01139307301491499, 0.08633656799793243, -0.04377945512533188, 0.054370421916246414, 0.07359667867422104, 0.0810815840959549, 0.035131704062223434, -0.03598219156265259, 0.03942424803972244, -0.048275820910930634, -0.07425903528928757, -0.0006743586855009198, -0.048268504440784454, -0.057942427694797516, 0.033269450068473816, -0.05182322487235069, 0.052403971552848816, 0.011537634767591953, -0.028093796223402023, 0.04917007312178612, -0.03606171905994415, 0.026630254462361336, 0.003172666532918811, 0.10263150185346603, 0.04195041581988335, 0.08987557888031006, -0.041857991367578506, 0.04009183123707771, 0.010152325965464115, -0.011532740667462349, 0.04712086543440819, 0.002447486389428377, 0.0899951159954071, -0.06751803308725357, 0.07069414108991623, -0.002213546773418784, 0.01695101149380207, -0.02301761694252491, 0.07067123800516129, 0.0971543937921524, 0.09564879536628723, 0.0478435717523098, 0.04446318373084068, 0.10377640277147293, 0.08334396779537201, -0.05401308462023735, -0.030435025691986084, -0.011973472312092781, 0.027832141146063805, 0.09553518891334534, 0.01325986534357071, -0.0023586133029311895, 0.0523647665977478, 0.09412649273872375, -0.04697579890489578, 0.0033403837587684393], [-0.05286858230829239, 0.015781160444021225, 0.0170634463429451, 0.068292535841465, -0.01764141581952572, 0.037724804133176804, 0.02075774408876896, 0.048024434596300125, -0.03478613495826721, 0.06887304782867432, -0.05799723416566849, -0.0634412169456482, 0.01764528639614582, 0.04501386731863022, -0.010047174990177155, 0.0765170231461525, -0.058126818388700485, -0.07527700066566467, 0.06266104429960251, -0.03862449899315834, -0.03359894081950188, -0.08676708489656448, 0.06511765718460083, -0.058871328830718994, 0.041147418320178986, 0.03330861032009125, 0.06360670924186707, -0.030589960515499115, -0.04987667500972748, -0.08068769425153732, -0.013112716376781464, 0.0023361057974398136, 0.00285485596396029, 0.0837169885635376, -0.022643091157078743, -0.08094248175621033, 0.016129253432154655, -0.08269651979207993, 0.08794645965099335, -0.032537106424570084, 0.07966821640729904, -0.07864406704902649, 0.0057161664590239525, -0.07295482605695724, -0.07438840717077255, -0.04927832633256912, -0.05335233360528946, 0.07020978629589081, -0.02460295706987381, -0.013280761428177357, 0.014831560663878918, 0.06673634797334671, -0.0487697459757328, -0.00798349641263485, 0.0802810788154602, -0.05891558900475502, -0.026825353503227234, 0.0038232249207794666, -0.05346892401576042, 0.05820193141698837, 0.07125016301870346, -0.06308241188526154, -0.07382132112979889, 0.07256367802619934, -0.05771179497241974, 0.058783385902643204, -0.04364055022597313, -0.050412993878126144, -0.049748022109270096, -0.05701618269085884, -0.06635379791259766, 0.04119381308555603, -0.00435892166569829, 0.01004895381629467, -0.06823234260082245, 0.08255458623170853, -0.05032314732670784, -0.002737279748544097, -0.07654475420713425, -0.0325976200401783, 0.041104283183813095, -0.08626452088356018, 0.016986476257443428, 0.06380552798509598, 0.03181958571076393, -0.04918871074914932, 0.07266075164079666, 0.03447262570261955, -0.021790266036987305, 0.003328463062644005, 0.03388301283121109, -0.07262223213911057, 0.07073669135570526, -0.08547303825616837, 0.07269853353500366, -0.02953280135989189, 0.007416844367980957, -0.08236776292324066, -0.06320305168628693, -0.041590917855501175, 0.06669555604457855, -0.018830368295311928, -0.0378175750374794, -0.06114428862929344, 0.06870918720960617, 0.061550676822662354, -0.0426887571811676, 0.051524531096220016, -0.07200618833303452, 0.05361443758010864, -0.08266455680131912, -0.05131286010146141, 0.03724934160709381, 0.03828117623925209, -0.08158092945814133, -0.06886127591133118, -0.00199387245811522, -0.013134378008544445, -0.03670784458518028, 0.055664341896772385, -0.07566427439451218, -0.07629553973674774, -0.08797530829906464, 0.03367878869175911, -0.03527170792222023, 0.050626449286937714, 0.05718235671520233, 0.02318260818719864], [0.06056225672364235, -0.04061613604426384, 0.06628931313753128, 0.052325788885354996, -0.06194891035556793, -0.021892493590712547, -0.06714082509279251, 0.07348114997148514, 0.09218539297580719, -0.015062445774674416, 0.024780815467238426, -0.06038205698132515, -0.02908584102988243, -0.023570725694298744, -0.04600600525736809, 0.013150360435247421, 0.09153711050748825, 0.014642582274973392, 0.02009153924882412, -0.07807368040084839, -0.014360195025801659, 0.0059226094745099545, 0.08054682612419128, -0.07387843728065491, -0.0263063982129097, 0.09069455415010452, -0.06213252991437912, 0.016199052333831787, -0.004772333428263664, -0.06509285420179367, 0.03774861991405487, -0.05209942162036896, 0.0942879468202591, 0.009292036294937134, 0.020209794864058495, 0.06859734654426575, 0.003904173616319895, 0.0852518081665039, 0.03029266744852066, -0.023432184010744095, 0.0056979237124323845, 0.03026002272963524, -0.03528449311852455, 0.09511300921440125, -0.07069724798202515, -0.04450718313455582, -0.08735541999340057, 0.060198936611413956, -0.03479805588722229, 0.10513217747211456, -0.01936759613454342, -0.03760005533695221, -0.02706344611942768, 0.07644394785165787, -0.04473719745874405, 0.034592993557453156, -0.002074943855404854, 0.07868564873933792, -0.05595895275473595, 0.01367497630417347, 0.046388719230890274, 0.10605946183204651, 0.060257237404584885, 0.005873523652553558, 0.021755961701273918, 0.050956256687641144, 0.09647249430418015, 0.03815702721476555, 0.04742194712162018, -0.01880677416920662, 0.02057064138352871, -0.03579801321029663, 0.06993141770362854, 0.06356848031282425, 0.07417409867048264, 0.08693042397499084, 0.1056661307811737, 0.05170394480228424, 0.004414170980453491, 0.05075046047568321, 0.0909648984670639, 0.10625457018613815, 0.05505243316292763, -0.054787080734968185, -0.03578830882906914, 0.0929204598069191, 0.01136411540210247, -0.01224500872194767, -0.031803712248802185, 0.08617642521858215, 0.04052215814590454, -0.0532250851392746, 0.01923375017940998, -0.00242994143627584, 0.0010610382305458188, -0.004568437114357948, 0.040926553308963776, -0.05261792242527008, 0.09968552738428116, -0.07183525711297989, -0.014366279356181622, 0.06456846743822098, 0.06047302484512329, -0.032697297632694244, -0.030522901564836502, 0.07549489289522171, 0.043069686740636826, 0.08967738598585129, 0.10057902336120605, 0.04881792888045311, -0.011865253560245037, -0.027293100953102112, 0.06065208092331886, 0.10472868382930756, 0.033812265843153, 0.05866363272070885, 0.036842551082372665, -0.007525292225182056, 0.06999747455120087, 0.08094131946563721, -0.03960869461297989, 0.07864440232515335, 0.022399451583623886, 0.03148019686341286, 0.04034336656332016, 0.012833908200263977, 0.0020206456538289785, 0.0742974653840065], [0.0103941410779953, -0.0017768556717783213, 0.06131598353385925, -0.0036901463754475117, 0.0748380646109581, -0.04695819690823555, -0.02500464767217636, -0.061826616525650024, -0.055493731051683426, 0.033007968217134476, -0.08957971632480621, -0.025622647255659103, -0.06046706810593605, 0.03837785869836807, -0.022063959389925003, 0.04430496692657471, 0.06706114858388901, 0.037090741097927094, -0.08029909431934357, 0.005981900729238987, 0.0114407017827034, -0.08176853507757187, 0.07669892907142639, -0.08214963972568512, -0.08454270660877228, 0.058327365666627884, 0.0492313876748085, -0.053401879966259, 0.0488060861825943, -0.04024956375360489, -0.007589708082377911, -0.008536312729120255, -0.017942583188414574, 0.08393441885709763, -0.05708668753504753, -0.082091324031353, 0.002445479389280081, -0.06363865733146667, 0.06237801909446716, 0.04307764023542404, -0.014452370814979076, -0.060789529234170914, -0.08294834941625595, 0.06227079778909683, 0.056975629180669785, -0.03493095934391022, -0.04366791620850563, 0.010097896680235863, 0.07706426084041595, 0.0782422348856926, -0.0444120354950428, -0.05392754450440407, -0.00018438028928358108, -0.07259868085384369, -0.023235278204083443, -0.016633344814181328, 0.07497081905603409, 0.07313597947359085, -0.026426922529935837, 0.007199735846370459, 0.03342648595571518, -0.0789816752076149, -0.06004294008016586, 0.05076008290052414, 0.0685935765504837, 0.056972745805978775, 0.002943028463050723, 0.06435304135084152, 0.07384387403726578, -0.08014722168445587, 0.014976530335843563, -0.08926547318696976, -0.04073316603899002, 0.053773779422044754, -0.037198763340711594, -0.02208440564572811, 0.06473623961210251, -0.02852335013449192, 0.04992200806736946, -0.034739892929792404, -0.018537035211920738, -0.010506771504878998, 0.06920840591192245, 0.011246195062994957, 0.03559117391705513, 0.06147710978984833, -0.06852591037750244, 0.008785419166088104, 0.06952191144227982, 0.03446353226900101, -0.02994663640856743, 0.011161654256284237, -0.0130058778449893, -0.07830099761486053, -0.07448647916316986, -0.0887274518609047, 0.014893373474478722, -0.04651873558759689, -0.08366493135690689, 0.04070381447672844, 0.06892695277929306, -0.0049729906022548676, -0.07487314939498901, 0.06337133049964905, -0.07162841409444809, 0.04619304835796356, 0.076072096824646, -0.01809748448431492, 0.01637582667171955, 0.09002360701560974, 0.03605768084526062, 0.04035724326968193, -0.09049402922391891, 0.07455965876579285, -0.04181457683444023, -0.07204887270927429, 0.021966978907585144, 0.008048010058701038, -0.009430058300495148, -0.04035056754946709, 0.005614062771201134, -0.0035251714289188385, 0.04098887741565704, -0.013519839383661747, 0.004020369611680508, -0.04799872264266014, 0.011913426220417023, 0.04913380369544029], [0.049666136503219604, -0.05025834962725639, -0.02249254658818245, 0.0679873451590538, -0.052844926714897156, 0.04482664540410042, -0.008207008242607117, -0.022594308480620384, -0.047922778874635696, -0.012438983656466007, -0.044405944645404816, 0.03857274353504181, 0.044957708567380905, -0.0322166383266449, 0.05361669510602951, 0.08247783035039902, 0.022562360391020775, -0.07353145629167557, -0.03784696385264397, -0.04950832575559616, -0.028052179142832756, 0.055415038019418716, 0.03478458523750305, -0.05094262585043907, 0.05633104220032692, 0.09772980958223343, 0.07684747874736786, 0.07725860923528671, 0.07765591144561768, 0.08855348825454712, 0.07157707214355469, 0.09207518398761749, 0.0786515399813652, 0.021280530840158463, 0.08495322614908218, 0.039600059390068054, 0.023334382101893425, -0.007853797636926174, 0.04380769282579422, 0.08697203546762466, 0.0930931568145752, 0.04090922325849533, -0.01525197084993124, 0.020257893949747086, 0.04345779865980148, 0.0297507643699646, 0.06526397168636322, 0.04752080887556076, 0.08852358162403107, 0.014706859365105629, -0.06632035970687866, 0.0393298901617527, -0.059915170073509216, 0.05048511177301407, 0.003027148311957717, 0.0071649206802248955, -0.06042187660932541, -0.023138023912906647, 0.0922691822052002, 0.010990445502102375, -0.03745000436902046, -0.06642568111419678, 0.10112185776233673, -0.03609703108668327, 0.04761580005288124, 0.09615162760019302, -0.02915032207965851, 0.03929487615823746, 0.0725649744272232, 0.0862530916929245, -0.05087844282388687, -0.043260831385850906, 0.0697440356016159, -0.05875508114695549, -0.009616275317966938, -0.03179466351866722, 0.049078721553087234, -0.009483668021857738, 0.009450300596654415, 0.07758168876171112, -0.046950921416282654, 0.06426163762807846, 0.09054899960756302, 0.07285423576831818, -0.05389389023184776, 0.09277140349149704, -0.0016191554022952914, 0.039256419986486435, 0.021926645189523697, -0.01829131320118904, 0.06856495887041092, 0.013606845401227474, 0.07448627799749374, 0.04029179364442825, -0.036431364715099335, 0.037993889302015305, -0.04411235451698303, 0.019548268988728523, 0.10588612407445908, -0.02614559978246689, 0.09909789264202118, -0.005265418905764818, 0.07662104815244675, 0.029451530426740646, 0.07179782539606094, 0.043024320155382156, 0.06476853787899017, 0.0016361735761165619, 0.08259499818086624, 0.09340786933898926, -0.002522106282413006, -0.06827745586633682, 0.025867370888590813, -0.011930474080145359, 0.023018550127744675, 0.05793829262256622, -0.08413205295801163, -0.06022172048687935, 0.04828479140996933, -0.07930921018123627, 0.07145100831985474, 0.043665654957294464, 0.08579085022211075, -0.028131546452641487, 0.10217635333538055, 0.04468754678964615, -0.029697032645344734, 0.02527926303446293], [0.08748450130224228, -0.023439908400177956, -0.05924847349524498, -0.048563044518232346, 0.10212492197751999, -0.0628892332315445, -0.04112276807427406, 0.06625764816999435, -0.06852461397647858, 0.007036249153316021, 0.02944948896765709, -0.021985214203596115, 0.03697144612669945, 0.02023826725780964, -0.04569261521100998, 0.03762560710310936, -0.06278981268405914, 0.010052060708403587, 0.00930433627218008, -0.03589940071105957, 0.025698071345686913, -0.061135079711675644, -0.04867091029882431, 0.010892346501350403, -0.03491973131895065, 0.0674961507320404, -0.03375568613409996, 0.06688813120126724, -0.06356438994407654, 0.05775514245033264, 0.058436837047338486, -0.06495697051286697, -0.04639832675457001, 0.1018313392996788, -0.02304156683385372, 0.08013373613357544, 0.04848271980881691, 0.06366071105003357, 0.07781083881855011, 0.04165436327457428, 0.0003958962333854288, 0.050245143473148346, -0.08109337091445923, 0.0700826421380043, -0.023728888481855392, -0.04697504639625549, -0.04591401666402817, 0.03802197054028511, 0.07034306228160858, 0.010731188580393791, 0.0026616661343723536, 0.053068023175001144, 0.057104554027318954, 0.07144170999526978, 0.0017301274929195642, -0.04035969823598862, 0.0959569588303566, 0.02472756616771221, -0.005334135610610247, -0.029341185465455055, -0.043032776564359665, 0.08277411013841629, -0.01049299817532301, -0.04626625403761864, -0.027587758377194405, 0.004461771808564663, 0.07375837117433548, 0.0801016092300415, -0.0027990122325718403, -0.06673155725002289, -0.037877194583415985, 0.05992491543292999, -0.05264339596033096, 0.09814359992742538, -0.04014631360769272, -0.03189242631196976, -0.029973573982715607, 0.07977443188428879, 0.048814207315444946, 0.09890543669462204, 0.06728436797857285, -0.016820140182971954, 0.010866234079003334, 0.07283899188041687, -0.06891898065805435, 0.07704105973243713, 0.009954176843166351, 0.04257471486926079, -0.003040097653865814, 0.07275524735450745, 0.09474419057369232, -0.0565972775220871, 0.08049938082695007, 0.056747663766145706, 0.013267498463392258, -0.0002638075966387987, 0.07371310144662857, -0.030223699286580086, -0.04261583834886551, 0.047188229858875275, 0.007508493028581142, -0.029107794165611267, -0.0008270973339676857, 0.06770140677690506, 0.06911022216081619, -0.02004164084792137, -0.06715960800647736, -0.043551553040742874, -0.055565547198057175, -0.04553397372364998, 0.03937852382659912, 0.05895852670073509, -0.04495250806212425, 0.034462761133909225, 0.007396753411740065, 0.06895747035741806, -6.366281013470143e-05, 0.029050273820757866, -0.0549105629324913, 0.0007494966266676784, 