{
  "state_dim": 11,
  "num_actions": 5,
  "layers": [
    {
      "W": [
        [
          -0.15653645992279053,
          0.16367895901203156,
          0.03651442006230354,
          0.11996223032474518,
          0.1850307583808899,
          -0.1848629117012024,
          -0.0918818861246109,
          -0.15558458864688873,
          0.035899847745895386,
          0.0986364409327507,
          0.006788906175643206
        ],
        [
          -0.18027488887310028,
          -0.18440566956996918,
          0.10810206830501556,
          -0.11913859099149704,
          -0.13478507101535797,
          0.09656695276498795,
          -0.1588318943977356,
          -0.009236734360456467,
          -0.2037908434867859,
          0.00687797274440527,
          -0.18208609521389008
        ],
        [
          -0.18288429081439972,
          0.19640757143497467,
          -0.05869198963046074,
          0.1339859664440155,
          -0.047178156673908234,
          -0.17213821411132812,
          -0.15416932106018066,
          -0.10778246074914932,
          0.06631239503622055,
          -0.10764424502849579,
          0.09617501497268677
        ],
        [
          0.13091591000556946,
          0.1384265273809433,
          -0.06636855751276016,
          0.08854573220014572,
          -0.18812160193920135,
          -0.09923677891492844,
          0.0195719376206398,
          0.12405381351709366,
          0.1801445186138153,
          -0.17321495711803436,
          -0.20300905406475067
        ],
        [
          -0.058689896017313004,
          0.20333851873874664,
          0.02934843860566616,
          -0.04426175355911255,
          0.09185967594385147,
          0.13986137509346008,
          0.07306477427482605,
          0.07746408134698868,
          -0.027189431712031364,
          0.16500656306743622,
          0.14149333536624908
        ],
        [
          0.2104158252477646,
          0.1490117460489273,
          0.050896450877189636,
          -0.10237322747707367,
          -0.07932578772306442,
          0.18594440817832947,
          0.028812916949391365,
          -0.0972120389342308,
          0.1979527771472931,
          0.09165387600660324,
          0.06256726384162903
        ],
        [
          -0.17656829953193665,
          0.03377087414264679,
          0.1940620094537735,
          0.16900132596492767,
          -0.15625926852226257,
          -0.06520827114582062,
          0.1984400451183319,
          -0.1226452961564064,
          0.10206630825996399,
          -0.12720902264118195,
          -0.1789279729127884
        ],
        [
          -0.18635010719299316,
          0.12388626486063004,
          -0.18743062019348145,
          0.029020659625530243,
          -0.02962332032620907,
          -0.001238986267708242,
          -0.12460334599018097,
          0.19446232914924622,
          0.11341190338134766,
          0.14312635362148285,
          0.1697913259267807
        ],
        [
          -0.1826581060886383,
          -0.14222809672355652,
          0.21855159103870392,
          0.051030807197093964,
          0.06788294017314911,
          0.1891167014837265,
          -0.08050871640443802,
          0.13248483836650848,
          0.11987393349409103,
          -0.010196578688919544,
          0.06913895905017853
        ],
        [
          -0.08075349032878876,
          -0.014667331241071224,
          -0.05803826451301575,
          0.06534905731678009,
          -0.10930532962083817,
          0.052086420357227325,
          0.003973501734435558,
          0.1618306040763855,
          -0.08672387897968292,
          0.03231114149093628,
          -0.07955294102430344
        ],
        [
          0.12436424940824509,
          0.09139076620340347,
          -0.19410166144371033,
          0.06760074198246002,
          0.11066678911447525,
          -0.017210975289344788,
          0.07060466706752777,
          0.09611256420612335,
          -0.03450150415301323,
          0.21490053832530975,
          -0.08193272352218628
        ],
        [
          0.19440385699272156,
          0.11825651675462723,
          -0.040900930762290955,
          0.19532138109207153,
          -0.16863124072551727,
          0.19791091978549957,
          0.2121695727109909,
          -0.06996229290962219,
          -0.046254318207502365,
          -0.0671805739402771,
          0.20414520800113678
        ],
        [
          -0.10533444583415985,
          0.206038236618042,
          -0.13859598338603973,
          -0.15694807469844818,
          0.025210117921233177,
          -0.033268921077251434,
          0.12428842484951019,
          -0.156047984957695,
          -0.17398595809936523,
          -0.08340403437614441,
          0.16493697464466095
        ],
        [
          -0.0455407090485096,
          0.1186399906873703,
          0.013195807114243507,
          -0.06177361682057381,
          -0.08503784239292145,
          -0.011467808857560158,
          0.11082903295755386,
          0.08007495105266571,
          0.028867242857813835,
          0.018092602491378784,
          0.17165078222751617
        ],
        [
          0.21117576956748962,
          0.20348738133907318,
          0.044447582215070724,
          0.1391601264476776,
          0.009778953157365322,
          0.12703649699687958,
          0.17007790505886078,
          -0.18164072930812836,
          0.2214880883693695,
          0.2062297761440277,
          0.0927862748503685
        ],
        [
          0.1850327104330063,
          -0.013854359276592731,
          -0.1719065010547638,
          -0.2056908905506134,
          0.1808972805738449,
          -0.113468699157238,
          -0.200912743806839,
          0.12956514954566956,
          -0.10038653016090393,
          0.10912248492240906,
          0.066202312707901
        ],
        [
          0.22236301004886627,
          -0.15568293631076813,
          0.021053459495306015,
          -0.012842780910432339,
          -0.11569239944219589,
          -0.10257518291473389,
          0.12275079637765884,
          0.0334140919148922,
          0.11244949698448181,
          0.1540161371231079,
          0.010995328426361084
        ],
        [
          0.014392600394785404,
          0.07814594358205795,
          0.028982289135456085,
          -0.06573735922574997,
          -0.04461762309074402,
          -0.16660094261169434,
          -0.0727689266204834,
          -0.13640108704566956,
          0.19083988666534424,
          0.22334299981594086,
          0.21130886673927307
        ],
        [
          0.032120343297719955,
          -0.024996740743517876,
          0.14498315751552582,
          0.16329072415828705,
          -0.15012669563293457,
          -0.06008533388376236,
          0.17257481813430786,
          0.2126011699438095,
          0.016909582540392876,
          -0.03248268738389015,
          0.01715744100511074
        ],
        [
          -0.022800682112574577,
          -0.12590865790843964,
          0.0775621086359024,
          0.09389933943748474,
          -0.11910589039325714,
          -0.08236079663038254,
          -0.0020944427233189344,
          0.09661585837602615,
          -0.1296767294406891,
          0.06080228090286255,
          0.11323478817939758
        ],
        [
          0.14659281075000763,
          -0.009104040451347828,
          -0.11747024953365326,
          -0.059834178537130356,
          0.0438862107694149,
          0.0044145602732896805,
          0.036842215806245804,
          0.20586304366588593,
          -0.03004470467567444,
          0.08742769807577133,
          -0.037350140511989594
        ],
        [
          0.007019932381808758,
          0.11351704597473145,
          0.10799016803503036,
          0.12349000573158264,
          -0.009655906818807125,
          -0.0992400124669075,
          0.027488458901643753,
          0.06499185413122177,
          -0.07771864533424377,
          -0.024750685319304466,
          0.002735335612669587
        ],
        [
          0.1746528595685959,
          0.12812325358390808,
          -0.1395712047815323,
          0.034185465425252914,
          0.21290846168994904,
          -0.0015191829297691584,
          0.13873764872550964,
          -0.09995336830615997,
          0.2256583422422409,
          -0.09070681035518646,
          -0.026884650811553
        ],
        [
          0.10977599024772644,
          -0.030074812471866608,
          0.0840214267373085,
          0.19437429308891296,
          -0.17892993986606598,
          0.06831999123096466,
          -0.2076699435710907,
          -0.08041951060295105,
          -0.11683572083711624,
          0.052575062960386276,
          -0.032845087349414825
        ],
        [
          0.14619006216526031,
          0.15298977494239807,
          0.09801928699016571,
          0.07417207211256027,
          0.0995720773935318,
          0.1724824607372284,
          0.017443571239709854,
          0.005241868086159229,
          -0.14987578988075256,
          0.11018326133489609,
          -0.15285371243953705
        ],
        [
          0.17498613893985748,
          0.005959738045930862,
          -0.08507487177848816,
          0.14151374995708466,
          0.14893211424350739,
          -0.1631903052330017,
          -0.0845622643828392,
          -0.05902465432882309,
          -0.11770381778478622,
          -0.000769785838201642,
          -0.11110202968120575
        ],
        [
          0.08260713517665863,
          -0.07003504782915115,
          0.2063407450914383,
          -0.0890016108751297,
          0.09613435715436935,
          0.03241479769349098,
          0.19662301242351532,
          0.01823608949780464,
          -0.02772422879934311,
          0.049147605895996094,
          -0.18419726192951202
        ],
        [
          0.1177443414926529,
          0.010135929100215435,
          0.13024932146072388,
          0.0856037437915802,
          -0.16798704862594604,
          -0.06624308228492737,
          -0.18461322784423828,
          -0.1420391947031021,
          -0.0944109559059143,
          -0.011308453977108002,
          -0.023565756157040596
        ],
        [
          0.02658705599606037,
          -0.11493470519781113,
          -0.08933255821466446,
          -0.10810258984565735,
          0.14676433801651,
          0.18513938784599304,
          0.08400668948888779,
          0.14151345193386078,
          0.0010609915480017662,
          0.15323127806186676,
          -0.05086658149957657
        ],
        [
          -0.06529301404953003,
          -0.08943253010511398,
          0.04097825288772583,
          0.026598257943987846,
          0.19331468641757965,
          -0.05417469143867493,
          0.11092406511306763,
          0.11000695824623108,
          0.2124059498310089,
          0.18621619045734406,
          0.07716313749551773
        ],
        [
          0.2090412825345993,
          -0.08347281813621521,
          -0.15214386582374573,
          0.014536753296852112,
          0.04021255299448967,
          0.22124795615673065,
          0.1934812068939209,
          0.21550895273685455,
          0.06949252635240555,
          0.11268779635429382,
          0.0027937761042267084
        ],
        [
          -0.11118267476558685,
          -0.18324916064739227,
          -0.17004083096981049,
          -0.12432755529880524,
          0.031599778681993484,
          0.09736087173223495,
          -0.09702559560537338,
          0.10161222517490387,
          0.04486580193042755,
          -0.033348698168992996,
          -0.13058729469776154
        ],
        [
          -0.06996869295835495,
          0.10070563107728958,
          0.1653764694929123,
          -0.011311696842312813,
          -0.19141779839992523,
          -0.033278804272413254,
          -0.17777429521083832,
          -0.049678947776556015,
          0.10665001720190048,
          -0.05356386676430702,
          -0.17592258751392365
        ],
        [
          -0.10847217589616776,
          -0.1391594558954239,
          -0.12764544785022736,
          -0.14820021390914917,
          -0.14384092390537262,
          0.03009703755378723,
          0.09284945577383041,
          0.16512860357761383,
          -0.04477361589670181,
          0.04196145012974739,
          -0.14240266382694244
        ],
        [
          0.021858185529708862,
          0.03888513892889023,
          -0.00040056483703665435,
          0.144448921084404,
          -0.1331188678741455,
          0.037756260484457016,
          0.044947829097509384,
          0.004065782763063908,
          0.09495114535093307,
          -0.16103124618530273,
          -0.033676546066999435
        ],
        [
          -0.02998363971710205,
          0.08657969534397125,
          -0.029332855716347694,
          0.10764213651418686,
          0.09361913055181503,
          -0.02159961871802807,
          0.13351263105869293,
          -0.20729997754096985,
          -0.046791285276412964,
          -0.08588705956935883,
          -0.028019199147820473
        ],
        [
          -0.07020013779401779,
          0.19947820901870728,
          0.2113047093153,
          0.06916730850934982,
          0.021291732788085938,
          0.18432965874671936,
          -0.04853292927145958,
          -0.012252561748027802,
          0.06803030520677567,
          0.09076666086912155,
          -0.0963348001241684
        ],
        [
          -0.04176800325512886,
          0.037819650024175644,
          -0.11950214952230453,
          0.05988951772451401,
          -0.015252231620252132,
          0.1227378249168396,
          0.21221643686294556,
          0.21769392490386963,
          0.1749310940504074,
          0.18704122304916382,
          -0.03209128603339195
        ],
        [
          0.01371980644762516,
          -0.005576941184699535,
          0.07083985209465027,
          0.07737620174884796,
          0.09549661725759506,
          -0.0915801152586937,
          0.19572407007217407,
          -0.17099645733833313,
          -0.10241539776325226,
          -0.06943310052156448,
          -0.16709014773368835
        ],
        [
          -0.10196524113416672,
          0.04566451907157898,
          0.19809359312057495,
          -0.12028992921113968,
          0.04293561354279518,
          -0.05295351520180702,
          0.03479925915598869,
          -0.108124278485775,
          0.03626313433051109,
          -0.02188725396990776,
          0.00042346661211922765
        ],
        [
          -0.016769612208008766,
          0.18075565993785858,
          0.12546883523464203,
          0.15377375483512878,
          0.01653074286878109,
          -0.04802893474698067,
          0.21041522920131683,
          -0.10544157028198242,
          0.07293777912855148,
          -0.038418326526880264,
          -0.016538413241505623
        ],
        [
          0.15948165953159332,
          0.12640534341335297,
          -0.013413002714514732,
          -0.13297465443611145,
          -0.00384717364795506,
          0.051726747304201126,
          0.11637669056653976,
          -0.01939755491912365,
          -0.04973623529076576,
          0.0921819806098938,
          -0.10002166032791138
        ],
        [
          0.07700001448392868,
          0.11046574264764786,
          0.20571130514144897,
          0.21240055561065674,
          -0.06795524805784225,
          -0.16136279702186584,
          -0.12857642769813538,
          -0.14884166419506073,
          0.21769212186336517,
          0.12499314546585083,
          0.027289340272545815
        ],
        [
          -0.06118160858750343,
          -0.05017685145139694,
          0.1024484783411026,
          0.16959422826766968,
          -0.0009342728299088776,
          -0.1379125863313675,
          -0.163969486951828,
          0.10282186418771744,
          0.054073985666036606,
          -0.050708625465631485,
          0.09158683568239212
        ],
        [
          0.024374743923544884,
          -0.15020139515399933,
          -0.02292652614414692,
          -0.20700359344482422,
          0.10830540955066681,
          -0.09594378620386124,
          0.12416060268878937,
          -0.16191597282886505,
          -0.06248856335878372,
          0.030697433277964592,
          -0.13525819778442383
        ],
        [
          -0.17424945533275604,
          -0.11278168857097626,
          0.01133573055267334,
          -0.027289321646094322,
          -0.004198757000267506,
          -0.07835265249013901,
          -0.21260866522789001,
          0.0034934149589389563,
          0.17632491886615753,
          -0.16188891232013702,
          0.14147090911865234
        ],
        [
          0.0918022096157074,
          -0.015641851350665092,
          -0.13680128753185272,
          0.09885289520025253,
          0.1224697157740593,
          0.04403892531991005,
          0.10180815309286118,
          -0.008769474923610687,
          -0.12242462486028671,
          0.026664704084396362,
          -0.17345434427261353
        ],
        [
          0.034336935728788376,
          -0.13871940970420837,
          -0.13151004910469055,
          -0.20667150616645813,
          -0.06722250580787659,
          0.17216259241104126,
          -0.09538882225751877,
          -0.011654193513095379,
          -0.069781094789505,
          0.173109769821167,
          -0.018019558861851692
        ],
        [
          -0.17384499311447144,
          -0.17532628774642944,
          0.19803543388843536,
          -0.031682733446359634,
          -0.02757975645363331,
          -0.004602709785103798,
          0.06652498990297318,
          -0.14643403887748718,
          0.14146532118320465,
          -0.004075571428984404,
          0.07983435690402985
        ],
        [
          0.09099213778972626,
          0.12850822508335114,
          -0.14409446716308594,
          -0.15659873187541962,
          0.09304732829332352,
          -0.10016611218452454,
          0.174431711435318,
          -0.013125147670507431,
          -0.14455576241016388,
          -0.18877938389778137,
          -0.15726768970489502
        ],
        [
          -0.014029295183718204,
          -0.037831030786037445,
          -0.0876317098736763,
          -0.022063570097088814,
          -0.08319832384586334,
          -0.14287042617797852,
          -0.05747717246413231,
          0.1710682511329651,
          0.085319384932518,
          -0.17134690284729004,
          0.12797124683856964
        ],
        [
          0.18963603675365448,
          0.0065037840977311134,
          0.1373608112335205,
          -0.10864336043596268,
          -0.07359594851732254,
          0.06142539903521538,
          0.0668574869632721,
          -0.13246804475784302,
          -0.031606525182724,
          0.0703919306397438,
          -0.024122294038534164
        ],
        [
          -0.16101345419883728,
          0.05058535560965538,
          0.1090305894613266,
          0.1404860019683838,
          0.09108250588178635,
          -0.03513125702738762,
          0.03207595273852348,
          0.01145666278898716,
          0.09229619801044464,
          0.21149080991744995,
          0.05601600185036659
        ],
        [
          -0.06497815251350403,
          -0.004313491750508547,
          0.12004169076681137,
          -0.13469646871089935,
          -0.21481004357337952,
          0.12105420231819153,
          0.11480488628149033,
          -0.008386721834540367,
          0.04455728828907013,
          -0.07607592642307281,
          0.025554422289133072
        ],
        [
          -0.0527832955121994,
          0.09284790605306625,
          -0.07534057646989822,
          0.026490408927202225,
          0.11219558119773865,
          0.18505030870437622,
          -0.06469311565160751,
          -0.1836564987897873,
          0.13018299639225006,
          0.16171590983867645,
          -0.04423930123448372
        ],
        [
          -0.06971050798892975,
          -0.05867626145482063,
          -0.1568920910358429,
          -0.14673937857151031,
          -0.02556723728775978,
          0.07095189392566681,
          -0.029878627508878708,
          0.20603018999099731,
          -0.19344763457775116,
          -0.04022565484046936,
          -0.0229572132229805
        ],
        [
          -0.09962370246648788,
          0.026372967287898064,
          -0.11313275247812271,
          -0.05886862426996231,
          -0.15762567520141602,
          -0.02645370177924633,
          0.14412237703800201,
          0.2114972174167633,
          -0.08545581251382828,
          -0.08553104102611542,
          0.22516176104545593
        ],
        [
          0.02378011681139469,
          0.1555505096912384,
          0.18308208882808685,
          0.2049017697572708,
          0.12098199874162674,
          0.04739699512720108,
          -0.03917916491627693,
          0.19615978002548218,
          -0.07331939786672592,
          0.2003372609615326,
          -0.08067264407873154
        ],
        [
          -0.06080323085188866,
          -0.046557385474443436,
          0.10740824043750763,
          0.19942359626293182,
          -0.17181400954723358,
          0.01474947389215231,
          0.15262825787067413,
          -0.20464466512203217,
          0.19474370777606964,
          -0.14963777363300323,
          0.20125587284564972
        ],
        [
          0.1651223599910736,
          0.011649088934063911,
          0.05222303047776222,
          0.05451018735766411,
          -0.0893893912434578,
          0.012099886313080788,
          0.06649012863636017,
          0.011574773117899895,
          -0.10005845874547958,
          -0.1984996646642685,
          -0.16698172688484192
        ],
        [
          -0.1250208616256714,
          -0.06581692397594452,
          0.028309768065810204,
          -0.18198515474796295,
          -0.1905401200056076,
          -0.13466309010982513,
          0.002229508711025119,
          0.0860944390296936,
          -0.03472369164228439,
          0.05123462527990341,
          0.19216768443584442
        ],
        [
          -0.11100362986326218,
          -0.05122341588139534,
          -0.05672690272331238,
          -0.03032095357775688,
          -0.1356913298368454,
          0.06058549880981445,
          -0.04107578843832016,
          0.19301313161849976,
          0.0354202501475811,
          0.07222133129835129,
          0.15693576633930206
        ],
        [
          0.06690040230751038,
          0.09045865386724472,
          0.13972610235214233,
          0.07073627412319183,
          0.06191845238208771,
          -0.15424132347106934,
          0.1979563981294632,
          -0.15628492832183838,
          0.0003969420795328915,
          -0.011396093294024467,
          -0.036667097359895706
        ],
        [
          0.00590730644762516,
          -0.14628753066062927,
          0.099979929625988,
          -0.1443600356578827,
          0.1322447955608368,
          -0.17379510402679443,
          0.11199095845222473,
          0.17631572484970093,
          0.19577725231647491,
          0.12363817542791367,
          0.17851758003234863
        ],
        [
          -0.14410275220870972,
          -0.0765204057097435,
          -0.17808538675308228,
          -0.008671456016600132,
          0.1326199173927307,
          0.06489963084459305,
          -0.06165172532200813,
          0.14292007684707642,
          0.14904029667377472,
          0.02686750888824463,
          0.1479114592075348
        ],
        [
          0.04327889904379845,
          -0.13989807665348053,
          0.1201925054192543,
          6.574916915269569e-05,
          -0.10678108036518097,
          0.22001852095127106,
          0.16621331870555878,
          -0.16208621859550476,
          0.12349642068147659,
          0.02775614522397518,
          0.011100676842033863
        ],
        [
          0.07865969091653824,
          -0.17596374452114105,
          -0.029170533642172813,
          -0.04360365867614746,
          0.04929128661751747,
          0.10068154335021973,
          0.059415798634290695,
          -0.004577546380460262,
          0.004099598154425621,
          -0.11822573095560074,
          -0.1986733227968216
        ],
        [
          -0.03039221651852131,
          0.09753353893756866,
          -0.11424219608306885,
          0.0287141352891922,
          -0.14052437245845795,
          -0.03799043223261833,
          -0.06478403508663177,
          0.03800354525446892,
          0.02270200476050377,
          0.19570566713809967,
          0.19281020760536194
        ],
        [
          0.13115735352039337,
          -0.11896730214357376,
          0.07909173518419266,
          0.10602568089962006,
          0.09992019832134247,
          0.10153274983167648,
          0.18607290089130402,
          -0.07399734854698181,
          -0.19953063130378723,
          0.03755003213882446,
          0.004311086609959602
        ],
        [
          -0.0004635478544514626,
          -0.09353931248188019,
          0.20583024621009827,
          0.02356870099902153,
          0.12640629708766937,
          -0.07793591916561127,
          -0.14317581057548523,
          -0.014405340887606144,
          0.025649210438132286,
          -0.013005123473703861,
          0.08027849346399307
        ],
        [
          0.17111748456954956,
          0.19361433386802673,
          -0.018698684871196747,
          -0.04196253418922424,
          0.07350418716669083,
          0.060883451253175735,
          -0.11842890828847885,
          0.15519532561302185,
          -0.1346432864665985,
          -0.08145114034414291,
          0.14539070427417755
        ],
        [
          0.08092611283063889,
          0.18235576152801514,
          0.2109808772802353,
          0.009182953275740147,
          0.15552660822868347,
          0.2148769497871399,
          -0.0163180660456419,
          0.1179758608341217,
          -0.07886093109846115,
          0.14477403461933136,
          -0.006844834890216589
        ],
        [
          0.06783505529165268,
          0.08327945321798325,
          -0.06121740862727165,
          0.06134799122810364,
          -0.1202586442232132,
          -0.04867042973637581,
          -0.09493763744831085,
          -0.12261325120925903,
          0.15090511739253998,
          -0.08873695880174637,
          -0.17679570615291595
        ],
        [
          -0.16070982813835144,
          -0.12426410615444183,
          -0.06868675351142883,
          -0.20168878138065338,
          -0.1573140025138855,
          -0.08864006400108337,
          -0.11604258418083191,
          -0.20515793561935425,
          -0.1305658221244812,
          0.1312190741300583,
          -0.008600115776062012
        ],
        [
          0.03954227641224861,
          0.2266036570072174,
          -0.10649896413087845,
          -0.0059756808914244175,
          -0.0689174085855484,
          -0.050869669765233994,
          0.2083788514137268,
          0.05390932783484459,
          -0.1702672243118286,
          -0.033920034766197205,
          0.21437855064868927
        ],
        [
          0.06345204263925552,
          0.10654924064874649,
          0.1990227997303009,
          0.18643920123577118,
          -0.008421285077929497,
          -0.07448936253786087,
          -0.1292589008808136,
          0.20361830294132233,
          -0.13086768984794617,
          0.19072428345680237,
          -0.12361129373311996
        ],
        [
          -0.13040278851985931,
          0.20429474115371704,
          0.09292150288820267,
          -0.16849246621131897,
          0.17623105645179749,
          0.21619218587875366,
          0.15853248536586761,
          0.17513243854045868,
          -0.16451969742774963,
          0.2075280398130417,
          0.09728942811489105
        ],
        [
          0.1582041233778,
          -0.0982319638133049,
          0.1162787675857544,
          0.03464668616652489,
          0.07222525775432587,
          0.08311380445957184,
          0.0024050469510257244,
          -0.110460065305233,
          0.010610152035951614,
          0.03753669932484627,
          -0.07788259536027908
        ],
        [
          0.014169945381581783,
          0.020985137671232224,
          -0.09359391778707504,
          0.1855616420507431,
          -0.00786301027983427,
          -0.18124330043792725,
          0.07940954715013504,
          0.11726018786430359,
          -0.16326022148132324,
          0.14315788447856903,
          -0.18125295639038086
        ],
        [
          0.01718112640082836,
          -0.12417478859424591,
          0.15925295650959015,
          -0.14370527863502502,
          -0.138413205742836,
          -0.05561727657914162,
          0.18788759410381317,
          0.0944393128156662,
          -0.1155606210231781,
          0.19809338450431824,
          -0.00442403182387352
        ],
        [
          0.12284918129444122,
          -0.06705772876739502,
          0.04192245751619339,
          -0.104902483522892,
          0.148745596408844,
          -0.07933826744556427,
          -0.17899087071418762,
          -0.18318648636341095,
          0.20029540359973907,
          -0.18698757886886597,
          -0.09981246292591095
        ],
        [
          0.10538598895072937,
          -0.12544523179531097,
          0.20676934719085693,
          -0.15472759306430817,
          -0.04551165923476219,
          0.016752349212765694,
          0.18856292963027954,
          -0.15180043876171112,
          -0.1291716992855072,
          0.00048699474427849054,
          0.007526544388383627
        ],
        [
          -0.08917618542909622,
          -0.059538815170526505,
          -0.041995640844106674,
          0.11839036643505096,
          -0.0389588437974453,
          0.16264328360557556,
          0.0031155080068856478,
          0.12275677174329758,
          0.04931473359465599,
          -0.027484731748700142,
          -0.015366056002676487
        ],
        [
          -0.033688973635435104,
          0.1837843507528305,
          0.18047119677066803,
          0.07214707136154175,
          -0.07452528923749924,
          -0.05841252952814102,
          -0.19490008056163788,
          0.045084670186042786,
          0.027092350646853447,
          -0.1727946400642395,
          0.11269137263298035
        ],
        [
          -0.08183453977108002,
          0.11839652806520462,
          0.1255376636981964,
          -0.14132772386074066,
          0.07393813878297806,
          0.08125912398099899,
          -0.0349302813410759,
          -0.06938575953245163,
          0.005829045083373785,
          -0.20682471990585327,
          0.018158042803406715
        ],
        [
          0.07833155244588852,
          0.04051835089921951,
          0.15520162880420685,
          -0.1706775277853012,
          0.11958316713571548,
          -0.026640349999070168,
          0.16283459961414337,
          0.1802152395248413,
          0.17763040959835052,
          -0.043748918920755386,
          -0.06583725661039352
        ],
        [
          0.03775693103671074,
          -0.0808001384139061,
          0.17848891019821167,
          -0.13612662255764008,
          -0.16027726233005524,
          0.20095451176166534,
          0.0055607277899980545,
          0.18783892691135406,
          -0.12745794653892517,
          -0.1175122782588005,
          0.1470247060060501
        ],
        [
          -0.05184398591518402,
          -0.004133559763431549,
          -0.12235821038484573,
          -0.008105364628136158,
          -0.0994584858417511,
          -0.10792763531208038,
          -0.054607342928647995,
          0.030707785859704018,
          -0.11229207366704941,
          0.056468233466148376,
          0.0445127971470356
        ],
        [
          -0.07169568538665771,
          -0.008782309480011463,
          0.14878036081790924,
          0.0920058861374855,
          0.18398313224315643,
          0.1423090398311615,
          0.15727384388446808,
          0.07695934176445007,
          0.17536184191703796,
          -0.17327740788459778,
          0.027508458122611046
        ],
        [
          -0.0010548703139647841,
          -0.029621997848153114,
          0.13547421991825104,
          0.06257519125938416,
          -0.03421160951256752,
          0.13238085806369781,
          -0.014067293144762516,
          0.168827623128891,
          0.03918282315135002,
          0.06234365329146385,
          -0.0750148594379425
        ],
        [
          -0.19122134149074554,
          -0.13094115257263184,
          0.05036133527755737,
          0.06906204670667648,
          -0.1796504706144333,
          -0.008633260615170002,
          -0.19451633095741272,
          0.08333868533372879,
          -0.17513911426067352,
          0.15652242302894592,
          0.18203024566173553
        ],
        [
          0.16170154511928558,
          0.22058217227458954,
          -0.1668936014175415,
          0.10812195390462875,
          0.1165485605597496,
          0.11529248207807541,
          0.09836716949939728,
          -0.037392228841781616,
          -0.08529303967952728,
          -0.1074909120798111,
          0.16422855854034424
        ],
        [
          0.1464650183916092,
          -0.09861438721418381,
          0.10956937074661255,
          -0.08356644213199615,
          -0.1640784591436386,
          0.08952148258686066,
          -0.009737215004861355,
          0.12518756091594696,
          -0.05619268864393234,
          0.06252297013998032,
          -0.058126892894506454
        ],
        [
          0.10642842203378677,
          -0.07831143587827682,
          -0.10208005458116531,
          0.07317240536212921,
          -0.19804774224758148,
          -0.16692723333835602,
          0.010404709726572037,
          -0.11301577091217041,
          -0.16357003152370453,
          -0.026881489902734756,
          0.012887480668723583
        ],
        [
          -0.05416133627295494,
          0.034274980425834656,
          0.028195170685648918,
          0.07084779441356659,
          0.04626333713531494,
          0.21911022067070007,
          -0.13716846704483032,
          0.1361207515001297,
          0.20360714197158813,
          0.07297611981630325,
          -0.19534777104854584
        ],
        [
          0.1152113750576973,
          -0.0806344598531723,
          -0.02811545692384243,
          0.19785310328006744,
          -0.2006906270980835,
          -0.11760982871055603,
          -0.07016146928071976,
          -0.17974413931369781,
          -0.007627195678651333,
          0.016045954078435898,
          0.012424938380718231
        ],
        [
          -0.18335483968257904,
          0.1822921186685562,
          0.02232246659696102,
          0.07505284249782562,
          -0.17472617328166962,
          -0.14637057483196259,
          0.15217097103595734,
          0.17215818166732788,
          -0.07738048583269119,
          0.10549384355545044,
          0.10536400973796844
        ],
        [
          0.13697829842567444,
          0.15265090763568878,
          -0.010003658942878246,
          0.21571886539459229,
          0.008672911673784256,
          -0.036477815359830856,
          0.028620582073926926,
          -0.046946700662374496,
          -0.06680668145418167,
          0.14508973062038422,
          -0.14307911694049835
        ],
        [
          -0.12550637125968933,
          -0.10255125164985657,
          -0.026629380881786346,
          0.04925938695669174,
          0.05063553899526596,
          -0.14592351019382477,
          0.11565031111240387,
          -0.11530188471078873,
          0.16109485924243927,
          -0.023407846689224243,
          -0.06626231223344803
        ],
        [
          -0.15754730999469757,
          -0.17360934615135193,
          -0.09963162988424301,
          0.11225227266550064,
          0.1067551001906395,
          -0.010271015577018261,
          0.08013562113046646,
          -0.1963176727294922,
          -0.02648315764963627,
          0.0642317607998848,
          -0.013166112825274467
        ],
        [
          0.005249803885817528,
          0.08947944641113281,
          -0.1385525017976761,
          -0.07711446285247803,
          -0.05945271998643875,
          0.10357958823442459,
          -0.08092667162418365,
          -0.11066799610853195,
          0.026312202215194702,
          0.19142824411392212,
          -0.1338302344083786
        ],
        [
          -0.031493548303842545,
          -0.009932163171470165,
          0.18946218490600586,
          0.21146921813488007,
          0.1267896592617035,
          -0.15588480234146118,
          0.13887032866477966,
          -0.052435461431741714,
          0.18708749115467072,
          0.0632178783416748,
          0.13701064884662628
        ],
        [
          -0.02266121841967106,
          -0.1405470073223114,
          -0.1777171492576599,
          0.12630462646484375,
          0.1225554570555687,
          -0.16642962396144867,
          0.05998308211565018,
          -0.05406187102198601,
          -0.15392111241817474,
          0.11372268199920654,
          -0.15753330290317535
        ],
        [
          -0.057884201407432556,
          -0.03509640321135521,
          0.1435750126838684,
          -0.027765320613980293,
          -0.0819416269659996,
          -0.15872690081596375,
          0.12085705250501633,
          0.1959857940673828,
          0.16839301586151123,
          -0.03326364606618881,
          0.13979512453079224
        ],
        [
          0.05910216271877289,
          -0.11425384134054184,
          -0.009106178767979145,
          0.13081450760364532,
          -0.18816539645195007,
          -0.037599820643663406,
          0.17580904066562653,
          -0.13751664757728577,
          -0.11669424176216125,
          0.02818724699318409,
          -0.04984762519598007
        ],
        [
          -0.12041368335485458,
          0.10574546456336975,
          -0.19842122495174408,
          -0.19962620735168457,
          0.17753441631793976,
          0.1980140060186386,
          -0.14905379712581635,
          0.034550752490758896,
          0.026791485026478767,
          -0.18440742790699005,
          0.10794774442911148
        ],
        [
          -0.04880228266119957,
          0.12519805133342743,
          0.14959651231765747,
          -0.018596667796373367,
          0.0882604718208313,
          0.09793932735919952,
          -0.05621865391731262,
          -0.1313042938709259,
          0.1373397707939148,
          0.05979118496179581,
          -0.02573224902153015
        ],
        [
          -0.057667069137096405,
          -0.10840848833322525,
          -0.03285731375217438,
          -0.03446820378303528,
          -0.1563597023487091,
          -0.12015226483345032,
          0.0424138680100441,
          0.05042628198862076,
          -0.1226792186498642,
          -0.0777212381362915,
          0.034221917390823364
        ],
        [
          0.1447533369064331,
          0.0010544644901528955,
          -0.019791992381215096,
          -0.0472114235162735,
          -0.07576262950897217,
          0.05442279949784279,
          0.04596893489360809,
          -0.020034868270158768,
          0.05723876506090164,
          -0.16782177984714508,
          -0.18478982150554657
        ],
        [
          -0.007707775570452213,
          -0.15421919524669647,
          -0.0948902815580368,
          0.009113937616348267,
          -0.2022962123155594,
          0.16639572381973267,
          -0.10363972187042236,
          0.1678941249847412,
          -0.17335166037082672,
          -0.18475359678268433,
          0.12294866889715195
        ],
        [
          -0.12708459794521332,
          0.16763517260551453,
          -0.16519537568092346,
          0.12428245693445206,
          0.06999190896749496,
          0.03583798184990883,
          0.19001726806163788,
          -0.17908388376235962,
          -0.1162661537528038,
          -0.1040775328874588,
          0.0692087933421135
        ],
        [
          0.17859302461147308,
          -0.091521255671978,
          -0.1500670313835144,
          0.11372608691453934,
          -0.05154278129339218,
          -0.08122652769088745,
          0.19187572598457336,
          -0.1813506782054901,
          0.08374970406293869,
          0.20946931838989258,
          0.07877497375011444
        ],
        [
          -0.08792709559202194,
          0.1346243917942047,
          0.16740164160728455,
          -0.09956984966993332,
          -0.19504937529563904,
          -0.09396054595708847,
          -0.1292199045419693,
          -0.20609219372272491,
          0.1728394776582718,
          0.17688244581222534,
          -0.1444462537765503
        ],
        [
          -0.20424576103687286,
          0.1940334141254425,
          -0.13425375521183014,
          0.1297283172607422,
          -0.15053141117095947,
          -0.15038785338401794,
          -0.06140236556529999,
          -0.12414122372865677,
          0.10194072127342224,
          0.14803314208984375,
          0.17713433504104614
        ],
        [
          0.13905076682567596,
          -0.14475391805171967,
          0.0013770643854513764,
          0.11277886480093002,
          0.16446854174137115,
          0.05320798233151436,
          0.1850709319114685,
          0.030151475220918655,
          -0.12685026228427887,
          0.19055168330669403,
          -0.013632474467158318
        ],
        [
          0.14221428334712982,
          0.2023821473121643,
          -0.01657751575112343,
          0.2154397964477539,
          -0.034055788069963455,
          -0.055916473269462585,
          -0.15898361802101135,
          0.13590897619724274,
          -0.014546265825629234,
          0.010573814623057842,
          0.0941835567355156
        ],
        [
          -0.11163811385631561,
          -0.0479012057185173,
          -0.026687387377023697,
          0.12419696152210236,
          0.12596474587917328,
          0.19706106185913086,
          -0.1837378740310669,
          -0.0495157353579998,
          -0.09793596714735031,
          -0.08045370876789093,
          -0.03831052407622337
        ],
        [
          -0.09923557937145233,
          0.10549181699752808,
          -0.13977555930614471,
          0.03871876373887062,
          -0.11402610689401627,
          -0.06939782202243805,
          -0.11298937350511551,
          -0.07294194400310516,
          -0.04358944669365883,
          0.12212403863668442,
          -0.09445732831954956
        ],
        [
          0.00442507304251194,
          0.07032473385334015,
          0.18837764859199524,
          -0.14116187393665314,
          0.0946139395236969,
          -0.17101237177848816,
          -0.14562933146953583,
          0.12097743153572083,
          -0.11684446781873703,
          -0.16839690506458282,
          0.2295021116733551
        ],
        [
          -0.015114469453692436,
          0.06375155597925186,
          -0.17427541315555573,
          0.15243758261203766,
          -0.11385761201381683,
          0.20299425721168518,
          -0.08521709591150284,
          0.16583247482776642,
          -0.16804233193397522,
          -0.16133596003055573,
          0.19482600688934326
        ],
        [
          -0.18619927763938904,
          0.19116489589214325,
          0.14806632697582245,
          0.11883770674467087,
          -0.12010028213262558,
          -0.02275126613676548,
          -0.10477644950151443,
          0.028065817430615425,
          0.18221205472946167,
          0.16183018684387207,
          -0.20007489621639252
        ],
        [
          0.17836666107177734,
          -0.060068197548389435,
          0.08603180199861526,
          0.04019981995224953,
          -0.06318574398756027,
          0.07587144523859024,
          -0.09630541503429413,
          -0.06842722743749619,
          -0.20394934713840485,
          0.002631929237395525,
          0.17117948830127716
        ],
        [
          -0.08844808489084244,
          -0.08829691261053085,
          0.09658047556877136,
          0.21581311523914337,
          -0.1600007712841034,
          0.005685337353497744,
          0.07351735234260559,
          0.09812342375516891,
          -0.1087743490934372,
          0.12995563447475433,
          0.20694348216056824
        ],
        [
          0.06154587119817734,
          0.145909383893013,
          -0.1933792680501938,
          0.12411117553710938,
          0.018260493874549866,
          0.049012988805770874,
          0.11049126833677292,
          0.038915857672691345,
          0.0674830973148346,
          -0.15169960260391235,
          -0.08730952441692352
        ],
        [
          0.0065888394601643085,
          -0.09801581501960754,
          -0.1554671823978424,
          0.12230078130960464,
          0.021481478586792946,
          0.14379605650901794,
          -0.06862049549818039,
          -0.16728518903255463,
          -0.15043792128562927,
          0.009085455909371376,
          -0.19774755835533142
        ],
        [
          -0.19196335971355438,
          0.16575022041797638,
          0.0575055368244648,
          -0.18847399950027466,
          0.07425220310688019,
          -0.12392716854810715,
          0.07480263710021973,
          -0.12471162527799606,
          0.056251171976327896,
          -0.09006945788860321,
          -0.10838582366704941
        ],
        [
          -0.0730661004781723,
          0.05224526301026344,
          -0.20030862092971802,
          0.03616154193878174,
          0.13045872747898102,
          0.05536779761314392,
          -0.054037079215049744,
          0.16083133220672607,
          -0.1329117715358734,
          -0.19357967376708984,
          -0.02871932089328766
        ],
        [
          -0.1684504896402359,
          -0.09166060388088226,
          -0.10420295596122742,
          -0.047138698399066925,
          0.10557320713996887,
          -0.15264254808425903,
          -0.03917497768998146,
          -0.19721050560474396,
          -0.1512131541967392,
          -0.17402710020542145,
          -0.19478848576545715
        ]
      ],
      "b": [
        -0.0011567823821678758,
        0.0,
        -0.0054508596658706665,
        0.006074321921914816,
        0.019725356251001358,
        0.022142915055155754,
        -0.004935235716402531,
        0.01624254137277603,
        0.012488453648984432,
        -0.000735508743673563,
        0.01186117623001337,
        0.013354148715734482,
        0.0,
        -0.012225141748785973,
        0.01805811934173107,
        -0.0026021525263786316,
        0.013659973628818989,
        0.016910215839743614,
        0.01582592912018299,
        0.02450287714600563,
        0.0020742961205542088,
        0.020567215979099274,
        0.025235584005713463,
        -0.009171073324978352,
        0.020642220973968506,
        -0.0006667195120826364,
        0.019293323159217834,
        -0.0005212104879319668,
        0.02583402767777443,
        0.017529821023344994,
        0.01789254881441593,
        0.0,
        0.012814845889806747,
        -0.003033606568351388,
        -0.017447564750909805,
        0.0,
        0.011075381189584732,
        0.012768466025590897,
        0.008884136565029621,
        0.02569865621626377,
        0.003944238182157278,
        0.023658767342567444,
        0.017171254381537437,
        -0.0007221661508083344,
        0.0,
        -0.006272229831665754,
        -0.0039825718849897385,
        0.0,
        0.013084286823868752,
        0.0,
        0.004096183925867081,
        -0.002701778197661042,
        0.015122802928090096,
        0.022601816803216934,
        0.008884827606379986,
        0.0,
        0.02374916709959507,
        0.013236511498689651,
        -0.00039175068377517164,
        0.004581538960337639,
        0.01686588115990162,
        -0.009968877770006657,
        0.01836819015443325,
        -0.0008182403398677707,
        -0.009161264635622501,
        0.01934937760233879,
        -0.0048516481183469296,
        0.012593541294336319,
        -0.014272423461079597,
        0.0010748920030891895,
        0.025111820548772812,
        0.014157292433083057,
        0.0053768521174788475,
        0.0,
        0.02489280328154564,
        0.013703899458050728,
        0.017142105847597122,
        0.014303048141300678,
        0.003372584003955126,
        0.0212960634380579,
        -0.004723669495433569,
        0.02423848770558834,
        0.02116568759083748,
        0.0052702100947499275,
        0.002180180512368679,
        0.017882008105516434,
        0.008813416585326195,
        0.0,
        0.012542890384793282,
        0.014199316501617432,
        0.006839868612587452,
        0.02623453177511692,
        -0.01059238612651825,
        0.0,
        0.012643568217754364,
        0.0020234559196978807,
        0.019633222371339798,
        0.027129055932164192,
        0.005050553008913994,
        0.0,
        0.008161967620253563,
        0.014831758104264736,
        0.0,
        0.0036427280865609646,
        0.0030534518882632256,
        0.0,
        0.0010081871878355742,
        0.0,
        0.00962363462895155,
        0.0,
        0.0,
        0.015804965049028397,
        -0.00967118889093399,
        -0.010379613377153873,
        0.014428372494876385,
        0.015671921893954277,
        0.0,
        0.0,
        0.026879433542490005,
        0.013170048594474792,
        2.2397993234335445e-05,
        -0.0042016347870230675,
        0.019454069435596466,
        0.001289745094254613,
        0.0,
        0.0,
        0.0,
        0.0
      ]
    },
    {
      "W": [
        [
          0.023890143260359764,
          0.024403970688581467,
          -0.019825417548418045,
          0.09430187940597534,
          0.035428617149591446,
          -0.05760037153959274,
          -0.12019947916269302,
          0.016238629817962646,
          0.032972827553749084,
          -0.09509198367595673,
          -0.12251696735620499,
          0.009581189602613449,
          0.12211189419031143,
          0.10012271255254745,
          0.008400696329772472,
          0.15360933542251587,
          0.023975355550646782,
          -0.13513104617595673,
          -0.13403163850307465,
          0.13706210255622864,
          0.0602678544819355,
          -0.12556001543998718,
          0.16546857357025146,
          0.16334305703639984,
          -0.00777500169351697,
          0.05296507105231285,
          -0.14605239033699036,
          0.026387346908450127,
          -0.025968145579099655,
          0.07592945545911789,
          -0.1348918229341507,
          -0.14271773397922516,
          0.11236424744129181,
          0.07573779672384262,
          -0.07220818102359772,
          -0.07674600929021835,
          0.04233263432979584,
          0.12301856279373169,
          -0.07501483708620071,
          0.1303529143333435,
          0.02953413501381874,
          0.056579072028398514,
          0.09307999163866043,
          -0.074595607817173,
          0.08347127586603165,
          -0.018764007836580276,
          -0.06518445909023285,
          0.11453418433666229,
          0.13725648820400238,
          -0.006270905956625938,
          -0.018117109313607216,
          -0.07550065964460373,
          0.01716749370098114,
          0.04665829986333847,
          0.14910845458507538,
          -0.04894793778657913,
          -0.13379059731960297,
          0.070255808532238,
          0.15641716122627258,
          0.15271234512329102,
          0.031373441219329834,
          0.005874986760318279,
          -0.06989075988531113,
          0.08316730707883835,
          -0.05400657653808594,
          0.1282416433095932,
          -0.13704614341259003,
          0.04774627834558487,
          -0.10268782079219818,
          -0.026864834129810333,
          0.008571036159992218,
          -0.06136399880051613,
          -0.14268352091312408,
          0.03255573287606239,
          -0.07245562970638275,
          0.05931814759969711,
          -0.04638183116912842,
          0.10807283222675323,
          -0.020162779837846756,
          0.09920232743024826,
          -0.03158503770828247,
          0.05331824719905853,
          -0.04164841026067734,
          0.02192324586212635,
          0.026422550901770592,
          0.07806462794542313,
          -0.011708232574164867,
          -0.10308042913675308,
          -0.08146408945322037,
          0.1521320641040802,
          -0.012478363700211048,
          0.09812717139720917,
          0.02306227572262287,
          0.024753516539931297,
          0.060470666736364365,
          0.10808917880058289,
          0.14013341069221497,
          0.12267614156007767,
          0.15139541029930115,
          -0.003760218620300293,
          0.03258180990815163,
          -0.13949957489967346,
          -0.02202039584517479,
          -0.14523498713970184,
          -0.04614010825753212,
          0.1468743234872818,
          0.05945126712322235,
          -0.09355796873569489,
          -0.06526170670986176,
          -0.027575422078371048,
          0.046216826885938644,
          0.006083846092224121,
          0.06349606812000275,
          -0.08021190762519836,
          -0.1217418909072876,
          0.1498698592185974,
          -0.03562463819980621,
          -0.13558556139469147,
          -0.08537363260984421,
          0.0839102566242218,
          0.04344573989510536,
          -0.04116326943039894,
          0.09967347234487534,
          -0.05096134915947914,
          -0.11591745167970657,
          -0.14507238566875458,
          -0.06329598277807236,
          0.06652642041444778
        ],
        [
          0.14790897071361542,
          0.1433507800102234,
          -0.1440165489912033,
          0.0046151974238455296,
          -0.034661632031202316,
          0.10575355589389801,
          -0.04502898082137108,
          -0.01567409373819828,
          0.08488065749406815,
          0.1024274006485939,
          -0.1095033586025238,
          -0.08284205943346024,
          -0.042212750762701035,
          0.051743801683187485,
          0.059134554117918015,
          0.1377711147069931,
          -0.013621879741549492,
          -0.10082648694515228,
          -0.05900849029421806,
          0.17146097123622894,
          0.1400250494480133,
          0.008599884808063507,
          0.03233902156352997,
          0.15192978084087372,
          0.15398366749286652,
          -0.08721954375505447,
          0.13302302360534668,
          -0.11242513358592987,
          0.02964955009520054,
          0.04154595732688904,
          0.12029676139354706,
          -0.06760759651660919,
          0.11895331740379333,
          -0.08571388572454453,
          0.02023673616349697,
          0.024169621989130974,
          -0.06871861964464188,
          -0.02375541627407074,
          -0.04327978566288948,
          0.09325390309095383,
          0.17321984469890594,
          -0.09000040590763092,
          0.012337111867964268,
          0.0679963231086731,
          0.11519839614629745,
          0.08552130311727524,
          -0.06565253436565399,
          0.11885500699281693,
          -0.04330591857433319,
          -0.12013140320777893,
          0.12790150940418243,
          -0.017104199156165123,
          0.11848542094230652,
          0.16415777802467346,
          -0.11552102863788605,
          0.08394716680049896,
          -0.10457856953144073,
          0.16084037721157074,
          0.046047989279031754,
          -0.020507510751485825,
          -0.11503703892230988,
          -0.03131067752838135,
          0.14146152138710022,
          -0.007408658508211374,
          0.07458990067243576,
          -0.041956380009651184,
          0.11780735105276108,
          -0.1275244802236557,
          -0.019174935296177864,
          -0.06598779559135437,
          0.12054351717233658,
          0.12005546689033508,
          -0.08214550465345383,
          0.018392197787761688,
          0.03731656074523926,
          -0.09732427448034286,
          -0.022154049947857857,
          0.05893343687057495,
          -0.12726718187332153,
          -0.04590875282883644,
          -0.14354461431503296,
          0.11765389889478683,
          0.04280329495668411,
          -0.10916434973478317,
          -0.0425962470471859,
          -0.01888018660247326,
          -0.0743069052696228,
          0.05486265569925308,
          0.11340996623039246,
          0.16463863849639893,
          -0.09500384330749512,
          -0.008367959409952164,
          0.12872429192066193,
          0.050871919840574265,
          -0.08683564513921738,
          0.06134798377752304,
          0.07372284680604935,
          0.11519630253314972,
          0.14423894882202148,
          0.13481366634368896,
          -0.1273278295993805,
          -0.022377848625183105,
          0.03978143259882927,
          -0.06989103555679321,
          0.07896720618009567,
          0.03979712724685669,
          0.038918446749448776,
          0.12624409794807434,
          -0.09620201587677002,
          0.09046658128499985,
          -0.0025068367831408978,
          0.06952214986085892,
          -0.10162393003702164,
          0.03885158151388168,
          0.04656307399272919,
          0.08552315086126328,
          0.013864416629076004,
          -0.0236415546387434,
          -0.05711924284696579,
          0.1328335851430893,
          0.07075636088848114,
          -0.014051884412765503,
          -0.04381188377737999,
          0.07491925358772278,
          -0.0029243447352200747,
          0.0565057173371315,
          0.02985265478491783,
          -0.07156303524971008
        ],
        [
          -0.014208863489329815,
          0.10605072230100632,
          0.14169950783252716,
          0.008501464501023293,
          -0.024368762969970703,
          0.09369060397148132,
          0.11785995215177536,
          0.04292465001344681,
          0.004756439011543989,
          0.12735484540462494,
          -0.11374729871749878,
          -0.11976870149374008,
          -0.029570069164037704,
          -0.10981881618499756,
          0.07199190557003021,
          -0.06045356020331383,
          0.016448859125375748,
          -0.0557180792093277,
          0.04925280436873436,
          -0.10085863620042801,
          -0.10698658227920532,
          0.11339765787124634,
          0.11586292833089828,
          0.05358570069074631,
          0.028669172897934914,
          -0.03682376444339752,
          -0.10682141035795212,
          -0.12176236510276794,
          0.03474070504307747,
          0.03002335876226425,
          0.054980695247650146,
          -0.052552226930856705,
          -0.07807435095310211,
          -0.05113060027360916,
          0.14914661645889282,
          0.03747415915131569,
          0.05762351304292679,
          0.13946890830993652,
          0.15420624613761902,
          -0.1113550215959549,
          -0.0808488056063652,
          0.013286729343235493,
          -0.04789015278220177,
          0.08168581873178482,
          -0.12585517764091492,
          -0.03669070079922676,
          -0.04772916063666344,
          -0.018204404041171074,
          -0.13492120802402496,
          -0.11421810835599899,
          -0.01656646840274334,
          0.030251270160079002,
          -0.0018406504532322288,
          -0.02309221401810646,
          -0.0026985183358192444,
          0.14120091497898102,
          0.14742858707904816,
          -0.11616756021976471,
          0.002742984564974904,
          -0.10460110753774643,
          0.16142065823078156,
          0.14754480123519897,
          -0.020950105041265488,
          0.020367732271552086,
          -0.10492666065692902,
          0.11329472064971924,
          -0.08510664105415344,
          0.09193027019500732,
          0.0509616956114769,
          0.07273158431053162,
          -0.05431347340345383,
          0.04243874177336693,
          -0.023096909746527672,
          -0.0065881297923624516,
          -0.07520824670791626,
          0.05091732367873192,
          0.05548437684774399,
          0.13983111083507538,
          -0.03755522519350052,
          0.0029033080209046602,
          -0.10051734745502472,
          -0.005782211199402809,
          0.13516981899738312,
          -0.05465177074074745,
          -0.11298402398824692,
          0.021672135218977928,
          0.01056467741727829,
          -0.08070017397403717,
          -0.06205269321799278,
          0.08951303362846375,
          0.08370877057313919,
          0.09143664687871933,
          0.0798625722527504,
          -0.026201024651527405,
          -0.10875922441482544,
          -0.08770846575498581,
          -0.10906172543764114,
          4.3689033191185445e-05,
          0.1450435221195221,
          0.040157001465559006,
          -0.049787167459726334,
          0.15442253649234772,
          -0.08639222383499146,
          0.05512169748544693,
          0.1304328590631485,
          0.1377662718296051,
          0.10423868894577026,
          -0.07978976517915726,
          0.10773849487304688,
          0.10982267558574677,
          0.021201731637120247,
          -0.029848137870430946,
          -0.055002350360155106,
          -0.0916416123509407,
          -0.07830841094255447,
          0.12506814301013947,
          0.13903559744358063,
          0.1390780806541443,
          0.04305529221892357,
          0.13727645576000214,
          -0.06944743543863297,
          0.11717304587364197,
          0.09064757078886032,
          0.06412743777036667,
          -0.08436723053455353,
          -0.0181889645755291,
          -0.14145854115486145,
          -0.12418480962514877
        ],
        [
          0.021191749721765518,
          0.13717232644557953,
          -0.005688781850039959,
          -0.06347629427909851,
          -0.08422049880027771,
          -0.14692041277885437,
          0.14933378994464874,
          -0.13206486403942108,
          -0.0661216527223587,
          0.09028926491737366,
          -0.13304251432418823,
          0.05160190910100937,
          -0.050662390887737274,
          -0.0834074541926384,
          -0.15219111740589142,
          -0.054662708193063736,
          -0.04953579232096672,
          -0.11242041736841202,
          0.12512671947479248,
          0.01228751428425312,
          -0.02452091872692108,
          -0.03777514025568962,
          0.11223454028367996,
          0.0521504171192646,
          -0.12371580302715302,
          0.0540313646197319,
          -0.04005478322505951,
          -0.0067680939100682735,
          0.10221679508686066,
          -0.05922771990299225,
          -0.15022426843643188,
          0.07371526956558228,
          -0.04404829069972038,
          0.10078733414411545,
          -0.10312545299530029,
          0.11418139189481735,
          -0.0842786580324173,
          -0.09934721887111664,
          -0.006439044140279293,
          0.005602823570370674,
          -0.1377299576997757,
          -0.13059094548225403,
          -0.09626790881156921,
          0.09498748183250427,
          -0.07090964168310165,
          -0.018761945888400078,
          -0.03342750668525696,
          -0.09664278477430344,
          -0.09184574335813522,
          0.054446060210466385,
          -0.125255286693573,
          0.05849381163716316,
          -0.07183021306991577,
          -0.016648290678858757,
          -0.1440601646900177,
          -0.007833609357476234,
          0.1459546834230423,
          -0.08491314202547073,
          -0.14129699766635895,
          -0.1410665065050125,
          -0.15177816152572632,
          0.08885794132947922,
          -0.019150637090206146,
          0.009354118257761002,
          -0.054503750056028366,
          0.1279761791229248,
          0.04524163156747818,
          -0.1317935585975647,
          0.14345522224903107,
          -0.08903582394123077,
          0.040041953325271606,
          0.1497790366411209,
          -0.14380252361297607,
          0.003995352890342474,
          -0.11647994071245193,
          -0.09349294751882553,
          0.14452914893627167,
          -0.09645382314920425,
          -0.0536910742521286,
          0.025116803124547005,
          0.1203518882393837,
          -0.03550829365849495,
          0.020787453278899193,
          0.06843532621860504,
          -0.129537433385849,
          -0.10671871900558472,
          -0.0838613361120224,
          -0.1134171336889267,
          -0.008434074930846691,
          0.01613203063607216,
          0.05098459869623184,
          -0.006278589367866516,
          0.07263663411140442,
          0.11402244865894318,
          0.10534457117319107,
          0.10569579899311066,
          -0.1368776261806488,
          -0.04508179798722267,
          0.12733867764472961,
          -0.09705524146556854,
          -0.030222658067941666,
          0.1273549497127533,
          0.14631050825119019,
          0.06155041605234146,
          0.07808803766965866,
          -0.13263998925685883,
          0.11616036295890808,
          0.0427708737552166,
          0.08104328066110611,
          -0.12942610681056976,
          -0.06131201237440109,
          0.022867530584335327,
          -0.10155583173036575,
          -0.11904408037662506,
          0.1501220315694809,
          -0.04335148259997368,
          0.06720267981290817,
          0.10995709151029587,
          -0.029522618278861046,
          -0.09875155240297318,
          -0.06543084979057312,
          0.11222096532583237,
          0.04901723563671112,
          0.006400846876204014,
          -0.03891730681061745,
          -0.06297410279512405,
          0.1303340047597885,
          -0.07342030853033066
        ],
        [
          0.04436694458127022,
          0.1439545452594757,
          -0.04975389316678047,
          -0.06468430161476135,
          -0.08786126226186752,
          0.012742774561047554,
          -0.01492462307214737,
          0.027634115889668465,
          -0.09498069435358047,
          -0.08478740602731705,
          0.0926983579993248,
          0.11805586516857147,
          -0.08125568926334381,
          -0.08770982921123505,
          -0.11644161492586136,
          -0.13624027371406555,
          0.07673625648021698,
          -0.025006746873259544,
          -0.11535200476646423,
          -0.12619873881340027,
          0.06888087093830109,
          -0.13333956897258759,
          0.05270718038082123,
          0.08048781007528305,
          0.06493504345417023,
          0.036910660564899445,
          -0.00697335135191679,
          0.11505036801099777,
          0.011233741417527199,
          -0.024180181324481964,
          -0.1464865505695343,
          0.11394744366407394,
          -0.08772069215774536,
          -0.1025208830833435,
          0.1420106589794159,
          -0.08157019317150116,
          0.01667325757443905,
          0.14189599454402924,
          -0.12880870699882507,
          0.02693154290318489,
          -0.12320251762866974,
          0.0028395710978657007,
          0.1031859740614891,
          0.07779013365507126,
          0.036018677055835724,
          0.06129846349358559,
          -0.08014784753322601,
          -0.04651819169521332,
          0.0063405693508684635,
          -0.11955735087394714,
          -0.15100114047527313,
          0.03620043396949768,
          0.08952971547842026,
          0.03540625050663948,
          0.004366896580904722,
          -0.1252651810646057,
          0.02612743340432644,
          -0.11333759129047394,
          -0.03157126158475876,
          0.02737153135240078,
          -0.15723782777786255,
          0.13467368483543396,
          0.043876104056835175,
          0.051073335111141205,
          -0.023977283388376236,
          0.10392852127552032,
          -0.03599908947944641,
          -0.11928446590900421,
          0.10468186438083649,
          -0.06211521476507187,
          -0.06588780134916306,
          0.09772132337093353,
          0.11926114559173584,
          0.07109101116657257,
          0.005354610271751881,
          -0.072049081325531,
          0.020178930833935738,
          -0.11569005250930786,
          0.13860753178596497,
          0.07417174428701401,
          -0.02000463381409645,
          -0.1272847205400467,
          0.12313452363014221,
          -0.09981850534677505,
          0.035089828073978424,
          -0.08198891580104828,
          0.001956323394551873,
          -0.11668038368225098,
          -0.06468825042247772,
          -0.04402751103043556,
          0.13779273629188538,
          -0.14804957807064056,
          -0.09496551007032394,
          0.04839054495096207,
          0.004060618579387665,
          -0.0948595255613327,
          0.13288596272468567,
          -0.00046238332288339734,
          0.14182525873184204,
          0.1256379634141922,
          0.0025040036998689175,
          -0.08018819242715836,
          -0.14972597360610962,
          0.09468159824609756,
          -0.05563740059733391,
          -0.13974283635616302,
          0.029957527294754982,
          0.04822762310504913,
          0.09640077501535416,
          -0.09452205151319504,
          0.01076760794967413,
          -0.0362713448703289,
          0.0278074499219656,
          -0.032790154218673706,
          0.11091676354408264,
          0.08914167433977127,
          -0.12126649171113968,
          -0.03709426522254944,
          -0.0050177681259810925,
          0.03943273797631264,
          -0.041721656918525696,
          0.12501433491706848,
          0.09857334196567535,
          -0.14253665506839752,
          -0.1518392413854599,
          -0.11443652957677841,
          0.10250794142484665,
          -0.12882107496261597
        ],
        [
          0.04878697544336319,
          0.07697702199220657,
          -0.13378077745437622,
          0.12287035584449768,
          0.1681927889585495,
          0.1154983639717102,
          0.01657578907907009,
          -0.1273418366909027,
          -0.11420318484306335,
          0.08773379027843475,
          -0.0033577843569219112,
          -0.11526879668235779,
          -0.06410599499940872,
          0.04423315450549126,
          0.12468928843736649,
          -0.12550202012062073,
          0.12681519985198975,
          0.051015447825193405,
          0.06243372708559036,
          -0.10034043341875076,
          0.008193384855985641,
          0.08650223165750504,
          0.010070729069411755,
          0.15273891389369965,
          0.01890641823410988,
          -0.1338227093219757,
          0.0991358533501625,
          0.12636886537075043,
          -0.05230926722288132,
          -0.010604512877762318,
          0.03612044081091881,
          -0.061381127685308456,
          -0.0628121867775917,
          0.10457465052604675,
          -0.12403671443462372,
          0.01667770929634571,
          -0.04326334968209267,
          -0.10745815932750702,
          0.1120217889547348,
          0.120119109749794,
          0.03324224427342415,
          -0.004251114092767239,
          -0.09348897635936737,
          0.0993683859705925,
          -0.0510169193148613,
          -0.1225089281797409,
          -0.10003691911697388,
          0.050298210233449936,
          -0.13287979364395142,
          -0.130039244890213,
          -0.05224793404340744,
          0.03198304772377014,
          0.05969807133078575,
          0.07324349135160446,
          -0.03058725968003273,
          0.02278898097574711,
          -0.0915524959564209,
          0.025525396689772606,
          -0.07869462668895721,
          0.07699593901634216,
          -0.10359466075897217,
          0.10420200228691101,
          0.12875936925411224,
          0.004812810104340315,
          0.09805484861135483,
          0.13249441981315613,
          0.13172028958797455,
          0.09372203052043915,
          0.0293938796967268,
          0.16320748627185822,
          0.02388640306890011,
          0.013049811124801636,
          0.15516623854637146,
          -0.0741242915391922,
          0.14703746140003204,
          0.05502261221408844,
          0.15962818264961243,
          -0.0531378835439682,
          -0.08335637301206589,
          -0.040653619915246964,
          -0.12630939483642578,
          -0.03502726927399635,
          -0.09203792363405228,
          -0.03733067959547043,
          -0.1286299228668213,
          -0.0021172938868403435,
          0.0803094357252121,
          -0.0688500627875328,
          0.05300785228610039,
          0.11340177059173584,
          0.10680676996707916,
          0.07442665845155716,
          -0.11331615597009659,
          -0.011238005012273788,
          -0.04843882843852043,
          0.15519222617149353,
          -0.014040743000805378,
          0.15429101884365082,
          0.13738594949245453,
          0.11433020234107971,
          -0.08333157002925873,
          -0.03487652540206909,
          0.08126430213451385,
          -0.07441030442714691,
          0.1342632919549942,
          -0.10872099548578262,
          0.01875489018857479,
          -0.00012110780517105013,
          0.06591079384088516,
          0.11375807970762253,
          -0.07541438937187195,
          0.16248078644275665,
          -0.04796209931373596,
          -0.004155786707997322,
          -0.09751512110233307,
          0.14345356822013855,
          -0.04124093055725098,
          -0.05375467240810394,
          0.1684570461511612,
          -0.10381082445383072,
          -0.12361011654138565,
          0.0641600638628006,
          -0.052955448627471924,
          0.0953664556145668,
          -0.0585029162466526,
          0.04409579560160637,
          -0.13602140545845032,
          -0.09240313619375229
        ],
        [
          -0.028599459677934647,
          -0.0034375928808003664,
          -0.016431134194135666,
          -0.03731520473957062,
          0.06482449173927307,
          -0.04508349671959877,
          0.036009304225444794,
          -0.059517573565244675,
          -0.165929913520813,
          -0.03526956960558891,
          0.02801486849784851,
          -0.08993435651063919,
          -0.11304455250501633,
          0.05746249482035637,
          -0.10061100125312805,
          -0.01799759268760681,
          -0.03299097716808319,
          0.09250528365373611,
          -0.06581887602806091,
          -0.029772374778985977,
          0.014478834345936775,
          -0.16661839187145233,
          -0.15133978426456451,
          0.09084394574165344,
          0.03587644547224045,
          0.02820654585957527,
          -0.1709226816892624,
          -0.09219007194042206,
          0.008626706898212433,
          0.07207424938678741,
          0.11946847289800644,
          -0.11509165167808533,
          -0.10758550465106964,
          0.07170943915843964,
          0.129869744181633,
          -0.08587990701198578,
          -0.027107877656817436,
          0.08099077641963959,
          0.04264674708247185,
          -0.0888189747929573,
          0.07852564007043839,
          -0.16449853777885437,
          -0.1077011227607727,
          0.059564583003520966,
          0.14504608511924744,
          -0.11138716340065002,
          0.1474592089653015,
          -0.08440907299518585,
          -0.11021588742733002,
          -0.1205543503165245,
          -0.003099013352766633,
          0.03203345462679863,
          0.09794065356254578,
          -0.15399877727031708,
          0.1084144338965416,
          -0.012022523209452629,
          0.10787251591682434,
          0.08859565109014511,
          0.016717972233891487,
          0.03523293510079384,
          0.04408155754208565,
          0.1080995723605156,
          0.11878886818885803,
          0.04704878479242325,
          -0.15951332449913025,
          -0.1557171642780304,
          -0.10457725077867508,
          0.044161662459373474,
          0.061946235597133636,
          0.016683127731084824,
          -0.07057155668735504,
          0.06589695811271667,
          -0.11921154707670212,
          0.13951440155506134,
          -0.12044944614171982,
          -0.035928573459386826,
          -0.14347675442695618,
          0.07461622357368469,
          0.11254912614822388,
          0.062403757125139236,
          0.13689318299293518,
          -0.0417335107922554,
          -0.11986282467842102,
          0.13736063241958618,
          0.11986337602138519,
          -0.049306053668260574,
          0.04418712481856346,
          -0.010091514326632023,
          0.10907819122076035,
          0.0930139422416687,
          0.13040976226329803,
          -0.004738801624625921,
          0.13793595135211945,
          -0.09263170510530472,
          -0.05757530778646469,
          0.028207926079630852,
          0.07905801385641098,
          -0.09421199560165405,
          -0.09572834521532059,
          0.008555164560675621,
          -0.09393513947725296,
          0.043813835829496384,
          0.03618836775422096,
          0.08329474925994873,
          0.07066746056079865,
          0.03716527670621872,
          0.139243483543396,
          -0.10297501087188721,
          0.06890233606100082,
          -0.10902326554059982,
          0.06708522140979767,
          -0.047976184636354446,
          -0.10658489912748337,
          0.028267551213502884,
          0.050592295825481415,
          -0.011278048157691956,
          -0.11115167289972305,
          -0.08092698454856873,
          -0.005033491179347038,
          0.08362767100334167,
          -0.0433819442987442,
          -0.002152396133169532,
          -0.07666217535734177,
          0.12051188945770264,
          -0.08660434186458588,
          0.08708268404006958,
          0.11085367947816849,
          0.016734613105654716
        ],
        [
          0.023927386850118637,
          -0.07711165398359299,
          -0.10268334299325943,
          -0.1458626389503479,
          -0.015888884663581848,
          0.02196759730577469,
          0.014201185666024685,
          -0.13261865079402924,
          0.001371733844280243,
          -0.14367343485355377,
          0.02897011488676071,
          -0.15011100471019745,
          -0.013368159532546997,
          -0.1367495357990265,
          0.09541595727205276,
          0.12592928111553192,
          -0.12615402042865753,
          -0.12939606606960297,
          -0.09363745152950287,
          0.013726938515901566,
          0.05310031771659851,
          -0.11206202208995819,
          0.0020489045418798923,
          -0.009336506947875023,
          0.14485757052898407,
          0.12318921089172363,
          -0.044932618737220764,
          0.0500330924987793,
          0.0359438881278038,
          0.14475561678409576,
          0.04288165271282196,
          0.12827205657958984,
          -0.14122802019119263,
          -0.14311034977436066,
          -0.034648604691028595,
          -0.13721664249897003,
          -0.15169809758663177,
          -0.016167161986231804,
          0.05320010706782341,
          0.11213500797748566,
          0.053986139595508575,
          0.03885845094919205,
          -0.09247312694787979,
          0.0029297831933945417,
          0.020162953063845634,
          -0.06906922906637192,
          -0.10115522146224976,
          0.05824730545282364,
          0.07774727046489716,
          0.10215912759304047,
          0.09857474267482758,
          -0.09718149155378342,
          0.07138843089342117,
          0.11394424736499786,
          -0.1120782271027565,
          -0.1331683099269867,
          -0.12772640585899353,
          -0.006527356803417206,
          -0.11541276425123215,
          -0.022371327504515648,
          0.0279193464666605,
          0.09521990269422531,
          -0.09627008438110352,
          0.08845021575689316,
          -0.12533670663833618,
          0.014490797184407711,
          -0.08595730364322662,
          0.11610608547925949,
          -0.11792220920324326,
          0.004835278261452913,
          -0.026145068928599358,
          -0.036033350974321365,
          -0.09660457074642181,
          0.1306302845478058,
          0.10600783675909042,
          -0.08786581456661224,
          -0.04120251536369324,
          -0.01086889673024416,
          -0.05836467444896698,
          0.029662396758794785,
          -0.10177487134933472,
          -0.09534306824207306,
          -0.142123743891716,
          0.08612124621868134,
          -0.0837891548871994,
          -0.0638570487499237,
          -0.002179064555093646,
          0.07965707033872604,
          0.11015574634075165,
          -0.05785921588540077,
          -0.09414931386709213,
          -0.1153746023774147,
          0.0687188059091568,
          0.08577840030193329,
          -0.12395807355642319,
          -0.0655733272433281,
          -0.13373669981956482,
          0.11374431848526001,
          -0.047649040818214417,
          0.14236342906951904,
          0.09332248568534851,
          0.05271323025226593,
          0.1135113537311554,
          0.06534510850906372,
          -0.09579835832118988,
          -0.07517106086015701,
          0.04474634304642677,
          -0.07117045670747757,
          -0.12756769359111786,
          0.04053043574094772,
          -0.05982298403978348,
          -0.019959446042776108,
          -0.13577431440353394,
          -0.07359158992767334,
          -0.06884502619504929,
          -0.08926477283239365,
          -0.0028010469395667315,
          -0.1466756910085678,
          0.13214269280433655,
          0.12875211238861084,
          0.044781800359487534,
          0.07651688158512115,
          -0.12014985829591751,
          0.027741534635424614,
          0.06130881980061531,
          0.02272769808769226,
          0.0853840708732605,
          -0.13089077174663544
        ],
        [
          0.007454335689544678,
          -0.012535241432487965,
          0.002215310698375106,
          0.13096599280834198,
          -0.06522750854492188,
          0.08103141188621521,
          0.13503098487854004,
          -0.1563568413257599,
          0.04666942358016968,
          0.13201552629470825,
          0.07021918892860413,
          0.0925707221031189,
          0.02348916605114937,
          -0.0007533333846367896,
          -0.014546148478984833,
          0.14574941992759705,
          0.11217939108610153,
          -0.13866089284420013,
          -0.12007097899913788,
          0.01401377934962511,
          0.07702429592609406,
          -0.16262534260749817,
          0.026777852326631546,
          -0.06523605436086655,
          0.1376761496067047,
          -0.10698948055505753,
          0.05974484607577324,
          0.07025213539600372,
          -0.11931630223989487,
          0.05914204940199852,
          -0.05783762037754059,
          0.116726353764534,
          0.03713509440422058,
          -0.08535023778676987,
          -0.08392587304115295,
          -0.10831248015165329,
          -0.07816056907176971,
          0.06511110812425613,
          0.13402925431728363,
          -0.0015574522549286485,
          0.10446291416883469,
          0.12940533459186554,
          0.01123266201466322,
          0.02985227480530739,
          0.09518082439899445,
          0.13357743620872498,
          0.14098665118217468,
          0.013006952591240406,
          -0.10764976590871811,
          -0.14104118943214417,
          0.008322209119796753,
          0.04486884921789169,
          0.11723992228507996,
          0.09779097139835358,
          -0.027965858578681946,
          0.004826992750167847,
          -0.05490325763821602,
          0.09950999170541763,
          -0.041751742362976074,
          0.1496650129556656,
          -0.07307611405849457,
          -0.1356300711631775,
          0.09835561364889145,
          0.05724211037158966,
          0.03770696371793747,
          -0.05380085110664368,
          0.011259745806455612,
          0.0678793340921402,
          0.08206237107515335,
          -0.019799821078777313,
          0.0003813586663454771,
          -0.11397697776556015,
          0.06843502819538116,
          -0.04136603698134422,
          -0.08320053666830063,
          0.11802785098552704,
          0.005619852337986231,
          0.02208387292921543,
          -0.09845495969057083,
          -0.0982753187417984,
          -0.01350412517786026,
          -0.014563462696969509,
          -0.011205870658159256,
          -0.04491601139307022,
          -0.01827310398221016,
          0.03989375755190849,
          -0.08969439566135406,
          -0.05550551787018776,
          -0.08759775757789612,
          0.04997919127345085,
          -0.13323022425174713,
          -0.037669748067855835,
          0.08054090291261673,
          -0.08392303436994553,
          -0.018600959330797195,
          0.08486195653676987,
          -0.12711821496486664,
          0.04481635242700577,
          -0.03409399464726448,
          0.12302651256322861,
          -0.04982751980423927,
          -0.1330966204404831,
          -0.06790563464164734,
          -0.1404893696308136,
          0.0487360917031765,
          0.1462821513414383,
          0.07459966838359833,
          -0.09451666474342346,
          0.0333830751478672,
          -0.03954190015792847,
          0.005308321677148342,
          0.055536333471536636,
          0.04619992524385452,
          -0.006337552797049284,
          0.012747782282531261,
          -0.15439040958881378,
          -0.0973055437207222,
          -0.0063299816101789474,
          -0.14138658344745636,
          -0.14199069142341614,
          0.08028873801231384,
          0.056516632437705994,
          0.12248089909553528,
          -0.05806791037321091,
          0.13169683516025543,
          0.004075890872627497,
          0.0035722970496863127,
          0.10102614015340805
        ],
        [
          -0.13094526529312134,
          0.02802463062107563,
          -0.1270797699689865,
          0.12248095124959946,
          0.1330557018518448,
          -0.05509556829929352,
          0.10600083321332932,
          0.14302337169647217,
          -0.151370570063591,
          0.05646668002009392,
          0.05017451196908951,
          0.03273991122841835,
          0.14268700778484344,
          -0.11564762145280838,
          -0.038590408861637115,
          0.0382700115442276,
          -0.058674950152635574,
          -0.09385628998279572,
          -0.1497793197631836,
          0.03764447197318077,
          0.14171965420246124,
          -0.06607392430305481,
          -0.06707823276519775,
          0.1316096931695938,
          0.014286279678344727,
          0.09647529572248459,
          0.1267123520374298,
          0.03629903867840767,
          0.12094278633594513,
          -0.13057859241962433,
          0.1352737694978714,
          0.12763382494449615,
          0.0005636413116008043,
          0.1370910257101059,
          -0.0017684216145426035,
          0.15305298566818237,
          -0.07588984072208405,
          -0.04767519235610962,
          0.12462037056684494,
          -0.06478333473205566,
          0.05167509242892265,
          -0.12048891186714172,
          -0.09151529520750046,
          0.010115395300090313,
          0.10812140256166458,
          0.11024533212184906,
          -0.06015469506382942,
          -0.15222275257110596,
          0.10849737375974655,
          -0.005016191862523556,
          -0.010736162774264812,
          0.004834422841668129,
          -0.08319789171218872,
          0.08685625344514847,
          0.08220186829566956,
          -0.0830703154206276,
          0.14990362524986267,
          0.14281991124153137,
          -0.06399853527545929,
          0.1320330649614334,
          -0.03395133838057518,
          0.014890437945723534,
          -0.11800773441791534,
          -0.03316377103328705,
          -0.12814296782016754,
          -0.02181052789092064,
          0.08437176048755646,
          0.025297297164797783,
          0.022457212209701538,
          -0.006945266854017973,
          0.06178916618227959,
          -0.0008049753960222006,
          -0.08417867124080658,
          -0.10970020294189453,
          -0.007782015949487686,
          0.07112248241901398,
          0.07244428247213364,
          -0.049256179481744766,
          -0.11212745308876038,
          0.09640875458717346,
          -0.14075025916099548,
          -0.11174587160348892,
          -0.0834389179944992,
          -0.13146120309829712,
          -0.02358727715909481,
          -0.019032225012779236,
          -0.03639092296361923,
          -0.023936111479997635,
          -0.011705134063959122,
          0.07529515027999878,
          0.07709743827581406,
          0.022066783159971237,
          -0.11150829493999481,
          0.0994812622666359,
          -0.1271900236606598,
          -0.08127636462450027,
          0.016192985698580742,
          0.09753211587667465,
          0.1254841834306717,
          0.14337901771068573,
          -0.14076653122901917,
          -0.08673766255378723,
          -0.031793974339962006,
          -0.08821672201156616,
          -0.030059510841965675,
          0.11849770694971085,
          -0.046568576246500015,
          -0.14631716907024384,
          -0.11641351878643036,
          -0.1420699506998062,
          0.049734700471162796,
          0.10463294386863708,
          0.030602488666772842,
          0.03951899707317352,
          -0.1347036361694336,
          0.08015357702970505,
          -0.12266087532043457,
          0.12510839104652405,
          0.0004808033991139382,
          0.029099909588694572,
          -0.04507211968302727,
          0.14376696944236755,
          -0.15153512358665466,
          -0.036002159118652344,
          0.05337521806359291,
          0.049476444721221924,
          -0.044309068471193314,
          -0.13823778927326202
        ],
        [
          -0.015784934163093567,
          0.07711099833250046,
          -0.1308116763830185,
          0.01420589815825224,
          0.0017977346433326602,
          0.014326733537018299,
          0.131258025765419,
          -0.03689059615135193,
          -0.0241673793643713,
          -0.05689294636249542,
          0.0646660327911377,
          0.1576761156320572,
          0.1339777410030365,
          -0.10673337429761887,
          0.003871798748150468,
          0.03652370721101761,
          0.05924849584698677,
          0.17219731211662292,
          -0.07209011167287827,
          0.08239301294088364,
          0.0922854095697403,
          0.1489209532737732,
          0.027377275750041008,
          -0.051212213933467865,
          -0.11272336542606354,
          0.04365340992808342,
          0.02707713469862938,
          -0.13217821717262268,
          0.10937095433473587,
          -0.05119534581899643,
          0.15283465385437012,
          -0.012858213856816292,
          -0.0771501362323761,
          -0.028802404180169106,
          0.08216985315084457,
          -0.07058117538690567,
          -0.042628493160009384,
          -0.0397762693464756,
          -0.11920765042304993,
          -0.0020796875469386578,
          -0.03697262704372406,
          -0.022413160651922226,
          -0.06892140954732895,
          0.07628228515386581,
          0.008603709749877453,
          -0.007830900140106678,
          0.014722464606165886,
          0.08548077940940857,
          -0.04801877960562706,
          -0.08584528416395187,
          -0.07176295667886734,
          0.0011698275338858366,
          0.05077892169356346,
          0.03254755586385727,
          -0.052843935787677765,
          0.06439589709043503,
          -0.04789026081562042,
          -0.060762956738471985,
          0.048296552151441574,
          0.08970790356397629,
          0.1698610484600067,
          0.04343701899051666,
          -0.11704688519239426,
          0.08767358213663101,
          -0.11311367899179459,
          0.1114998534321785,
          0.06823268532752991,
          -0.047529853880405426,
          -0.1332472562789917,
          -0.03310631588101387,
          0.05353941395878792,
          0.09113597124814987,
          -0.06897971034049988,
          0.0722690224647522,
          0.12205330282449722,
          0.030019214376807213,
          -0.06362811475992203,
          0.01954670250415802,
          -0.14258407056331635,
          0.13829699158668518,
          -0.11387577652931213,
          -0.08191382884979248,
          -0.013874662108719349,
          -0.03581453859806061,
          -0.004730284679681063,
          0.008776054717600346,
          0.1535933017730713,
          0.1270633190870285,
          -0.020396575331687927,
          0.12324104458093643,
          -0.02733815647661686,
          0.10691861063241959,
          0.01058714184910059,
          0.15253396332263947,
          -0.0005435999482870102,
          0.07677770406007767,
          0.11379886418581009,
          0.016450749710202217,
          0.11647628247737885,
          -0.0834219828248024,
          0.11103031039237976,
          0.05293642729520798,
          0.012699602171778679,
          0.014353484846651554,
          -0.09789269417524338,
          0.11558354645967484,
          0.04093518108129501,
          -0.0935700535774231,
          0.0725349709391594,
          0.012088095769286156,
          -0.10371779650449753,
          0.04498386010527611,
          -0.02145126461982727,
          0.019485753029584885,
          -0.08839484304189682,
          -0.09396185725927353,
          0.1384032964706421,
          0.014738067984580994,
          0.03793774172663689,
          -0.02301829308271408,
          0.0015263933455571532,
          0.1548156589269638,
          0.14981402456760406,
          0.10302772372961044,
          -0.13346242904663086,
          0.08511769026517868,
          0.0012939153239130974,
          -0.11019529402256012
        ],
        [
          0.07198977470397949,
          0.0442621111869812,
          -0.14475974440574646,
          0.1247042864561081,
          0.05776110664010048,
          -0.02029247395694256,
          -0.13442890346050262,
          -0.075981006026268,
          -0.13079005479812622,
          0.11126933246850967,
          0.0010646390728652477,
          -0.021901842206716537,
          0.024216249585151672,
          0.08693887293338776,
          -0.0773150846362114,
          -0.08370134979486465,
          -0.0015063650207594037,
          -0.02922198548913002,
          -0.11464682221412659,
          0.1343013346195221,
          0.0961695984005928,
          0.052198540419340134,
          0.1519589126110077,
          -0.09266126900911331,
          -0.02305893786251545,
          0.14202705025672913,
          -0.015174465253949165,
          -0.10296649485826492,
          -0.027140777558088303,
          0.037049755454063416,
          0.037247054278850555,
          0.11131993681192398,
          -0.07706980407238007,
          0.016327926889061928,
          -0.07426797598600388,
          0.08789648860692978,
          -0.061009518802165985,
          0.014238051138818264,
          0.03880034387111664,
          0.035265494138002396,
          -0.07703796029090881,
          0.14622268080711365,
          0.12075483053922653,
          0.015241679735481739,
          -0.04275078326463699,
          0.05421829968690872,
          -0.04308705776929855,
          -0.018183361738920212,
          -0.07507964968681335,
          -0.10326555371284485,
          -0.02378096617758274,
          -0.09072303026914597,
          -0.0932452380657196,
          -0.09725389629602432,
          0.10275895148515701,
          -0.020000362768769264,
          0.1344693899154663,
          -0.0803598091006279,
          0.04670479893684387,
          0.15171198546886444,
          0.09196219593286514,
          0.029147908091545105,
          0.12180285900831223,
          0.012779082171618938,
          -0.14183035492897034,
          -0.040664192289114,
          -0.12478485703468323,
          -0.004297356121242046,
          -0.03620729222893715,
          -0.00933688972145319,
          0.14364223182201385,
          -0.11976990848779678,
          0.10307321697473526,
          0.0596061572432518,
          -0.1375255584716797,
          -0.05373883247375488,
          -0.06754877418279648,
          -0.04237323999404907,
          0.02230938710272312,
          -0.08388043940067291,
          0.14865761995315552,
          0.01291725318878889,
          -0.08915602415800095,
          0.027470959350466728,
          -0.1307220309972763,
          -0.073624387383461,
          -0.11942056566476822,
          -0.14728116989135742,
          -0.06439580768346786,
          0.006890278775244951,
          -0.14206945896148682,
          0.09923151135444641,
          -0.13578520715236664,
          -0.022843677550554276,
          -0.09950685501098633,
          0.0005308047984726727,
          0.09463109821081161,
          -0.01920597068965435,
          -0.12199264764785767,
          -0.12492859363555908,
          -0.0514056459069252,
          -0.13174374401569366,
          -0.11062297970056534,
          0.09617576748132706,
          -0.06668815016746521,
          -0.030580122023820877,
          0.12974512577056885,
          0.13360801339149475,
          0.029410289600491524,
          0.10751289129257202,
          -0.14128534495830536,
          -0.12822222709655762,
          -0.024173874408006668,
          -0.09940401464700699,
          0.035407133400440216,
          -0.06546103209257126,
          0.02620498463511467,
          -0.04182851314544678,
          -0.14947623014450073,
          -0.10972394794225693,
          -0.14235153794288635,
          0.06719148904085159,
          -0.10935374349355698,
          -0.051912836730480194,
          -0.056929100304841995,
          0.049009568989276886,
          0.0525224432349205,
          -0.07186833769083023
        ],
        [
          0.1169964000582695,
          0.05412531644105911,
          -0.06879516690969467,
          0.11705104261636734,
          -0.04089752584695816,
          -0.04692770913243294,
          0.12238649278879166,
          0.06901008635759354,
          0.02539748325943947,
          0.06358493864536285,
          -0.017914477735757828,
          -0.09238988906145096,
          -0.12929846346378326,
          0.14165228605270386,
          0.07243615388870239,
          -0.12597647309303284,
          0.03914875537157059,
          -0.07143894582986832,
          -0.05097831040620804,
          -0.0984165146946907,
          0.09322137385606766,
          0.0958024263381958,
