{
  "state_dim": 9,
  "num_actions": 5,
  "layers": [
    {
      "W": [
        [
          0.150556743144989,
          -0.16301585733890533,
          -0.030382905155420303,
          -0.18945734202861786,
          -0.08422212302684784,
          -0.17236590385437012,
          -0.1105235144495964,
          0.20218193531036377,
          -0.17480143904685974
        ],
        [
          -0.0608440525829792,
          -0.01586187444627285,
          0.19323191046714783,
          -0.03060738742351532,
          -0.18676362931728363,
          0.17070330679416656,
          -0.09376460313796997,
          0.18348945677280426,
          0.04823612794280052
        ],
        [
          -0.1182015985250473,
          0.05971471965312958,
          0.20261169970035553,
          -0.10320884734392166,
          -0.09246356785297394,
          0.23714719712734222,
          0.1359294205904007,
          -0.1100839152932167,
          0.0753222331404686
        ],
        [
          -0.035683151334524155,
          0.17707867920398712,
          -0.10778915137052536,
          -0.15109270811080933,
          -0.006861286237835884,
          -0.1820915937423706,
          -0.11405214667320251,
          -0.17858730256557465,
          -0.1698533445596695
        ],
        [
          -0.027539700269699097,
          0.06225252524018288,
          0.05528643727302551,
          0.08299778401851654,
          0.07469675689935684,
          0.21376393735408783,
          -0.1532530039548874,
          0.11292004585266113,
          0.2027447670698166
        ],
        [
          -0.1393452286720276,
          0.007715413346886635,
          0.10836692154407501,
          -0.14412793517112732,
          0.18333858251571655,
          0.05094338208436966,
          -0.07348641753196716,
          -0.037753041833639145,
          -0.0681639015674591
        ],
        [
          0.01238965429365635,
          0.1818121373653412,
          0.013412239030003548,
          -0.12687453627586365,
          -0.08587272465229034,
          -0.09141463041305542,
          0.10862891376018524,
          0.11892499029636383,
          -0.005611455533653498
        ],
        [
          0.051236532628536224,
          -0.1723513901233673,
          0.16014385223388672,
          -0.10375060141086578,
          -0.1678493171930313,
          0.07804825156927109,
          -0.19730590283870697,
          0.010864734649658203,
          -0.19838176667690277
        ],
        [
          -0.08103717863559723,
          0.168380469083786,
          -0.1141403317451477,
          -0.16907919943332672,
          -0.014514227397739887,
          0.1554703265428543,
          -0.17708146572113037,
          -0.17893481254577637,
          0.13348041474819183
        ],
        [
          0.17874668538570404,
          0.15036405622959137,
          0.053391050547361374,
          0.022876059636473656,
          0.17675629258155823,
          -0.09796623140573502,
          0.18588371574878693,
          -0.038748133927583694,
          -0.17381466925144196
        ],
        [
          0.1779029667377472,
          0.10225458443164825,
          0.21272648870944977,
          0.09747178107500076,
          0.02124703861773014,
          0.23576362431049347,
          -0.16878679394721985,
          0.07151828706264496,
          0.2097139209508896
        ],
        [
          -0.06519495695829391,
          -0.07195984572172165,
          0.11202914267778397,
          0.06395607441663742,
          0.1869329810142517,
          -0.11069638282060623,
          0.03133944794535637,
          0.14650334417819977,
          -0.053452834486961365
        ],
        [
          -0.18452782928943634,
          -0.046318259090185165,
          -0.11783730238676071,
          0.18503092229366302,
          0.00988522544503212,
          -0.1774235963821411,
          -0.18238995969295502,
          -0.015294995158910751,
          -0.1437394618988037
        ],
        [
          -0.08020707964897156,
          -0.025364629924297333,
          -0.06895855069160461,
          0.09123466908931732,
          0.04142094776034355,
          -0.025517210364341736,
          0.12044081091880798,
          0.16663475334644318,
          0.10287077724933624
        ],
        [
          -0.026324495673179626,
          -0.07823658734560013,
          0.048283305019140244,
          0.18127267062664032,
          0.03598200902342796,
          -0.06612080335617065,
          0.048652924597263336,
          -0.07002902776002884,
          0.107330322265625
        ],
        [
          0.06451204419136047,
          0.17786386609077454,
          0.008119427599012852,
          0.07261119782924652,
          -0.08112838119268417,
          -0.09978845715522766,
          0.0927460715174675,
          -0.048068396747112274,
          0.07038813084363937
        ],
        [
          0.0055834767408668995,
          -0.16647455096244812,
          0.11842738837003708,
          -0.025935469195246696,
          0.09840760380029678,
          0.11042553931474686,
          0.14082515239715576,
          -0.03813617303967476,
          -0.1711481660604477
        ],
        [
          -0.11019749194383621,
          -0.12829507887363434,
          0.24188698828220367,
          -0.03294987976551056,
          -0.1144995391368866,
          0.017677556723356247,
          -0.046637989580631256,
          0.1790599226951599,
          0.06809709966182709
        ],
        [
          0.16881337761878967,
          -0.0799785777926445,
          -0.09249939024448395,
          0.16382361948490143,
          0.1869741678237915,
          -0.11107653379440308,
          -0.0221350509673357,
          0.19295911490917206,
          0.08644387125968933
        ],
        [
          0.061645474284887314,
          0.051808759570121765,
          -0.05599652975797653,
          -0.1921466737985611,
          -0.061307135969400406,
          -0.04970763996243477,
          -0.18339309096336365,
          -0.1623307168483734,
          -0.011901161633431911
        ],
        [
          -0.2057403177022934,
          -0.20166873931884766,
          -0.12636534869670868,
          -0.15591928362846375,
          0.039843473583459854,
          -0.15621133148670197,
          0.1573224514722824,
          -0.15062446892261505,
          0.14561063051223755
        ],
        [
          -0.008369434624910355,
          -0.12332116067409515,
          0.22484810650348663,
          0.12328151613473892,
          0.20009452104568481,
          0.0895095095038414,
          -0.04798554256558418,
          -0.08361058682203293,
          -0.005732221528887749
        ],
        [
          0.20746946334838867,
          -0.011566536501049995,
          0.15816780924797058,
          -0.10894835740327835,
          0.14898201823234558,
          0.03147853538393974,
          0.18318858742713928,
          -0.17558196187019348,
          0.22220979630947113
        ],
        [
          0.09347950667142868,
          0.08135130256414413,
          -0.10295897722244263,
          0.09637536108493805,
          -0.04149293527007103,
          0.16524502635002136,
          -0.18497031927108765,
          -0.19978424906730652,
          0.06661733239889145
        ],
        [
          -0.10910086333751678,
          0.10268741101026535,
          0.04024919122457504,
          0.19241341948509216,
          0.14884352684020996,
          -0.11415918171405792,
          -0.015973415225744247,
          -0.045230407267808914,
          0.13340114057064056
        ],
        [
          -0.030258523300290108,
          0.015747355297207832,
          -0.12111970037221909,
          0.12388293445110321,
          0.18156717717647552,
          -0.11320057511329651,
          0.02153358981013298,
          -0.06593640893697739,
          0.003510936163365841
        ],
        [
          0.11331275850534439,
          0.07260124385356903,
          0.042763713747262955,
          -0.036371368914842606,
          -0.016421804204583168,
          -0.07817450165748596,
          -0.13980866968631744,
          -0.02545068971812725,
          -0.16494828462600708
        ],
        [
          -0.1022215411067009,
          0.10675488412380219,
          0.09613464772701263,
          0.02701244316995144,
          0.09562280029058456,
          0.022970277816057205,
          -0.1003894954919815,
          -0.10484270006418228,
          -0.15304937958717346
        ],
        [
          0.20169085264205933,
          -0.22857965528964996,
          -0.0777437686920166,
          0.2109428197145462,
          0.09705770015716553,
          0.06367751955986023,
          0.10987618565559387,
          0.11327622085809708,
          -0.00450635701417923
        ],
        [
          0.1935538351535797,
          0.13640417158603668,
          0.08403539657592773,
          -0.006524631753563881,
          -0.14452746510505676,
          -0.12358874827623367,
          0.17100341618061066,
          -0.16059453785419464,
          -0.09719037264585495
        ],
        [
          -0.14820002019405365,
          0.19100439548492432,
          0.022625654935836792,
          -0.17688073217868805,
          -0.20711307227611542,
          0.21271827816963196,
          -0.17598682641983032,
          -0.09953097254037857,
          0.043530795723199844
        ],
        [
          -0.08386112004518509,
          -0.09018292278051376,
          0.18307481706142426,
          -0.11486924439668655,
          -0.10264954715967178,
          0.07622434943914413,
          0.12909677624702454,
          0.18145513534545898,
          -0.16537582874298096
        ],
        [
          0.06228106468915939,
          0.1629384309053421,
          0.19913911819458008,
          0.20773112773895264,
          0.011126426048576832,
          0.029941828921437263,
          -0.11944135278463364,
          0.14896345138549805,
          -0.14083214104175568
        ],
        [
          -0.05169427767395973,
          -0.18438686430454254,
          0.13169877231121063,
          -0.08901194483041763,
          0.016680248081684113,
          0.11350489407777786,
          -0.1154995709657669,
          -0.0021416207309812307,
          0.03407843038439751
        ],
        [
          0.18478478491306305,
          -0.025093713775277138,
          0.1847524642944336,
          0.19384275376796722,
          0.058590661734342575,
          0.09935370087623596,
          -0.10242819786071777,
          -0.035369131714105606,
          -0.07924435287714005
        ],
        [
          0.15735942125320435,
          -0.0007009151740930974,
          0.20938079059123993,
          -0.13552366197109222,
          -0.1702565997838974,
          0.09538203477859497,
          -0.09700577706098557,
          0.067953921854496,
          0.1895248293876648
        ],
        [
          0.1751818209886551,
          0.02752365916967392,
          0.13232393562793732,
          0.20656432211399078,
          -0.2167389839887619,
          -0.0768149122595787,
          0.16956965625286102,
          -0.08749900013208389,
          0.24385356903076172
        ],
        [
          -0.04993069916963577,
          0.1559268981218338,
          -0.09858468919992447,
          -0.003017980605363846,
          0.04439926519989967,
          -0.057576362043619156,
          -0.08394621312618256,
          -0.16808605194091797,
          0.16504965722560883
        ],
        [
          0.023684198036789894,
          0.04008053243160248,
          -0.12085296213626862,
          -0.1444450467824936,
          0.018257835879921913,
          -0.11562971770763397,
          0.06895049661397934,
          -0.04973732680082321,
          -0.13304124772548676
        ],
        [
          0.08689198642969131,
          -0.19492404162883759,
          0.16623060405254364,
          -0.08792087435722351,
          -0.0032349973917007446,
          0.14793668687343597,
          0.04658329114317894,
          0.06326015293598175,
          0.14127184450626373
        ],
        [
          0.05540360510349274,
          0.043820179998874664,
          0.22671988606452942,
          0.19442282617092133,
          -0.035672105848789215,
          -0.16354763507843018,
          0.06184158846735954,
          0.19194845855236053,
          0.2262754589319229
        ],
        [
          -0.037291549146175385,
          0.10717109590768814,
          -0.19289980828762054,
          0.14756788313388824,
          0.07086005806922913,
          -0.09045645594596863,
          -0.17000894248485565,
          0.11667455732822418,
          0.010047676973044872
        ],
        [
          0.22317510843276978,
          -0.038021788001060486,
          0.052468832582235336,
          0.14461788535118103,
          -0.05614732950925827,
          -0.11564962565898895,
          0.03110269457101822,
          0.12101376801729202,
          -0.022663859650492668
        ],
        [
          0.0421200692653656,
          -0.029121190309524536,
          0.04513133317232132,
          0.2036951184272766,
          0.14958815276622772,
          0.23741410672664642,
          -0.00616062106564641,
          0.16206251084804535,
          -0.13783717155456543
        ],
        [
          -0.08229607343673706,
          -0.14645621180534363,
          -0.13766279816627502,
          0.17938798666000366,
          -0.10890692472457886,
          -0.048810020089149475,
          -0.07452742755413055,
          -0.11469835042953491,
          -0.006162113510072231
        ],
        [
          -0.01019650511443615,
          -0.11927146464586258,
          -0.0038049202412366867,
          0.13795995712280273,
          0.0029951129108667374,
          -0.10263325273990631,
          -0.0013558405917137861,
          0.13202670216560364,
          -0.05166194215416908
        ],
        [
          0.08695314824581146,
          -0.05576721578836441,
          0.17074142396450043,
          -0.004916029516607523,
          0.19708290696144104,
          0.07177269458770752,
          0.153715580701828,
          0.2323315143585205,
          -0.02646186575293541
        ],
        [
          -0.05309976264834404,
          -0.015215924009680748,
          -0.1035456731915474,
          -0.15019141137599945,
          0.0061315493658185005,
          0.1321277916431427,
          -0.11504176259040833,
          -0.07244852185249329,
          -0.1716543734073639
        ],
        [
          0.2471493035554886,
          -0.10508576780557632,
          -0.015163187868893147,
          0.0016296396497637033,
          -0.17659786343574524,
          0.05474401265382767,
          -0.11793620139360428,
          0.025876136496663094,
          0.19626282155513763
        ],
        [
          -0.09095779806375504,
          -0.07994651049375534,
          -0.16161617636680603,
          0.04493512958288193,
          -0.09697744995355606,
          0.06330078840255737,
          -0.0006085651693865657,
          -0.08443920314311981,
          0.013597509823739529
        ],
        [
          0.12166064977645874,
          0.09102252870798111,
          0.0039252545684576035,
          0.18823255598545074,
          0.10266976058483124,
          0.24090176820755005,
          0.06071124225854874,
          0.22027601301670074,
          -0.12025443464517593
        ],
        [
          -0.005906297359615564,
          0.20884370803833008,
          0.023683523759245872,
          -0.11803539097309113,
          -0.12660527229309082,
          0.06706659495830536,
          -0.04371068626642227,
          -0.006664383690804243,
          -0.10277188569307327
        ],
        [
          -0.06463679671287537,
          -0.004216050263494253,
          -0.05297563970088959,
          -0.0027685556560754776,
          -0.062117353081703186,
          0.2286423295736313,
          -0.04859676584601402,
          0.2077351212501526,
          -0.1163794994354248
        ],
        [
          0.04469996690750122,
          -0.0827430933713913,
          0.0011840879451483488,
          -0.022015539929270744,
          -0.1517610251903534,
          -0.1782587170600891,
          -0.03139335662126541,
          -0.06683658808469772,
          -0.10391227155923843
        ],
        [
          0.14407217502593994,
          0.002044939436018467,
          0.14147497713565826,
          0.03845272213220596,
          0.17462268471717834,
          -0.15647640824317932,
          0.1236683577299118,
          0.07130084186792374,
          0.12465234100818634
        ],
        [
          -0.002751610241830349,
          0.10617907345294952,
          -0.03595962002873421,
          0.2239914983510971,
          0.041670408099889755,
          0.07657144218683243,
          -0.0007564465049654245,
          0.045722201466560364,
          0.0009154214640147984
        ],
        [
          0.0867776870727539,
          -0.13223756849765778,
          0.045927081257104874,
          -0.11388687044382095,
          -0.15773633122444153,
          -0.17502976953983307,
          -0.03648000583052635,
          0.06059711426496506,
          -0.005004814825952053
        ],
        [
          -0.17716482281684875,
          -0.0634230449795723,
          -0.051878269761800766,
          0.08769182115793228,
          0.09080838412046432,
          0.00413786806166172,
          -0.0738101527094841,
          0.1368471384048462,
          -0.15393365919589996
        ],
        [
          0.21067717671394348,
          0.1055961549282074,
          -0.18622443079948425,
          0.06292279064655304,
          -0.09395875781774521,
          -0.15128196775913239,
          0.11082549393177032,
          0.07417701184749603,
          -0.16782288253307343
        ],
        [
          -0.06292083859443665,
          0.03107786923646927,
          0.1277925670146942,
          -0.16954106092453003,
          -0.07290250808000565,
          0.06144499406218529,
          -0.019254837185144424,
          0.21517397463321686,
          0.12795454263687134
        ],
        [
          -0.01346051786094904,
          0.028453076258301735,
          0.08312374353408813,
          0.18192780017852783,
          -0.05557646229863167,
          -0.05827529355883598,
          0.1865217536687851,
          0.1574609875679016,
          -0.009578623808920383
        ],
        [
          -0.05527987331151962,
          -0.09359531104564667,
          -0.16297490894794464,
          0.0012032248778268695,
          -0.04660443961620331,
          0.15606503188610077,
          0.007229106035083532,
          -0.04949651658535004,
          0.1180940568447113
        ],
        [
          0.131527841091156,
          0.17633594572544098,
          0.21381507813930511,
          -0.06456051766872406,
          -0.1463678926229477,
          0.014751996845006943,
          0.01073248777538538,
          -0.11467044800519943,
          -0.141440287232399
        ],
        [
          0.10498732328414917,
          -0.09014551341533661,
          0.15350788831710815,
          -0.19782090187072754,
          0.056839991360902786,
          0.17956988513469696,
          -0.16818051040172577,
          0.08012589067220688,
          0.04908277466893196
        ],
        [
          -0.1829211413860321,
          0.1845698058605194,
          -0.12972500920295715,
          0.14967811107635498,
          0.16611741483211517,
          -0.15658091008663177,
          -0.1865708976984024,
          -0.01897253468632698,
          -0.1083204448223114
        ],
        [
          0.09289513528347015,
          0.1324005275964737,
          -0.11932965368032455,
          0.10397660732269287,
          -0.0006291568861342967,
          0.22333252429962158,
          0.154314324259758,
          0.2006615847349167,
          0.17693711817264557
        ],
        [
          0.04954852536320686,
          0.11312603950500488,
          -0.0662427693605423,
          -0.1850021928548813,
          -0.10335277020931244,
          -0.016986381262540817,
          0.0393286794424057,
          -0.006408296059817076,
          0.06635111570358276
        ],
        [
          0.010819533839821815,
          0.10966389626264572,
          -0.002412425586953759,
          0.22552035748958588,
          0.027354849502444267,
          0.13528397679328918,
          -0.09888859838247299,
          0.1333969086408615,
          -0.013415546156466007
        ],
        [
          0.18645375967025757,
          0.025667138397693634,
          0.09826414287090302,
          0.17786522209644318,
          -0.06195858120918274,
          0.20029646158218384,
          0.14672040939331055,
          -0.0865917056798935,
          -0.11556258797645569
        ],
        [
          0.08027387410402298,
          -0.13106508553028107,
          -0.143323615193367,
          -0.054805938154459,
          0.11476648598909378,
          -0.19611956179141998,
          -0.004929910879582167,
          -0.01932213082909584,
          0.17022618651390076
        ],
        [
          0.0005505416193045676,
          -0.0030210232362151146,
          -0.018729517236351967,
          0.1095803752541542,
          -0.0013815270503982902,
          0.11635445058345795,
          0.196376770734787,
          0.15364892780780792,
          0.16754032671451569
        ],
        [
          0.008184020407497883,
          -0.06920350342988968,
          -0.0737496092915535,
          0.03910842165350914,
          0.12296805530786514,
          -0.1966983675956726,
          0.11463974416255951,
          -0.014902733266353607,
          -0.043530602008104324
        ],
        [
          0.15956248342990875,
          -0.06251773983240128,
          -0.0893273875117302,
          0.10995657742023468,
          0.07760106772184372,
          -0.041652362793684006,
          -0.19578427076339722,
          0.05569958686828613,
          -0.044596973806619644
        ],
        [
          -0.005179326515644789,
          0.1569308638572693,
          0.037429329007864,
          0.1699124425649643,
          0.006824050098657608,
          0.11661005765199661,
          0.11611220240592957,
          0.057317402213811874,
          -0.04058214649558067
        ],
        [
          -0.012441245838999748,
          -0.12223976850509644,
          -0.19117379188537598,
          -0.16618984937667847,
          -0.03049582429230213,
          -0.08650068938732147,
          -0.12068625539541245,
          0.19872622191905975,
          0.01635459065437317
        ],
        [
          -0.025651300325989723,
          0.03171569108963013,
          -0.12563073635101318,
          -0.15453006327152252,
          0.041370365768671036,
          0.18458493053913116,
          0.1255342662334442,
          -0.11438965797424316,
          -0.17207030951976776
        ],
        [
          -0.18038184940814972,
          -0.051579900085926056,
          0.16735605895519257,
          0.00529394019395113,
          -0.07626192271709442,
          0.09399043768644333,
          0.05102943629026413,
          -0.1784987449645996,
          0.10204073786735535
        ],
        [
          0.2043568342924118,
          -0.05448280647397041,
          0.05906638130545616,
          -0.07843363285064697,
          0.011966087855398655,
          0.17775554955005646,
          0.12311653047800064,
          0.17086544632911682,
          0.04830262064933777
        ],
        [
          0.023355163633823395,
          -0.11061837524175644,
          0.20552478730678558,
          -0.09654001891613007,
          -0.0795062780380249,
          0.017768802121281624,
          -0.04108932986855507,
          0.21685805916786194,
          0.1627439707517624
        ],
        [
          -0.16895903646945953,
          0.143344908952713,
          -0.021545620635151863,
          -0.05413620546460152,
          -0.18065740168094635,
          -0.18925252556800842,
          -0.06114712730050087,
          0.19306638836860657,
          -0.18366087973117828
        ],
        [
          -0.10323256999254227,
          -0.18982861936092377,
          0.17745454609394073,
          0.23166950047016144,
          0.05272270366549492,
          0.17497088015079498,
          -0.12283631414175034,
          0.12926320731639862,
          0.14244389533996582
        ],
        [
          0.06581556051969528,
          -0.1438084989786148,
          0.2038002759218216,
          0.14804653823375702,
          -0.11250511556863785,
          -0.027079235762357712,
          -0.11575867980718613,
          0.14900556206703186,
          -0.0735611617565155
        ],
        [
          0.1625698059797287,
          -0.04576259106397629,
          -0.16344451904296875,
          -0.015333225019276142,
          -0.10697920620441437,
          -0.10063424706459045,
          0.16382597386837006,
          -0.17119131982326508,
          -0.15453055500984192
        ],
        [
          0.1586848944425583,
          -0.1820545792579651,
          -0.08766129612922668,
          -0.15336574614048004,
          0.1684207022190094,
          -0.13306976854801178,
          -0.08849822729825974,
          0.05520276725292206,
          -0.04673491418361664
        ],
        [
          -0.13177497684955597,
          0.1590801179409027,
          -0.19464431703090668,
          0.09248527139425278,
          0.18939310312271118,
          -0.08737184852361679,
          0.1032739132642746,
          0.007279700133949518,
          -0.15438422560691833
        ],
        [
          -0.09554982930421829,
          0.2028801143169403,
          0.1816701740026474,
          -0.09005514532327652,
          -0.18666456639766693,
          0.13131900131702423,
          -0.00172718137037009,
          0.054019343107938766,
          0.1911514401435852
        ],
        [
          -0.17508316040039062,
          0.09809057414531708,
          -0.16048669815063477,
          0.2098865807056427,
          0.11223269999027252,
          0.07099243998527527,
          0.18005777895450592,
          0.06947842240333557,
          0.12998446822166443
        ],
        [
          0.02423335798084736,
          -0.1906898319721222,
          0.17600704729557037,
          0.10350335389375687,
          -0.06695280224084854,
          0.10025487840175629,
          -0.14360563457012177,
          -0.03992638364434242,
          -0.1478283852338791
        ],
        [
          0.21857725083827972,
          -0.0497969314455986,
          0.15473070740699768,
          0.14255718886852264,
          0.06321785598993301,
          -0.10311759263277054,
          -0.011589611880481243,
          0.04233049973845482,
          0.18002885580062866
        ],
        [
          0.13084742426872253,
          -0.1830742359161377,
          0.03168885037302971,
          0.06628009676933289,
          0.10837669670581818,
          0.2278745472431183,
          -0.10805654525756836,
          -0.15695004165172577,
          -0.04979819804430008
        ],
        [
          0.0256799403578043,
          0.12753839790821075,
          -0.17740210890769958,
          0.10070879757404327,
          -0.007211397867649794,
          -0.19221068918704987,
          -0.027654403820633888,
          -0.1565406769514084,
          -0.11524832248687744
        ],
        [
          -0.18016380071640015,
          0.06330808252096176,
          -0.03967229276895523,
          -0.08325696736574173,
          -0.0924898087978363,
          -0.18250194191932678,
          -0.12106833606958389,
          -0.08030562102794647,
          0.17556846141815186
        ],
        [
          -0.16271965205669403,
          -0.01502168644219637,
          0.2307160645723343,
          -0.08481375128030777,
          0.20663926005363464,
          -0.05211222171783447,
          0.1761845499277115,
          0.13897307217121124,
          0.2178206592798233
        ],
        [
          -0.05166947469115257,
          -0.041032303124666214,
          0.19205376505851746,
          -0.10105450451374054,
          -0.18632006645202637,
          0.036699600517749786,
          0.17610874772071838,
          -0.14374350011348724,
          -0.12656699120998383
        ],
        [
          0.07894027233123779,
          -0.16190434992313385,
          -0.16269372403621674,
          -0.14465010166168213,
          0.09179625660181046,
          -0.0690021738409996,
          -0.13224881887435913,
          -0.05668396130204201,
          -0.20464159548282623
        ],
        [
          -0.129438579082489,
          -0.05835185945034027,
          0.18384644389152527,
          -0.036925990134477615,
          0.045895930379629135,
          -0.056093450635671616,
          0.16398774087429047,
          0.12374778091907501,
          0.16874197125434875
        ],
        [
          -0.13573063910007477,
          -0.1453639715909958,
          0.000733447028324008,
          0.007503010332584381,
          0.1389213651418686,
          -0.1521334946155548,
          0.10014776140451431,
          -0.05075386166572571,
          -0.0792364776134491
        ],
        [
          0.049987711012363434,
          0.04900205135345459,
          0.060779087245464325,
          0.02875647507607937,
          0.07917609810829163,
          0.17187882959842682,
          0.06789064407348633,
          -0.21279649436473846,
          -0.13744698464870453
        ],
        [
          0.1376739889383316,
          0.2027907371520996,
          0.12747997045516968,
          -0.11008034646511078,
          -0.16372056305408478,
          -0.07710784673690796,
          0.03289097175002098,
          -0.12148167937994003,
          0.07967548072338104
        ],
        [
          0.07627937942743301,
          -0.14884743094444275,
          0.16340681910514832,
          0.1009109765291214,
          0.21527040004730225,
          -0.17243273556232452,
          0.1954932063817978,
          0.23253101110458374,
          -0.05245095491409302
        ],
        [
          -0.030032454058527946,
          0.059357743710279465,
          0.07141981273889542,
          0.2169691026210785,
          0.1436409205198288,
          0.04411580413579941,
          -0.13980746269226074,
          -0.10081242024898529,
          0.1736220270395279
        ],
        [
          -0.20421470701694489,
          0.09018461406230927,
          -0.13071364164352417,
          -0.13644172251224518,
          0.16803225874900818,
          -0.2040577381849289,
          0.00722644105553627,
          -0.020956547930836678,
          -0.11174546182155609
        ],
        [
          -0.1348903626203537,
          0.125403493642807,
          -0.19634559750556946,
          -0.0607890784740448,
          -0.16374145448207855,
          0.0375530868768692,
          -0.03868023306131363,
          -0.1601603925228119,
          -0.1480400413274765
        ],
        [
          -0.13639621436595917,
          -0.021528461948037148,
          0.15919986367225647,
          -0.09409771859645844,
          0.0035561283584684134,
          0.031970713287591934,
          0.1568830907344818,
          -0.11077471822500229,
          0.10206732898950577
        ],
        [
          -0.06858839094638824,
          -0.06549152731895447,
          -0.14612968266010284,
          -0.1174895167350769,
          -0.12033460289239883,
          0.12587250769138336,
          -0.09669937193393707,
          0.07227369397878647,
          -0.020564885810017586
        ],
        [
          0.20270532369613647,
          -0.13993439078330994,
          0.2076321393251419,
          -0.08087366074323654,
          -0.027280904352664948,
          -0.12640659511089325,
          -0.043511513620615005,
          -0.07677115499973297,
          0.060867901891469955
        ],
        [
          -0.038996245712041855,
          -0.20456747710704803,
          0.12094943225383759,
          0.07117322087287903,
          0.13876590132713318,
          0.10000211745500565,
          -0.18623296916484833,
          0.1883295774459839,
          -0.1374901533126831
        ],
        [
          -0.16786789894104004,
          -0.1240154504776001,
          -0.08947252482175827,
          -0.060989320278167725,
          -0.05461063235998154,
          -0.19336438179016113,
          -0.09587317705154419,
          0.1748962551355362,
          -0.12177731096744537
        ],
        [
          0.01587984524667263,
          -0.06754998862743378,
          0.14084406197071075,
          0.016787948086857796,
          -0.16799169778823853,
          -0.1695042997598648,
          0.047716956585645676,
          -0.027106164023280144,
          0.05626180022954941
        ],
        [
          0.1445324420928955,
          0.007509974297136068,
          -0.14656352996826172,
          -0.20342688262462616,
          -0.19481676816940308,
          -0.06951364874839783,
          0.1921137571334839,
          0.0633518174290657,
          -0.12944164872169495
        ],
        [
          -0.1712542325258255,
          0.16126567125320435,
          -0.11255362629890442,
          0.17671839892864227,
          0.07584462314844131,
          -0.02456742711365223,
          -0.11069490015506744,
          0.07015637308359146,
          0.1184377372264862
        ],
        [
          0.1192716732621193,
          -0.010012810118496418,
          -0.04927912726998329,
          -0.15447430312633514,
          -0.12400273978710175,
          0.16517780721187592,
          0.06706903129816055,
          0.14830362796783447,
          -0.1289774775505066
        ],
        [
          -0.043117228895425797,
          -0.12591472268104553,
          -0.06268687546253204,
          0.1686275154352188,
          -0.028426548466086388,
          -0.15656667947769165,
          0.043063391000032425,
          -0.14081259071826935,
          -0.014067891985177994
        ],
        [
          0.02507549151778221,
          -0.19515252113342285,
          0.05767685920000076,
          -0.1906050592660904,
          -0.15105679631233215,
          -0.04238452389836311,
          0.2057218849658966,
          0.08272991329431534,
          -0.17827796936035156
        ],
        [
          0.20446288585662842,
          0.017183620482683182,
          0.18207360804080963,
          0.22699490189552307,
          -0.009375103749334812,
          -0.012405045330524445,
          -0.17858117818832397,
          0.11927534639835358,
          0.20596003532409668
        ],
        [
          0.21330147981643677,
          0.12062938511371613,
          0.09408434480428696,
          0.15849711000919342,
          -0.15684910118579865,
          0.05510731413960457,
          0.0201957318931818,
          0.00582656217738986,
          -0.06485164165496826
        ],
        [
          0.14621156454086304,
          -0.026677316054701805,
          0.16582675278186798,
          0.06717491149902344,
          -0.14450499415397644,
          0.04179302975535393,
          -0.05763876810669899,
          0.11135614663362503,
          0.10540672391653061
        ],
        [
          0.08593647181987762,
          -0.17404581606388092,
          -0.01724538579583168,
          0.1135636419057846,
          -0.08155279606580734,
          0.2060510367155075,
          -0.03783588111400604,
          -0.0497969351708889,
          0.1588187962770462
        ],
        [
          -0.12223021686077118,
          0.07009292393922806,
          0.21072855591773987,
          0.03764514997601509,
          0.04392152652144432,
          0.12234882265329361,
          0.09255317598581314,
          -0.11494886875152588,
          -0.13496407866477966
        ],
        [
          -0.07816454768180847,
          0.0867069810628891,
          0.023641180247068405,
          -0.13593605160713196,
          0.181136816740036,
          0.006337424274533987,
          -0.12100338190793991,
          0.12404076755046844,
          -0.16852954030036926
        ],
        [
          -0.13528208434581757,
          -0.04837968945503235,
          0.1706385463476181,
          0.1288743019104004,
          -0.010156355798244476,
          0.01632107049226761,
          -0.07759188115596771,
          0.22149571776390076,
          -0.0682896077632904
        ],
        [
          0.11882071197032928,
          0.14398778975009918,
          0.029304975643754005,
          0.22521047294139862,
          -0.019231906160712242,
          -0.018502583727240562,
          0.19617968797683716,
          -0.004059961996972561,
          0.2208738625049591
        ],
        [
          -0.19583295285701752,
          0.04837443679571152,
          0.11447055637836456,
          -0.13742612302303314,
          -0.039672017097473145,
          0.15571172535419464,
          -0.025053950026631355,
          0.19353342056274414,
          -0.17698942124843597
        ],
        [
          0.12826573848724365,
          -0.1693088263273239,
          -0.14899691939353943,
          0.052805934101343155,
          -0.16667838394641876,
          0.17201948165893555,
          0.15433762967586517,
          0.15772567689418793,
          0.08335785567760468
        ],
        [
          -0.03949159011244774,
          0.19528476893901825,
          0.02102019637823105,
          0.2081601321697235,
          -0.04849458858370781,
          0.016417738050222397,
          0.0657099187374115,
          -0.08249157667160034,
          -0.01695077121257782
        ],
        [
          0.21859578788280487,
          0.06578440219163895,
          0.1129470020532608,
          0.030303264036774635,
          0.07805851101875305,
          0.22292141616344452,
          -0.1573968082666397,
          0.15135706961154938,
          0.17518101632595062
        ],
        [
          -0.05522742494940758,
          0.18875867128372192,
          -0.21924154460430145,
          0.15973041951656342,
          0.008887937292456627,
          0.10183514654636383,
          -0.12961488962173462,
          -0.028477052226662636,
          0.03712233528494835
        ],
        [
          0.03622476011514664,
          0.030362211167812347,
          0.1303745061159134,
          -0.0707462877035141,
          -0.14606912434101105,
          0.19904710352420807,
          0.13172955811023712,
          0.04021508991718292,
          -0.03161020204424858
        ]
      ],
      "b": [
        0.0015698880888521671,
        0.03625071048736572,
        0.03990040719509125,
        0.0,
        0.03516285493969917,
        0.02020326629281044,
        0.018249304965138435,
        0.003077874891459942,
        -0.00947699137032032,
        -0.004926382564008236,
        0.0295098889619112,
        0.01213692594319582,
        -0.0040903110057115555,
        -0.010021748952567577,
        0.033494722098112106,
        0.04185659810900688,
        0.028954729437828064,
        0.03366684913635254,
        0.04512551799416542,
        0.0,
        0.0037526311352849007,
        0.03214661777019501,
        0.025021620094776154,
        0.002208637073636055,
        0.03716544806957245,
        0.0037843845784664154,
        -0.002652088413015008,
        -0.019423559308052063,
        0.039426300674676895,
        0.0244090985506773,
        0.004326310940086842,
        0.033158645033836365,
        0.02707267552614212,
        0.037303727120161057,
        0.03178202360868454,
        0.028047701343894005,
        0.03485449403524399,
        -0.001749553019180894,
        0.0,
        0.035039108246564865,
        0.03551631420850754,
        -0.004567714408040047,
        0.040484942495822906,
        0.03640945628285408,
        0.0005993216182105243,
        0.027216151356697083,
        0.027815639972686768,
        0.0,
        0.043652020394802094,
        -0.0020614606328308582,
        0.03916151449084282,
        0.016729021444916725,
        0.038464393466711044,
        0.001166554051451385,
        0.03570154681801796,
        0.02768796682357788,
        -0.009598554112017155,
        0.012356731109321117,
        0.0025979469064623117,
        0.030657097697257996,
        0.007435438688844442,
        -0.013203540816903114,
        0.009905966930091381,
        0.0053002843633294106,
        -0.002094890922307968,
        0.036148324608802795,
        -0.004874351900070906,
        0.033432044088840485,
        0.01856696978211403,
        0.002331573748961091,
        0.03389458730816841,
        -0.0027077787090092897,
        0.011669956147670746,
        0.030763177201151848,
        0.013229211792349815,
        0.0,
        0.022519955411553383,
        0.027848578989505768,
        0.03749396279454231,
        0.00225711683742702,
        0.03083988092839718,
        0.034059103578329086,
        0.005688200704753399,
        -0.014318288303911686,
        0.0014088479802012444,
        0.03141375258564949,
        0.031003020703792572,
        0.03143303841352463,
        0.026772361248731613,
        0.04391229525208473,
        0.0,
        -0.0004343698965385556,
        0.022471897304058075,
        0.03830430656671524,
        -0.00045468020834960043,
        0.037372346967458725,
        -0.010055354796350002,
        -0.02254561148583889,
        0.032692085951566696,
        0.03400594741106033,
        0.03223202005028725,
        0.0,
        0.0,
        0.009494498372077942,
        -0.009101448580622673,
        0.028884561732411385,
        0.017670610919594765,
        0.004761924501508474,
        0.00029109380557201803,
        0.0007781988242641091,
        -0.0028148265555500984,
        0.0013874911237508059,
        0.0006020099390298128,
        -0.004394205752760172,
        0.03660650551319122,
        0.033791229128837585,
        -0.0015414126683026552,
        0.0253821462392807,
        0.038443442434072495,
        -0.00833111722022295,
        0.017647085711359978,
        0.01919657364487648,
        0.012514492496848106,
        0.04204443469643593,
        0.039959993213415146,
        0.024898938834667206,
        -0.0105433976277709,
        0.007072348613291979
      ]
    },
    {
      "W": [
        [
          0.08496792614459991,
          0.00021053855016361922,
          0.141006201505661,
          0.06327600032091141,
          -0.12873069941997528,
          -0.05170297622680664,
          0.05260029807686806,
          -0.012087165378034115,
          -0.09848028421401978,
          -0.10635827481746674,
          -0.022186042740941048,
          0.13606159389019012,
          -0.05000504478812218,
          0.08746509999036789,
          -0.12954582273960114,
          0.14640894532203674,
          0.12146441638469696,
          0.0026716911233961582,
          -0.150838240981102,
          -0.06367184221744537,
          -0.04352928698062897,
          -0.11554747074842453,
          0.07605037838220596,
          0.04147246852517128,
          -0.10121233761310577,
          -0.10954109579324722,
          -0.12989388406276703,
          0.014283674769103527,
          -0.15072093904018402,
          0.08906978368759155,
          -0.08795694261789322,
          0.10109653323888779,
          0.06656419485807419,
          0.11036751419305801,
          0.0037640139926224947,
          0.04291873425245285,
          -0.09618119150400162,
          0.11743712425231934,
          -0.07368114590644836,
          -0.1272241771221161,
          -0.04344960302114487,
          0.01690153405070305,
          -0.11870193481445312,
          -0.006603147368878126,
          0.015879793092608452,
          0.08677861094474792,
          0.02017997018992901,
          0.007676986511796713,
          -5.3613515774486586e-05,
          0.07116805016994476,
          0.03558202460408211,
          -0.011094193905591965,
          0.010509717278182507,
          -0.07092925906181335,
          0.011514261364936829,
          -0.08507446199655533,
          0.013271335512399673,
          -0.03755990043282509,
          0.12615250051021576,
          0.007266575936228037,
          -0.08450648188591003,
          0.15000975131988525,
          0.08230842649936676,
          -0.05949154496192932,
          0.013805468566715717,
          -0.07691419124603271,
          0.0453021302819252,
          -0.14935575425624847,
          -0.05100969970226288,
          -0.09542831778526306,
          -0.06370707601308823,
          0.0520535483956337,
          0.022203611209988594,
          -0.14430105686187744,
          0.13409815728664398,
          0.14508689939975739,
          0.01365513913333416,
          0.12757208943367004,
          -0.1432790607213974,
          0.09619852155447006,
          0.036454860121011734,
          -0.14182807505130768,
          -0.00203252793289721,
          -0.09959404915571213,
          0.046806562691926956,
          0.1179502010345459,
          0.03135981038212776,
          -0.14239473640918732,
          -0.05372181162238121,
          0.003044412238523364,
          0.12035166472196579,
          -0.029777519404888153,
          -0.07229498028755188,
          0.04008859768509865,
          -0.0495663657784462,
          -0.09775707870721817,
          -0.12410295754671097,
          -0.06397894024848938,
          -0.028799984604120255,
          -0.11857851594686508,
          -0.08927036076784134,
          0.07391572743654251,
          0.1162661612033844,
          0.07917269319295883,
          0.06379755586385727,
          -0.10091196745634079,
          0.1065114289522171,
          -0.09785229712724686,
          -0.04688936471939087,
          0.12580394744873047,
          0.05324380844831467,
          -0.09328346699476242,
          0.05283292755484581,
          -0.04582083225250244,
          -0.00613828469067812,
          -0.04456115886569023,
          -0.009775168262422085,
          -0.005564267281442881,
          0.11088453978300095,
          0.11784908175468445,
          -0.05363551154732704,
          0.07382341474294662,
          -0.135943204164505,
          0.07612986117601395,
          0.06151445582509041,
          0.13626372814178467,
          -0.11364280432462692,
          0.11924433708190918
        ],
        [
          -0.1197689026594162,
          0.13099582493305206,
          0.0027746737468987703,
          0.1453978419303894,
          0.16053755581378937,
          -0.11746988445520401,
          -0.0014740636106580496,
          -0.03259025514125824,
          0.08522074669599533,
          -0.08599843084812164,
          -0.08991272747516632,
          0.1372348666191101,
          0.04492742195725441,
          0.012171818874776363,
          -0.06567792594432831,
          0.060839515179395676,
          -0.10313554853200912,
          -0.11661116033792496,
          0.1720445603132248,
          0.051572926342487335,
          0.06172769516706467,
          0.01742502674460411,
          0.10010983049869537,
          0.039171114563941956,
          0.06946968287229538,
          0.051272086799144745,
          0.1277868151664734,
          -0.05555860698223114,
          0.04939371347427368,
          -0.10603003948926926,
          -0.03009534440934658,
          0.047416429966688156,
          -0.04283291846513748,
          0.03236182779073715,
          -0.06108416989445686,
          0.04350348934531212,
          -0.08670113235712051,
          -0.11619190126657486,
          -0.0010508967097848654,
          -0.1023574024438858,
          0.13398925960063934,
          -0.10776030272245407,
          0.19015631079673767,
          0.15699028968811035,
          0.08723143488168716,
          -0.058300651609897614,
          0.013159826397895813,
          0.07175327092409134,
          -0.040650609880685806,
          0.13466137647628784,
          0.0014908056473359466,
          0.1646844893693924,
          -0.02794048935174942,
          -0.09353931248188019,
          0.13163577020168304,
          0.16384999454021454,
          -0.04245612397789955,
          -0.12264492362737656,
          -0.10556922107934952,
          0.11602867394685745,
          -0.08815742284059525,
          -0.08934328705072403,
          0.12255135923624039,
          0.1582217812538147,
          0.12271032482385635,
          -0.059665221720933914,
          -0.04744403064250946,
          0.15518637001514435,
          0.1324729472398758,
          -0.012733081355690956,
          0.0619557686150074,
          -0.009586353786289692,
          0.09432782977819443,
          -0.00018264296522829682,
          0.06129779294133186,
          0.06025916337966919,
          0.16693107783794403,
          0.15536993741989136,
          0.1587163656949997,
          0.10297977179288864,
          0.0960208997130394,
          0.15631408989429474,
          -0.017004624009132385,
          -0.11901707947254181,
          -0.09698379784822464,
          -0.03117726370692253,
          0.15386340022087097,
          0.02669711224734783,
          -0.1173500269651413,
          -0.006766171660274267,
          -0.0848063975572586,
          -0.05760614201426506,
          0.05129757896065712,
          0.14739884436130524,
          0.09761495143175125,
          0.18000011146068573,
          0.10169614851474762,
          -0.09363532066345215,
          0.18206556141376495,
          -0.03554784879088402,
          -0.11306272447109222,
          -0.0004970785812474787,
          0.013722357340157032,
          -0.0367802195250988,
          0.12881453335285187,
          -0.11340028047561646,
          0.07993771135807037,
          -0.027985014021396637,
          -0.09975199401378632,
          -0.03241560980677605,
          0.16074718534946442,
          -0.07287049293518066,
          -0.001620588474906981,
          -0.13425981998443604,
          -0.007156249601393938,
          0.14325523376464844,
          -0.12560811638832092,
          0.025518277660012245,
          0.13083675503730774,
          0.108962781727314,
          0.08990868926048279,
          0.007730843033641577,
          -0.07975369691848755,
          0.09097471833229065,
          -0.07416529953479767,
          0.01820654422044754,
          0.010136510245501995,
          0.1774027943611145
        ],
        [
          0.038143448531627655,
          0.08380300551652908,
          -0.032649651169776917,
          0.046110209077596664,
          -0.07013174891471863,
          -0.10405753552913666,
          0.06339699774980545,
          0.0748327225446701,
          0.14252156019210815,
          -0.12795348465442657,
          -0.018847575411200523,
          -0.07853669673204422,
          -0.013963167555630207,
          0.14135132730007172,
          0.12963944673538208,
          -0.06237645074725151,
          -0.11429644376039505,
          -0.04191715270280838,
          0.10196563601493835,
          -0.057097531855106354,
          0.06438954919576645,
          0.08477192372083664,
          -0.0579405203461647,
          -0.062011558562517166,
          0.04834940657019615,
          0.11662192642688751,
          -0.018593132495880127,
          0.05195988342165947,
          -0.07142788916826248,
          -0.1460174024105072,
          -0.029710395261645317,
          -0.05367264151573181,
          -0.01357396598905325,
          0.035647470504045486,
          0.023104598745703697,
          0.10534725338220596,
          0.04900938645005226,
          0.0032574275974184275,
          0.12891188263893127,
          0.13296085596084595,
          -0.011351210065186024,
          0.10195083916187286,
          0.05813580006361008,
          -0.044353142380714417,
          0.018696483224630356,
          0.1084267646074295,
          0.11061301827430725,
          0.1296122521162033,
          -0.07628036290407181,
          0.07012384384870529,
          0.1417878270149231,
          0.14633722603321075,
          0.070689857006073,
          -0.08616187423467636,
          0.10827984660863876,
          -0.011126168072223663,
          -0.12068254500627518,
          0.054172053933143616,
          -0.10713757574558258,
          -0.10961802303791046,
          -0.05112326145172119,
          -0.12646853923797607,
          -0.13034696877002716,
          0.054640207439661026,
          -0.14832384884357452,
          -0.1254081428050995,
          -0.03575541824102402,
          -0.008124425075948238,
          0.06274565309286118,
          -0.14879925549030304,
          -0.09589239954948425,
          -0.0366915762424469,
          -0.05181485041975975,
          -0.10655594617128372,
          0.09152110666036606,
          -0.1437760591506958,
          -0.11316817998886108,
          -0.1048414334654808,
          -0.11887654662132263,
          -0.1280873864889145,
          -0.025658302009105682,
          0.03672502934932709,
          0.1237948089838028,
          0.12307514995336533,
          0.11394618451595306,
          -0.12725766003131866,
          -0.0606561042368412,
          -0.01151484064757824,
          0.07188425213098526,
          -0.13336226344108582,
          0.06614354997873306,
          -0.0399601012468338,
          0.03522271662950516,
          0.01841353252530098,
          -0.11918075382709503,
          -0.1086072027683258,
          0.0864577442407608,
          0.14599548280239105,
          -0.10275895148515701,
          -0.08274583518505096,
          0.0650591254234314,
          -0.13808608055114746,
          0.11475685238838196,
          -0.12051922082901001,
          -0.10188234597444534,
          0.07394272089004517,
          -0.1339954435825348,
          -0.11724516749382019,
          -0.06147754192352295,
          0.04485158994793892,
          -0.0037008507642894983,
          -0.05436800420284271,
          0.12177851796150208,
          0.09965168684720993,
          -0.007762433495372534,
          -0.13376742601394653,
          -0.12516357004642487,
          -0.0071674794889986515,
          -0.14470933377742767,
          -0.058603256940841675,
          0.07848773151636124,
          0.14474710822105408,
          -0.12762069702148438,
          -0.06073662266135216,
          0.02957189455628395,
          -0.08783850818872452,
          0.11462391912937164,
          -0.13046550750732422
        ],
        [
          -0.13566076755523682,
          -0.007852422073483467,
          -0.07017870247364044,
          0.025836970657110214,
          0.020162709057331085,
          -0.08514796197414398,
          -0.048450108617544174,
          0.08226580172777176,
          0.042114872485399246,
          0.1626226007938385,
          0.03946274146437645,
          -0.051028039306402206,
          0.061342380940914154,
          0.06595561653375626,
          0.10890036076307297,
          -0.1141253262758255,
          0.13808996975421906,
          -0.11437490582466125,
          0.11213664710521698,
          0.10927555710077286,
          -0.024337489157915115,
          0.030848555266857147,
          -0.0911685898900032,
          0.09679224342107773,
          -0.01023623812943697,
          -0.059767063707113266,
          -0.12778839468955994,
          -0.10309995710849762,
          0.0024530726950615644,
          0.005157391540706158,
          0.004392336122691631,
          0.1319040209054947,
          -0.01297253742814064,
          0.0239456444978714,
          -0.0779547318816185,
          -0.10312039405107498,
          0.11591227352619171,
          0.07042917609214783,
          0.05721692368388176,
          0.12188948690891266,
          0.0824490338563919,
          0.11552347242832184,
          -0.024454057216644287,
          0.04115654528141022,
          0.09973687678575516,
          -0.016092872247099876,
          -0.006880542263388634,
          -0.061250582337379456,
          0.1803579479455948,
          0.008260508999228477,
          -0.011150024831295013,
          -0.10187166929244995,
          -0.025146158412098885,
          0.030874814838171005,
          0.13682059943675995,
          0.17967335879802704,
          -0.1307663768529892,
          -0.11270654201507568,
          0.0913381576538086,
          -0.053471893072128296,
          0.15277591347694397,
          0.07186076045036316,
          0.1563151627779007,
          0.14795123040676117,
          -0.10545655339956284,
          0.1573227196931839,
          -0.047483865171670914,
          0.08203156292438507,
          0.08438429981470108,
          0.05531829595565796,
          0.11589422076940536,
          0.14071869850158691,
          0.1231231689453125,
          -0.08058830350637436,
          0.08228800445795059,
          -0.06007569655776024,
          0.1314249038696289,
          0.16010276973247528,
          0.02185405045747757,
          -0.14476840198040009,
          0.03984612226486206,
          0.15671242773532867,
          0.03369319811463356,
          -0.0003887171042151749,
          -0.006298189517110586,
          0.06349492073059082,
          -0.07394685596227646,
          0.1175806075334549,
          0.17850399017333984,
          0.14054344594478607,
          -0.06750484555959702,
          0.0795251727104187,
          -0.04477418214082718,
          -0.08548758178949356,
          -0.07115194201469421,
          0.1757662147283554,
          -0.11523646861314774,
          -0.010216728784143925,
          0.09067284315824509,
          -0.03063960373401642,
          0.13428102433681488,
          -0.025977807119488716,
          -0.054008059203624725,
          0.15120536088943481,
          0.11892808228731155,
          -0.01203094981610775,
          0.13919846713542938,
          -0.05942023545503616,
          -0.09375982731580734,
          -0.1011279821395874,
          -0.1054881289601326,
          -0.0758034884929657,
          0.08473238348960876,
          0.04860464856028557,
          0.12594568729400635,
          -0.017763877287507057,
          0.0995691791176796,
          0.1698017716407776,
          0.03549812361598015,
          -0.09017463773488998,
          0.02472035400569439,
          -0.07790103554725647,
          0.04990529268980026,
          0.1419864445924759,
          0.16932305693626404,
          0.07353972643613815,
          -0.11172481626272202,
          -0.10466744005680084
        ],
        [
          0.14384135603904724,
          0.11555692553520203,
          -0.002556865569204092,
          0.059264421463012695,
          0.06411824375391006,
          0.07320860028266907,
          -0.02743426151573658,
          -0.07781388610601425,
          0.018016796559095383,
          0.01893579587340355,
          -0.15473872423171997,
          0.12917588651180267,
          0.043288376182317734,
          0.1346684843301773,
          -0.11944910138845444,
          0.10500101000070572,
          0.03433697298169136,
          -0.084813691675663,
          -0.11575675010681152,
          -0.013148336671292782,
          0.14594554901123047,
          -0.06205045431852341,
          -0.09966277331113815,
          -0.0006173620349727571,
          0.05027858912944794,
          0.123372882604599,
          0.1257743388414383,
          0.10346575081348419,
          -0.06531725823879242,
          -0.06800278276205063,
          -0.13115711510181427,
          0.027286196127533913,
          0.12139295041561127,
          0.10425199568271637,
          -0.05321475863456726,
          0.1257450431585312,
          -0.0040789879858493805,
          -0.055225908756256104,
          0.017353510484099388,
          -0.05278785154223442,
          0.11545790731906891,
          -0.0264830831438303,
          0.004221606533974409,
          0.05353054031729698,
          -0.037983134388923645,
          -0.05750260874629021,
          0.07183504849672318,
          -0.09392012655735016,
          -0.03159397467970848,
          -0.04054470360279083,
          -0.11506819725036621,
          0.09339776635169983,
          -0.06912820786237717,
          -0.04146887734532356,
          -0.1115599051117897,
          0.0340154767036438,
          0.13284023106098175,
          -0.12274839729070663,
          0.09481517225503922,
          0.13361650705337524,
          -0.14798808097839355,
          -0.03667377680540085,
          -0.0870724469423294,
          -0.030948424711823463,
          0.012105791829526424,
          -0.012886492535471916,
          0.11159107834100723,
          -0.06499946862459183,
          -0.024574920535087585,
          0.039857495576143265,
          0.09606552869081497,
          -0.103782057762146,
          0.15489743649959564,
          -0.02784471958875656,
          0.06451313197612762,
          -0.12473999708890915,
          -0.1472904533147812,
          -0.049936696887016296,
          -0.09056822955608368,
          -0.05958404764533043,
          -0.017786780372262,
          -0.07172258198261261,
          0.05902204290032387,
          -0.14032715559005737,
          0.03539526090025902,
          -0.020506205037236214,
          0.03204626217484474,
          0.12449081987142563,
          0.0839727371931076,
          -0.15132619440555573,
          -0.12695267796516418,
          -0.0996103435754776,
          0.07175976037979126,
          -0.13116104900836945,
          -0.07686201483011246,
          0.023786671459674835,
          -0.06430002301931381,
          0.13485181331634521,
          0.048296619206666946,
          -0.13670212030410767,
          0.0005797197227366269,
          0.11086186021566391,
          0.15103641152381897,
          -0.10104364901781082,
          0.004204594995826483,
          -0.0784885510802269,
          0.11364604532718658,
          0.10072203725576401,
          -0.04429049789905548,
          0.06587628275156021,
          -0.09527003765106201,
          0.04376468062400818,
          -0.067074254155159,
          0.027521543204784393,
          0.036900825798511505,
          0.04853532463312149,
          -0.0747997909784317,
          -0.05080755054950714,
          -0.11654932051897049,
          -0.1517011672258377,
          0.06940464675426483,
          -0.0740615576505661,
          0.059363629668951035,
          0.0003829305060207844,
          -0.025022249668836594,
          0.09928067028522491,
          -0.05183178186416626,
          0.12495287507772446
        ],
        [
          -0.11783619970083237,
          -0.06572737544775009,
          -0.06200298294425011,
          0.06718119978904724,
          0.08099756389856339,
          -0.10872761905193329,
          0.1037064790725708,
          0.14521752297878265,
          0.09454767405986786,
          -0.024973075836896896,
          0.01965603604912758,
          -0.043352607637643814,
          -0.07121642678976059,
          0.12804998457431793,
          -0.04213465005159378,
          -0.026249073445796967,
          -0.0881049856543541,
          0.09136202186346054,
          -0.06406126171350479,
          0.1112961396574974,
          0.1492621898651123,
          -0.07520940899848938,
          0.12440799176692963,
          -0.13581931591033936,
          -0.1361701637506485,
          0.03648436442017555,
          -0.09386716037988663,
          -0.012779810465872288,
          -0.12955285608768463,
          0.14404694736003876,
          0.013046428561210632,
          0.13847194612026215,
          -0.09630722552537918,
          -0.06249158829450607,
          0.03649141266942024,
          -0.11883318424224854,
          0.018753450363874435,
          -0.14933542907238007,
          -0.1146688312292099,
          -0.06363154202699661,
          0.058106016367673874,
          -0.061414096504449844,
          -0.03212517127394676,
          0.07552235573530197,
          0.12042304128408432,
          0.09340668469667435,
          0.07901930809020996,
          -0.1366143822669983,
          -0.043162133544683456,
          -0.07861398905515671,
          0.021448146551847458,
          -0.06702589988708496,
          -0.007509428542107344,
          0.0126848379150033,
          0.047384217381477356,
          -0.07655703276395798,
          -0.12722894549369812,
          -0.016842911019921303,
          0.048580970615148544,
          0.003999385051429272,
          0.12140007317066193,
          -0.006357814650982618,
          -0.10897331684827805,
          -0.12237298488616943,
          0.10722579061985016,
          -0.03337705135345459,
          -0.14010213315486908,
          0.0028829192742705345,
          -0.056783393025398254,
          -0.14172862470149994,
          0.005480150692164898,
          -0.001953328726813197,
          -0.10692654550075531,
          0.05544877052307129,
          -0.02239411696791649,
          0.10208220034837723,
          0.051645293831825256,
          0.016051018610596657,
          0.09839033335447311,
          0.04601914435625076,
          -0.14214245975017548,
          -0.056176431477069855,
          -0.0667383223772049,
          0.13642741739749908,
          0.12987127900123596,
          -0.0018413435900583863,
          0.015185285359621048,
          -0.0012550605461001396,
          -0.047875870019197464,
          0.038676388561725616,
          -0.1417592465877533,
          -0.11916245520114899,
          0.03458269685506821,
          0.10666655004024506,
          -0.0290218535810709,
          -0.01094821561127901,
          -0.1074201762676239,
          0.08714823424816132,
          -0.019070332869887352,
          -0.13837477564811707,
          -0.07979685068130493,
          0.12194212526082993,
          0.13941773772239685,
          0.04697922244668007,
          -0.051360514014959335,
          0.09719248116016388,
          0.02316528558731079,
          -0.006085364148020744,
          0.04420590400695801,
          0.029186418280005455,
          0.0801546573638916,
          0.12613381445407867,
          -0.10957443714141846,
          -0.0822334736585617,
          -0.050387199968099594,
          -0.13528138399124146,
          0.085622638463974,
          0.06286997348070145,
          -0.15138369798660278,
          -0.11814777553081512,
          0.0014527242165058851,
          -0.13673624396324158,
          0.09455893188714981,
          0.06872900575399399,
          -0.03093741647899151,
          -0.12889036536216736,
          0.09899024665355682,
          0.02654595673084259
        ],
        [
          0.08558481931686401,
          -0.003071253187954426,
          0.11908673495054245,
          -0.0647224709391594,
          -0.05561329424381256,
          -0.12143868952989578,
          0.09199127554893494,
          0.048426058143377304,
          -0.0941254198551178,
          -0.11747770011425018,
          0.07997946441173553,
          -0.13432447612285614,
          0.14352291822433472,
          -0.034123070538043976,
          -0.024859923869371414,
          -0.018942836672067642,
          0.031626634299755096,
          0.12835553288459778,
          -0.15071329474449158,
          -0.1311865746974945,
          -0.07965847849845886,
          0.06975717097520828,
          -0.030515069141983986,
          0.010748226195573807,
          -0.13579730689525604,
          -0.12520712614059448,
          -0.016989903524518013,
          -0.06476444005966187,
          0.07269216328859329,
          0.09596662223339081,
          0.10415832698345184,
          -0.04421126842498779,
          -0.056930992752313614,
          0.041212502866983414,
          0.052142638713121414,
          -0.14573195576667786,
          0.0830690860748291,
          0.029013335704803467,
          0.13415318727493286,
          0.010877796448767185,
          -0.03271112218499184,
          -0.11018673330545425,
          -0.10551762580871582,
          0.04415415599942207,
          0.06045308709144592,
          -0.08842653781175613,
          -0.07607588917016983,
          0.06824085116386414,
          0.0686059445142746,
          -0.022490931674838066,
          0.10473481565713882,
          -0.12290128320455551,
          -0.09440398961305618,
          0.10615130513906479,
          0.12166877090930939,
          0.045256562530994415,
          -0.11839022487401962,
          -0.047833703458309174,
          -0.033726416528224945,
          -0.09008856117725372,
          0.04842513054609299,
          -0.15052758157253265,
          -0.15600493550300598,
          -0.001445658621378243,
          0.12146838009357452,
          0.08445378392934799,
          -0.03974864259362221,
          -0.0635518953204155,
          -0.0022860527969896793,
          -0.017154822126030922,
          0.10003682225942612,
          -0.12666569650173187,
          -0.0983927920460701,
          -0.08769650012254715,
          -0.0016855410067364573,
          -0.10993869602680206,
          -0.15951913595199585,
          -0.12582899630069733,
          -0.012006477452814579,
          0.07692180573940277,
          0.05749253183603287,
          0.03963850066065788,
          -0.052209507673978806,
          0.008119492791593075,
          0.030404066666960716,
          0.04241081327199936,
          0.010576336644589901,
          -0.14725695550441742,
          -0.11838500946760178,
          0.0005232116673141718,
          -0.10604884475469589,
          0.08064579963684082,
          -0.12137847393751144,
          -0.13194672763347626,
          -0.09229753911495209,
          -0.011318672448396683,
          0.047102201730012894,
          0.01807369478046894,
          -0.07501144707202911,
          -0.06727077066898346,
          -0.1117263212800026,
          0.033152513206005096,
          -0.01650296337902546,
          0.13978227972984314,
          0.05104339122772217,
          0.10366557538509369,
          0.076187863945961,
          0.08709907531738281,
          -0.12879623472690582,
          0.12537530064582825,
          0.04254678264260292,
          0.0075142877176404,
          0.11018349975347519,
          0.03150844946503639,
          0.06904582679271698,
          -0.06949861347675323,
          -0.03775709122419357,
          -0.1250639408826828,
          0.13545918464660645,
          -0.09893952310085297,
          0.07158681005239487,
          -0.09927840530872345,
          0.14386390149593353,
          -0.1198154166340828,
          0.025716036558151245,
          0.001027521095238626,
          0.13492929935455322,
          0.14279654622077942
        ],
        [
          -0.1517115980386734,
          0.07432657480239868,
          -0.06987962126731873,
          0.03020409680902958,
          0.1386832445859909,
          0.02205898053944111,
          0.09998659044504166,
          -0.1552497148513794,
          -0.036147937178611755,
          0.01172600220888853,
          -0.09042248874902725,
          -0.09589026123285294,
          -0.0406222902238369,
          -0.06750081479549408,
          -0.11018748581409454,
          0.04780832305550575,
          -0.05829200893640518,
          -0.1484784185886383,
          -0.025067567825317383,
          -0.02026146650314331,
          0.08853913843631744,
          -0.050717659294605255,
          -0.15335436165332794,
          -0.04941428080201149,
          -0.10717132687568665,
          0.02966955490410328,
          -0.12921300530433655,
          0.09099297970533371,
          -0.03583409637212753,
          0.11037593334913254,
          0.09923217445611954,
          0.01417930331081152,
          0.12697559595108032,
          -0.002643127692863345,
          -0.1297990083694458,
          -0.14640694856643677,
          0.11645430326461792,
          0.15025928616523743,
          -0.031838029623031616,
          -0.046564094722270966,
          -0.12867236137390137,
          -0.047588471323251724,
          0.10947069525718689,
          -0.11860720068216324,
          -0.017384719103574753,
          0.0857752189040184,
          -0.05493761971592903,
          -0.13907988369464874,
          -0.04477069154381752,
          -0.05718782916665077,
          0.1469155251979828,
          0.022021282464265823,
          0.0644625872373581,
          0.03072311170399189,
          0.10716736316680908,
          0.07930147647857666,
          -0.06613843142986298,
          -0.07569222152233124,
          0.1272854506969452,
          -0.014437876641750336,
          -0.0906539261341095,
          0.14615942537784576,
          -0.12108449637889862,
          -0.14262451231479645,
          -0.07462222129106522,
          0.027073606848716736,
          0.12451660633087158,
          -0.13138049840927124,
          0.1339687556028366,
          0.0736892968416214,
          0.07921664416790009,
          0.004179287236183882,
          0.01458966638892889,
          -0.1492159068584442,
          -0.05854475498199463,
          -0.0982622504234314,
          0.015251542441546917,
          0.056105490773916245,
          0.10586259514093399,
          0.08353078365325928,
          0.13449586927890778,
          -0.07011646777391434,
          0.07678451389074326,
          0.09420889616012573,
          -0.08296315371990204,
          0.09289433807134628,
          0.023957837373018265,
          0.09117649495601654,
          -0.1078309640288353,
          0.11700423061847687,
          -0.10949691385030746,
          0.005560009740293026,
          0.08967700600624084,
          -0.03715725988149643,
          -0.02343081124126911,
          0.12324508279561996,
          0.017178095877170563,
          -0.12016934156417847,
          0.1325071007013321,
          0.11496173590421677,
          -0.04430216923356056,
          0.04230301454663277,
          -0.11162411421537399,
          0.01296353992074728,
          -0.10373536497354507,
          0.10968317091464996,
          -0.028542758896946907,
          0.09517049044370651,
          -0.055568091571331024,
          -0.015700606629252434,
          -0.003207687521353364,
          0.13840197026729584,
          -0.020321674644947052,
          -0.013373501598834991,
          -0.07608883827924728,
          0.10544230788946152,
          -0.08157100528478622,
          -0.040961820632219315,
          -0.06063777953386307,
          -0.14675769209861755,
          0.12050241231918335,
          0.13795125484466553,
          0.05689898878335953,
          0.04665692523121834,
          0.07096964865922928,
          -0.13760435581207275,
          0.04617201164364815,
          0.10953322798013687
        ],
        [
          -0.11161962151527405,
          -0.03922171890735626,
          -0.1478458046913147,
          0.025359218940138817,
          0.07668060809373856,
          0.11030416935682297,
          0.00183406425639987,
          -0.14138871431350708,
          -0.0737384632229805,
          0.04445255175232887,
          -0.15234236419200897,
          -0.09771226346492767,
          0.09839361160993576,
          -0.012076251208782196,
          -0.13638707995414734,
          -0.010941440239548683,
          0.04580256715416908,
          -0.024426400661468506,
          -0.10916069149971008,
          0.11648718267679214,
          -0.03470461443066597,
          -0.0447668731212616,
          -0.13268224895000458,
          0.030097918584942818,
          0.018094995990395546,
          -0.06575794517993927,
          -0.02354886196553707,
          -0.03785337880253792,
          0.0643729418516159,
          -0.12209796905517578,
          0.06313131004571915,
          -0.10659155249595642,
          0.0845545083284378,
          -0.10147414356470108,
          -0.050151389092206955,
          0.08137088268995285,
          -0.012710954062640667,
          0.06426133960485458,
          0.13989141583442688,
          0.10104559361934662,
          -0.06789295375347137,
          -0.14753518998622894,
          0.08346893638372421,
          -0.04048126935958862,
          -0.08727516233921051,
          -0.07862637937068939,
          -0.1304071545600891,
          -0.12258665263652802,
          -0.14245113730430603,
          0.03573930263519287,
          0.13016432523727417,
          -0.015261353924870491,
          -0.13708515465259552,
          -0.09492255002260208,
          0.024989763274788857,
          0.06931193172931671,
          -0.14385442435741425,
          -0.109880730509758,
          0.046102654188871384,
          0.09692369401454926,
          0.05116547644138336,
          -0.021703172475099564,
          -0.10340245068073273,
          0.016968470066785812,
          -0.1366751790046692,
          0.022216055542230606,
          0.0863148421049118,
          -0.05516139417886734,
          -0.029610658064484596,
          -0.03664140775799751,
          -0.08181989192962646,
          0.034458618611097336,
          -0.033480558544397354,
          -0.009844060987234116,
          0.028033537790179253,
          0.02967184968292713,
          0.03284744545817375,
          0.06432235240936279,
          -0.051571302115917206,
          -0.10555647313594818,
          -0.11163816601037979,
          -0.0618162639439106,
          0.02752554416656494,
          -0.08070862293243408,
          -0.06729713827371597,
          -0.09364323318004608,
          0.11165866255760193,
          0.09351625293493271,
          0.033660467714071274,
          -0.10304989665746689,
          0.017274104058742523,
          0.0808926597237587,
          0.06491745263338089,
          0.1080792099237442,
          -0.055134840309619904,
          0.1235475018620491,
          -0.09314694255590439,
          0.0007306436309590936,
          -0.06405133754014969,
          -0.05488842725753784,
          -0.085816890001297,
          -0.11921291053295135,
          -0.14555500447750092,
          -0.14325466752052307,
          -0.033012259751558304,
          0.05356501787900925,
          -0.05052688345313072,
          -0.05816693231463432,
          0.13771173357963562,
          0.03422253578901291,
          -0.0893481969833374,
          -0.03567402437329292,
          0.022058265283703804,
          0.09332268685102463,
          0.14521004259586334,
          -0.028500009328126907,
          -0.10773490369319916,
          -0.10028565675020218,
          -0.05020027980208397,
          -0.13424822688102722,
          -0.14626507461071014,
          0.061646170914173126,
          0.13732105493545532,
          -0.12106006592512131,
          -0.023047074675559998,
          0.06241167336702347,
          0.10922562330961227,
          -0.09730397164821625
        ],
        [
          0.062135737389326096,
          0.11399174481630325,
          0.050721533596515656,
          0.1161969006061554,
          0.09114329516887665,
          -0.024143284186720848,
          -0.11046631634235382,
          0.020827068015933037,
          0.09988344460725784,
          -0.00977221317589283,
          0.031001480296254158,
          0.005416154395788908,
          -0.12722665071487427,
          -0.08373445272445679,
          0.09327884018421173,
          -0.09291691333055496,
          -0.015832174569368362,
          0.11306959390640259,
          0.1380167156457901,
          0.12421903014183044,
          -0.00737655907869339,
          0.07189255952835083,
          0.1240873783826828,
          -0.027020180597901344,
          -0.025044649839401245,
          0.003482269123196602,
          -0.10555677115917206,
          0.09864970296621323,
          0.053075846284627914,
          0.13368774950504303,
          0.05939265340566635,
          -0.045900456607341766,
          0.05985919386148453,
          0.09533580392599106,
          0.0451214425265789,
          0.03360013663768768,
          0.1394481062889099,
          0.06375633180141449,
          0.12260940670967102,
          0.1539577841758728,
          0.17436106503009796,
          -0.03159848228096962,
          -0.008877163752913475,
          -0.013300389982759953,
          0.01938829943537712,
          0.042003899812698364,
          -0.07475298643112183,
          0.06574029475450516,
          -0.009021041914820671,
          -0.0840756818652153,
          -0.09919533133506775,
          -0.049361396580934525,
          0.03748196363449097,
          -0.11516766995191574,
          0.07236986607313156,
          0.03632088005542755,
          -0.011419401504099369,
          -0.02962084673345089,
          0.12065593153238297,
          0.07165596634149551,
          -0.12610334157943726,
          -0.10232354700565338,
          0.0032003968954086304,
          0.1461351364850998,
          0.021216223016381264,
          0.10993027687072754,
          0.00013506694813258946,
          0.13896936178207397,
          0.07343721389770508,
          -0.09071788191795349,
          0.012225653976202011,
          -0.04722282290458679,
          0.10966981202363968,
          0.004582762718200684,
          -0.11565566807985306,
          0.13161250948905945,
          0.030106423422694206,
          0.027746621519327164,
          -0.03391089290380478,
          -0.016089092940092087,
          0.1125163808465004,
          0.09611274302005768,
          -0.03681856766343117,
          0.09974813461303711,
          0.024267734959721565,
          0.1145012304186821,
          0.007006730884313583,
          0.08252807706594467,
          0.0022479200270026922,
          0.10543562471866608,
          0.15274280309677124,
          0.03509455546736717,
          0.023678883910179138,
          0.052931126207113266,
          -0.10240856558084488,
          0.0018051550723612309,
          -0.12709826231002808,
          0.15657730400562286,
          0.16495352983474731,
          0.03605591505765915,
          -0.05976759269833565,
          0.01768832840025425,
          -0.1294068843126297,
          -0.0028544811066240072,
          -0.010784221813082695,
          -0.06944642215967178,
          0.1473345309495926,
          0.11791083961725235,
          0.03351406380534172,
          0.009808159433305264,
          -0.137088805437088,
          0.13880927860736847,
          0.04866745322942734,
          0.10308947414159775,
          0.021199623122811317,
          0.17084045708179474,
          0.047080010175704956,
          0.08614686131477356,
          -0.008254965767264366,
          -0.009176515974104404,
          -0.054833147674798965,
          0.12004851549863815,
          0.14836052060127258,
          -0.08964589238166809,
          0.17166684567928314,
          0.13338154554367065,
          -0.017024781554937363,
          0.13347473740577698
        ],
        [
          0.026028329506516457,
          0.07114655524492264,
          -0.030485542491078377,
          0.10275478661060333,
          0.046111758798360825,
          0.14113102853298187,
          0.13740943372249603,
          0.025992844253778458,
          -0.001279322779737413,
          0.1300795078277588,
          -0.11334134638309479,
          0.048396166414022446,
          -0.07546485215425491,
          0.007936090230941772,
          -0.12191984057426453,
          -0.13649141788482666,
          -0.06286599487066269,
          -0.10673846304416656,
          -0.02930936962366104,
          0.03121311031281948,
          0.12952403724193573,
          -0.12424543499946594,
          -0.1331729143857956,
          0.022872760891914368,
          0.11203474551439285,
          0.045733705163002014,
          0.10015234351158142,
          0.13196741044521332,
          0.11016792804002762,
          -0.026119882240891457,
          0.07307963073253632,
          0.059504106640815735,
          -0.014826358295977116,
          -0.12558431923389435,
          0.030797407031059265,
          -0.03749139979481697,
          -0.04746003821492195,
          -0.022643664851784706,
          -0.08386988937854767,
          0.03702866658568382,
          0.059889234602451324,
          0.04023146256804466,
          0.08722178637981415,
          0.09640699625015259,
          0.1514403522014618,
          -0.16780231893062592,
          -0.13258978724479675,
          -0.07515601068735123,
          0.06741952151060104,
          0.05658790096640587,
          -0.105220727622509,
          0.08768289536237717,
          -0.15617172420024872,
          0.08788208663463593,
          0.12060674279928207,
          -0.020628547295928,
          0.052116841077804565,
          -0.10576896369457245,
          -0.12445513159036636,
          0.06513399630784988,
          0.07872454077005386,
          -0.10366684943437576,
          0.10454931855201721,
          0.11293189972639084,
          0.08617875725030899,
          0.13613395392894745,
          -0.11253051459789276,
          -0.13273833692073822,
          0.024019857868552208,
          0.11801333725452423,
          0.12070152908563614,
          -0.05582117661833763,
          0.11832839250564575,
          0.008964572101831436,
          -0.14089910686016083,
          0.09968150407075882,
          -0.052146364003419876,
          0.08344466984272003,
          0.09254823625087738,
          -0.08348552137613297,
          -0.1403951346874237,
          -0.09411250799894333,
          -0.09132245182991028,
          0.13138850033283234,
          -0.09516875445842743,
          0.030438432469964027,
          -0.021661920472979546,
          0.04442235827445984,
          0.11023771017789841,
          0.03502744436264038,
          0.06189074367284775,
          -0.08057110011577606,
          -0.1542535275220871,
          -0.15799930691719055,
          0.005347233731299639,
          -0.0863400399684906,
          0.032368190586566925,
          -0.06975066661834717,
          -0.027322744950652122,
          0.12937508523464203,
          -0.13554251194000244,
          -0.10011935979127884,
          0.04876266419887543,
          0.060083694756031036,
          0.0840844139456749,
          0.0826696902513504,
          0.06959094852209091,
          -0.07121186703443527,
          -0.15428392589092255,
          0.11869145184755325,
          0.12909077107906342,
          0.03184337541460991,
          0.13397063314914703,
          -0.07387746125459671,
          0.02516265958547592,
          -0.12818293273448944,
          0.07365156710147858,
          0.11345016211271286,
          0.06336911767721176,
          0.12567521631717682,
          0.08997142314910889,
          -0.051070451736450195,
          0.12821610271930695,
          -0.13288864493370056,
          -0.14588037133216858,
          0.13131418824195862,
          0.12139347195625305,
          -0.040888577699661255
        ],
        [
          0.007100045680999756,
          -0.13214318454265594,
          -0.09086423367261887,
          0.11653779447078705,
          -0.14938576519489288,
          0.0835130512714386,
          -0.08644735813140869,
          -0.04685399308800697,
          0.01942460797727108,
          -0.03724398836493492,
          -0.14156140387058258,
          -0.0720299780368805,
          0.031140144914388657,
          -0.07958637177944183,
          -0.09542065113782883,
          -0.06749173998832703,
          -0.11467350274324417,
          -0.13492073118686676,
          -0.07957244664430618,
          -0.021990429610013962,
          0.03601425886154175,
          -0.0935114324092865,
          -0.0713297575712204,
          -0.10897552967071533,
          0.004119745921343565,
          -0.10206214338541031,
          -0.11382582783699036,
          -0.12425792217254639,
          0.03665649890899658,
          -0.15101619064807892,
          -0.11744674295186996,
          -0.12396582961082458,
          -0.13225401937961578,
          0.13065773248672485,
          -0.07948420941829681,
          0.05462299659848213,
          0.01993688941001892,
          0.06896688044071198,
          -0.12109169363975525,
          -0.051215533167123795,
          0.1453862339258194,
          0.14552228152751923,
          -0.08691772073507309,
          -0.10951267927885056,
          0.10585995763540268,
          -0.01097281277179718,
          -0.04180024191737175,
          0.12804462015628815,
          -0.14882437884807587,
          -0.14765051007270813,
          0.08684177696704865,
          -0.04070811718702316,
          0.0009584416402503848,
          -0.11177664995193481,
          0.12556439638137817,
          0.05162828043103218,
          -0.05541837215423584,
          -3.2850218190105807e-07,
          0.13379713892936707,
          -0.06758848577737808,
          0.04838006943464279,
          0.015085441060364246,
          -0.15018652379512787,
          0.05746302753686905,
          -0.037344273179769516,
          0.017741965129971504,
          -0.0809224471449852,
          0.10311384499073029,
          0.046981651335954666,
          -0.14284496009349823,
          -0.13989020884037018,
          0.10142632573843002,
          -0.0363888256251812,
          -0.015615296550095081,
          0.07696159929037094,
          -0.12988786399364471,
          -0.06298686563968658,
          -0.016441242769360542,
          -0.07541636377573013,
          0.007052503991872072,
          -0.1425812989473343,
          -0.127988800406456,
          0.06501981616020203,
          -0.004329165909439325,
          -0.009960879571735859,
          0.03273548185825348,
          0.0797184482216835,
          -0.00028035836294293404,
          0.09160932898521423,
          0.0778244286775589,
          -0.1197640672326088,
          0.08453281223773956,
          -0.049260254949331284,
          0.08870606869459152,
          0.10816410928964615,
          -0.054832909256219864,
          -0.023005062714219093,
          -0.09699364751577377,
          -0.037077367305755615,
          0.05184350162744522,
          -0.07306133210659027,
          0.030757002532482147,
          0.035184189677238464,
          -0.09411448985338211,
          -0.08244138211011887,
          0.13243037462234497,
          0.11052855849266052,
          0.0984112098813057,
          0.14426521956920624,
          -0.03568117693066597,
          -0.006320473272353411,
          0.06236924231052399,
          -0.07914894819259644,
          0.01175373513251543,
          0.004420727025717497,
          -0.11130955070257187,
          0.10043494403362274,
          -0.014264751225709915,
          0.11380724608898163,
          0.028147874400019646,
          0.02048388123512268,
          -0.013120906427502632,
          -0.04712456837296486,
          0.09993885457515717,
          -0.06517193466424942,
          -0.061993781477212906,
          0.08012951165437698,
          -0.09173423796892166
        ],
        [
          0.14855635166168213,
          -0.07351169735193253,
          -0.08009597659111023,
          0.02793370932340622,
          -0.06314267218112946,
          -0.016915418207645416,
          0.049101535230875015,
          -0.00010453388676978648,
          0.0847090482711792,
          -0.09268885850906372,
          -0.08233720064163208,
          0.038192834705114365,
          -0.040234435349702835,
          -0.1077931821346283,
          -0.021891504526138306,
          -0.06356991082429886,
          0.16506285965442657,
          0.11409154534339905,
          -0.0036404093261808157,
          -0.086640864610672,
          -0.10199005156755447,
          -0.02822687104344368,
          -0.1161843091249466,
          -0.05777686461806297,
          0.006895736325532198,
          0.05202401429414749,
          -0.1383495330810547,
          0.08010462671518326,
          -0.13613596558570862,
          -0.03343775123357773,
          0.13185405731201172,
          0.08926144242286682,
          0.0660206750035286,
          0.1081317588686943,
          0.1278345137834549,
          -0.015834195539355278,
          -0.1289633810520172,
          0.054996341466903687,
          -0.07336322218179703,
          -0.009841016493737698,
          0.10015205293893814,
          -0.13329370319843292,
          0.08914275467395782,
          -0.09954645484685898,
          -0.0027259718626737595,
          -0.04980574548244476,
          0.0664362981915474,
          0.07721564173698425,
          -0.1110324114561081,
          -0.034438736736774445,
          0.0184701569378376,
          -0.05188274383544922,
          0.09412729740142822,
          0.006958363112062216,
          0.14816078543663025,
          -0.018002431839704514,
          0.09737400710582733,
          -0.10335135459899902,
          0.06628429889678955,
          0.004908235277980566,
          0.1356675922870636,
          -0.04762870818376541,
          0.04173331707715988,
          0.09236421436071396,
          0.05038810893893242,
          0.04671170562505722,
          -0.1488959640264511,
          0.0055616991594433784,
          0.055866848677396774,
          -0.12423299998044968,
          -0.13419227302074432,
          0.03697310760617256,
          0.124949611723423,
          -0.12448641657829285,
          -0.04477338865399361,
          0.11225143820047379,
          -0.06862252205610275,
          -0.019986161962151527,
          0.1357380449771881,
          -0.00659959577023983,
          0.06341434270143509,
          -0.03902484476566315,
          0.08062110096216202,
          0.04956275224685669,
          -0.002570201177150011,
          -0.07099226117134094,
          -0.07523950934410095,
          0.03383984789252281,
          -0.07247750461101532,
          0.10546807944774628,
          -0.04863757640123367,
          -0.05866989865899086,
          -0.033505044877529144,
          -0.0963677316904068,
          -0.01389248576015234,
          0.032547783106565475,
          -0.01809609867632389,
          0.0258360393345356,
          0.0027288394048810005,
          0.035810355097055435,
          1.1972039828833658e-05,
          0.15176597237586975,
          -0.03855876624584198,
          0.13583333790302277,
          0.06069329008460045,
          -0.14329062402248383,
          -0.11789356172084808,
          0.005322891753166914,
          -0.06864926964044571,
          0.154190793633461,
          -0.13056588172912598,
          -0.13063277304172516,
          0.018886899575591087,
          -0.030206579715013504,
          -0.08980200439691544,
          0.1206401064991951,
          0.02752687595784664,
          0.004618403967469931,
          0.01299445889890194,
          -0.06473369151353836,
          -0.0020434544421732426,
          -0.01435319148004055,
          0.07274363189935684,
          -0.08394582569599152,
          -0.11344890296459198,
          0.08930625021457672,
          0.01499074138700962,
          -0.036802541464567184
        ],
        [
          -0.0025117818731814623,
          -0.06832500547170639,
          0.18030285835266113,
          0.08455496281385422,
          -0.08743458986282349,
          -0.12103543430566788,
          0.16838809847831726,
          -0.07933709025382996,
          0.0019411493558436632,
          0.09604296088218689,
          -0.029681267216801643,
          0.10397164523601532,
          -0.08151477575302124,
          -0.04988694190979004,
          0.032923270016908646,
          0.09457382559776306,
          -0.021459849551320076,
          0.12989740073680878,
          -0.07472709566354752,
          -0.06412889808416367,
          -0.10819324851036072,
          -0.06716396659612656,
          -0.08435562998056412,
          -0.03333587571978569,
          0.17020834982395172,
          0.09588306397199631,
          0.03580622002482414,
          -0.059913262724876404,
          0.17984114587306976,
          -0.0542774572968483,
          0.053724393248558044,
          -0.06951557099819183,
          -0.07010434567928314,
          -0.05825810506939888,
          0.17816157639026642,
          -0.005893162451684475,
          0.16489729285240173,
          0.11335699260234833,
          0.10975594073534012,
          0.17634128034114838,
          -0.015308259055018425,
          0.08244936168193817,
          -0.05901309475302696,
          -0.021678725257515907,
          0.03161938488483429,
          0.17152556777000427,
          -0.06104252487421036,
          0.14026246964931488,
          -0.036131225526332855,
          0.08617231994867325,
          0.13557493686676025,
          0.06874189525842667,
          -0.10098467767238617,
          -0.036024898290634155,
          -0.04704193025827408,
          0.1208965927362442,
          0.11199914664030075,
          0.12535564601421356,
          -0.027861174196004868,
          0.03781108930706978,
          0.0500551201403141,
          -0.057260673493146896,
          0.04812577739357948,
          0.148180291056633,
          -0.021221986040472984,
          -0.012187371030449867,
          -0.028007784858345985,
          -0.06379219144582748,
          0.14810197055339813,
          -0.1044669821858406,
          0.08097225427627563,
          0.08830004930496216,
          0.12104601413011551,
          0.09613535553216934,
          -0.03103586845099926,
          0.13540403544902802,
          0.11656850576400757,
          -0.006319427862763405,
          -0.11455675214529037,
          0.1334751695394516,
          0.1888917088508606,
          -0.07963526248931885,
          -0.06687024235725403,
          -0.03933507949113846,
          -0.035020314157009125,
          0.0561586394906044,
          -0.008156887255609035,
          0.16549217700958252,
          0.04646621271967888,
          0.09075656533241272,
          0.1439303308725357,
          0.04580637067556381,
          -0.1130812019109726,
          -0.025724440813064575,
          0.11246392130851746,
          0.09342437237501144,
          0.053738683462142944,
          -0.07016978412866592,
          -0.04614153131842613,
          0.12678152322769165,
          -0.1094929650425911,
          -0.07774584740400314,
          -0.09752082079648972,
          -0.013353629969060421,
          -0.05203082412481308,
          -0.06720530241727829,
          0.05797849968075752,
          0.15048719942569733,
          0.043152615427970886,
          0.08762700110673904,
          0.039558056741952896,
          -0.032090023159980774,
          -0.046503059566020966,
          0.10669947415590286,
          0.1609293520450592,
          0.1522936224937439,
          -0.08787429332733154,
          -0.008518170565366745,
          0.10147685557603836,
          0.029724065214395523,
          0.12297176569700241,
          0.12943872809410095,
          0.05805065855383873,
          -0.006163403857499361,
          0.06418245285749435,
          -0.08731377124786377,
          -0.10151536017656326,
          -0.07046426087617874
        ],
        [
          0.09232476353645325,
          -0.0855063870549202,
          -0.09759300947189331,
          0.01907447911798954,
          -0.13269561529159546,
          -0.10428013652563095,
          0.02318429760634899,
          0.03771069645881653,
          0.10199235379695892,
          -0.1364847868680954,
          -0.05237630009651184,
